{"learner":{"attributes":{"scikit_learn":"{\"_estimator_type\": \"classifier\"}"},"feature_names":["CREW","Opp_Avg_3_game_DEFF","Opp_Avg_5_game_DEFF","Opp_Season_Avg_DEFF","Opp_Avg_3_game_OEFF","Opp_Avg_5_game_OEFF","Opp_Season_Avg_OEFF","Opp_Avg_3_game_PACE","Opp_Avg_5_game_PACE","Opp_Season_Avg_PACE","Opp_Avg_3_game_POSS","Opp_Avg_5_game_POSS","Opp_Season_Avg_POSS","Avg_3_game_DEFF","Avg_5_game_DEFF","Season_Avg_DEFF","Avg_3_game_OEFF","Avg_5_game_OEFF","Season_Avg_OEFF","Avg_3_game_PACE","Avg_5_game_PACE","Season_Avg_PACE","Avg_3_game_POSS","Avg_5_game_POSS","Season_Avg_POSS","CLOSING_SPREAD","CLOSING_TOTAL","MONEYLINE","Avg_3_game_PTS","Avg_5_game_PTS","Season_Avg_PTS","Streak","Last_ML_1","Last_ML_2","Last_ML_3","VENUE","TEAM","Opponent","Win_Loss_Diff","HOME TEAM WIN%","HOME TEAM POINTS DIFFERENTIAL","TOTAL POINTS PER GAME","CALLED FOULS PER GAME","FOUL% AGAINST ROAD TEAMS","FOUL% AGAINST HOME TEAMS","FOUL DIFFERENTIAL (Against Road Team) - (Against Home Team)","Elo_Rating","Momentum","MAIN REF","TEAM_REST_DAYS"],"feature_types":["c","float","float","float","float","float","float","float","float","float","float","float","float","float","float","float","float","float","float","float","float","float","float","float","float","float","float","int","float","float","float","int","int","int","int","int","c","c","int","float","float","float","float","float","float","float","float","float","c","c"],"gradient_booster":{"model":{"gbtree_model_param":{"num_parallel_tree":"1","num_trees":"100"},"iteration_indptr":[0,1,2,3,4,5,6,7,8,9,10,11,12,13,14,15,16,17,18,19,20,21,22,23,24,25,26,27,28,29,30,31,32,33,34,35,36,37,38,39,40,41,42,43,44,45,46,47,48,49,50,51,52,53,54,55,56,57,58,59,60,61,62,63,64,65,66,67,68,69,70,71,72,73,74,75,76,77,78,79,80,81,82,83,84,85,86,87,88,89,90,91,92,93,94,95,96,97,98,99,100],"tree_info":[0,0,0,0,0,0,0,0,0,0,0,0,0,0,0,0,0,0,0,0,0,0,0,0,0,0,0,0,0,0,0,0,0,0,0,0,0,0,0,0,0,0,0,0,0,0,0,0,0,0,0,0,0,0,0,0,0,0,0,0,0,0,0,0,0,0,0,0,0,0,0,0,0,0,0,0,0,0,0,0,0,0,0,0,0,0,0,0,0,0,0,0,0,0,0,0,0,0,0,0],"trees":[{"base_weights":[-1.2334257E-5,-4.9975243E-1,4.547098E-1,-7.5522435E-1,-7.7702425E-2,7.491577E-1,2.3398617E-1,-1.4925313E0,-5.711781E-1,5.621104E-1,-3.9873618E-1,1.1142902E0,4.7053432E-1,5.8225256E-1,-5.8477096E-2,-7.0969395E-2,-1.6008751E0,6.1744076E-1,-7.1328086E-1,1.2327389E0,-1.5753845E-2,4.9604902E-1,-7.749556E-1,1.6847613E0,8.2560253E-1,8.5401773E-1,1.7527263E-1,1.0883621E0,2.7429554E-1,2.188884E-1,-6.694032E-1,9.529611E-1,-4.3831646E-1,5.7179134E-2,-1.6450795E0,1.6280173E0,-2.4052945E-1,-2.8180215E-1,-1.0926958E0,1.6856616E0,5.269719E-1,5.216841E-1,-8.9503115E-1,8.8484544E-1,-4.76468E-1,-1.300261E-1,-1.0766385E0,1.7440977E0,1.0595171E-2,1.1537093E0,2.3792909E-1,1.2918588E0,-5.3941246E-2,-3.792576E-1,6.104759E-1,1.2154101E0,-3.0640912E-1,1.350252E0,2.8741313E-2,6.430779E-1,-4.8402363E-1,-1.5596351E-1,-1.1575317E0,4.4013846E-1,1.0595171E-2,-3.702482E-1,-5.4366696E-1,5.242907E-1,9.535207E-3,1.5871686E-1,-2.696157E-1,-1.8687695E-1,1.19837604E-1,-2.2521026E-1,-4.5200688E-1,9.535207E-3,5.314769E-1,1.4870221E-2,4.7526178E-1,2.5344014E-1,-1.6431311E-1,-3.3326936E-1,1.828668E-1,3.3938313E-1,-6.695495E-2,-3.1883162E-1,2.443556E-1,4.1463542E-1,-1.571192E-1,-1.02896675E-1,-4.2606458E-1,6.4683154E-2,5.370832E-1,5.1041E-1,2.3911566E-1,2.2940105E-1,-2.3120941E-1,-1.300714E-1,4.246901E-1,2.0186114E-1,-1.9034031E-1,9.816262E-2,-3.1485754E-1,3.852384E-1,3.2881595E-2,4.8012137E-1,2.4540462E-1,3.696867E-1,-2.4367328E-1,4.7578317E-1,-1.8844764E-1,1.4778833E-1,-1.3627107E-1,2.3581487E-1,-1.0154789E-1,2.9160555E-2,-2.695706E-1,2.1000487E-1,-2.248442E-1,-2.0495013E-3,-4.211785E-1],"categories":[1,3,5,9,10,11,12,13,14,15,17,20,22,23,25,29,33,34,36,39,40,42,44,45,47,48,49,50,52,53,55,56,58,64,65,67,69,71,72,73,75,76,77,78,79,81,0,1,3,4,5,6,7,10,11,12,14,15,16,19,21,22,23,25,26,28,30,31,32,34,35,36,37,38,39,40,43,45,46,49,50,52,53,54,55,56,58,59,63,64,65,66,67,68,69,70,71,74,75,80,3,5,7,8,9,10,11,12,13,15,16,17,18,19,20,21,25,26,27,28,30,31,32,33,37,38,40,41,43,44,45,46,47,48,49,50,54,57,2,3,4,6,8,9,13,15,16,19,21,22,23,24,25,28,29,0,1,2,3,4,6,7,8,9,10,11,12,13,14,15,16,17,18,20,21,22,23,24,25,27,28,0,1,2,3,5,6,7,8,9,12,14,19,21,22,23,24,27,28,1,2,3,5,6,7,8,9,11,12,14,15,16,18,19,20,22,23,24,25,27,28,29,30,32,33,34,35,37,39,41,42,43,44,45,46,47,48,49,50,51,52,53,56,57,2,5,6,7,10,11,12,15,16,17,18,19,20,21,22,23,26,27,29,1,2,3,4,6,8,10,11,12,13,14,15,17,23,26,27,4,6,8,9,10,11,12,13,15,16,17,18,20,21,23,25,27,29,0,4,6,10,11,13,15,17,23,30,31,37,39,47,0,3,5,6,7,8,9,12,13,15,16,18,19,20,22,23,24,25,26,27,28,29,30,31,32,33,34,35,36,37,39,40,41,42,43,44,48,49,50,51,52,53,54,55,56,57,58,1,3,4,8,10,11,12,14,15,17,18,20,22,23,27,28,1,2,4,5,6,7,8,13,14,15,16,17,20,22,26,28,29,1,4,10,15,16,18,20,22,27,5,6,10,15,16,17,18,19,20,24,29,1,2,4,6,9,11,12,13,14,15,17,18,19,21,22,23,26,27,28,1,3,4,8,9,11,12,15,16,18,19,20,26,0,5,9,11,13,14,16,18,20,22,25,26,0,1,2,4,5,6,7,8,10,11,12,14,15,67,72,1,2,8,9,10,11,16,17,20,25,26,0,2,4,7,13,14,15,19,22,23,24,26,29,0,1,2,6,9,15,17,21,22,26,28,30,34,40,42,46,47,48,50,52,53,55,58,1,2,3,4,5,6,7,8,10,12,13,24,28,1,6,11,14,22,23,31,34,38,42,45,46,48,50,51,53,54,55,0,1,3,4,5,6,7,8,27,61,11,16,38,74,75,0,1,2,3,4,5,6,7,8,9,10,12,13,14,15,16,17,18,19,20,21,22,23,24,25,26,27,28,29,30,31,32,33,35,36,37,38,39,41,42,43,44,45,46,47,48,49,50,51,52,53,54,55,56,57,58,59,60,61,62,64,65,66,67,68,69,71,72,73,74,80,0,1,3,5,7,8,9,10,12,15,18,19,20,21,23,24,26,27,28,29,0,1,2,3,4,5,6,9,10,11,12,13,14,15,17,19,20,21,22,23,24,25,26,27,29,30,32,33,34,35,36,38,39,40,41,42,43,44,45,46,47,48,49,50,51,52,53,54,55,56,57,58,59,60,62,63,64,65,66,67,68,69,70,71,72,73,74,75,76,77,78,79,81,82,83,5,18,20,21,22,27,29,0,1,2,3,4,5,6,7,8,9,10,11,12,13,14,15,16,17,18,19,20,22,23,24,25,26,27,28,37,46,47,57,1,5,6,8,9,13,15,16,17,19,20,21,24,25,26,28,29,0,2,3,4,5,7,8,10,12,14,16,17,18,19,20,22,23,24,25,26,27,28,29,30,32,33,34,35,36,38,39,41,43,44,45,46,47,48,49,53,54,55,56,57,2,3,4,5,6,7,8,11,12,15,18,19,20,21,22,23,25,27,28,29,31,33,34,35,36,38,39,40,42,46,48,52,54,9,17,33,34,47,56,79,9,22,24,42,46,48,50,51,52,58,2,3,8,9,13,15,19,21,22,25,29],"categories_nodes":[2,4,5,6,7,9,10,11,12,13,14,17,18,19,20,21,22,24,25,27,29,30,34,36,38,41,43,45,46,49,50,52,54,55,58,59,60,61],"categories_segments":[0,46,100,138,155,181,199,244,263,279,297,311,358,374,391,400,411,430,443,455,470,481,494,517,530,548,558,563,634,654,729,736,768,785,829,862,869,879],"categories_sizes":[46,54,38,17,26,18,45,19,16,18,14,47,16,17,9,11,19,13,12,15,11,13,23,13,18,10,5,71,20,75,7,32,17,44,33,7,10,11],"default_left":[0,0,0,0,0,1,1,1,0,1,1,1,1,1,1,0,0,1,1,1,1,1,1,0,1,1,0,1,0,1,1,0,0,0,1,0,1,0,1,0,0,1,1,1,0,0,1,0,0,0,1,0,1,0,1,1,0,0,1,1,1,1,0,0,0,0,0,0,0,0,0,0,0,0,0,0,0,0,0,0,0,0,0,0,0,0,0,0,0,0,0,0,0,0,0,0,0,0,0,0,0,0,0,0,0,0,0,0,0,0,0,0,0,0,0,0,0,0,0,0,0],"id":0,"left_children":[1,3,5,7,9,11,13,15,17,19,21,23,25,27,29,31,33,35,37,39,41,43,45,47,49,51,53,55,57,59,61,63,-1,-1,65,67,69,71,73,75,77,79,81,83,85,87,89,91,-1,93,95,97,99,101,103,105,107,109,111,113,115,117,119,-1,-1,-1,-1,-1,-1,-1,-1,-1,-1,-1,-1,-1,-1,-1,-1,-1,-1,-1,-1,-1,-1,-1,-1,-1,-1,-1,-1,-1,-1,-1,-1,-1,-1,-1,-1,-1,-1,-1,-1,-1,-1,-1,-1,-1,-1,-1,-1,-1,-1,-1,-1,-1,-1,-1,-1,-1,-1],"loss_changes":[4.0562836E2,9.1633545E1,6.056555E1,7.1017426E1,6.631721E1,4.0166428E1,5.45902E1,1.6085495E1,7.230185E1,4.1843834E1,7.271057E1,2.699794E1,2.5733139E1,3.782157E1,4.963364E1,1.3483327E1,8.049072E0,4.0248283E1,6.198088E1,1.5083626E1,2.8328573E1,2.4698479E1,2.9364563E1,5.51326E0,2.2173378E1,3.949832E1,3.1703627E1,1.6708054E1,4.0488518E1,6.0424683E1,2.2735714E1,2.54172E0,0E0,0E0,4.318054E0,3.9991913E0,1.3509914E1,4.193418E1,2.7484283E1,4.204239E0,1.0513695E1,1.3325247E1,8.061176E0,1.28725395E1,1.5237402E1,3.0172848E1,2.5520523E1,3.4934845E0,0E0,1.3185646E1,2.3418959E1,1.4912743E1,1.444666E1,2.7788736E1,2.4641926E1,1.1648163E1,7.6126113E0,1.4276646E1,2.8434067E1,1.797128E1,1.850682E1,2.375148E1,1.3236282E1,0E0,0E0,0E0,0E0,0E0,0E0,0E0,0E0,0E0,0E0,0E0,0E0,0E0,0E0,0E0,0E0,0E0,0E0,0E0,0E0,0E0,0E0,0E0,0E0,0E0,0E0,0E0,0E0,0E0,0E0,0E0,0E0,0E0,0E0,0E0,0E0,0E0,0E0,0E0,0E0,0E0,0E0,0E0,0E0,0E0,0E0,0E0,0E0,0E0,0E0,0E0,0E0,0E0,0E0,0E0,0E0,0E0,0E0],"parents":[2147483647,0,0,1,1,2,2,3,3,4,4,5,5,6,6,7,7,8,8,9,9,10,10,11,11,12,12,13,13,14,14,15,15,16,16,17,17,18,18,19,19,20,20,21,21,22,22,23,23,24,24,25,25,26,26,27,27,28,28,29,29,30,30,31,31,34,34,35,35,36,36,37,37,38,38,39,39,40,40,41,41,42,42,43,43,44,44,45,45,46,46,47,47,49,49,50,50,51,51,52,52,53,53,54,54,55,55,56,56,57,57,58,58,59,59,60,60,61,61,62,62],"right_children":[2,4,6,8,10,12,14,16,18,20,22,24,26,28,30,32,34,36,38,40,42,44,46,48,50,52,54,56,58,60,62,64,-1,-1,66,68,70,72,74,76,78,80,82,84,86,88,90,92,-1,94,96,98,100,102,104,106,108,110,112,114,116,118,120,-1,-1,-1,-1,-1,-1,-1,-1,-1,-1,-1,-1,-1,-1,-1,-1,-1,-1,-1,-1,-1,-1,-1,-1,-1,-1,-1,-1,-1,-1,-1,-1,-1,-1,-1,-1,-1,-1,-1,-1,-1,-1,-1,-1,-1,-1,-1,-1,-1,-1,-1,-1,-1,-1,-1,-1,-1,-1],"split_conditions":[8.119041E1,1.4858716E3,NaN,2.2324398E1,NaN,NaN,NaN,NaN,-3E0,NaN,NaN,NaN,NaN,NaN,NaN,1.021394E2,9.501131E1,NaN,NaN,NaN,NaN,NaN,NaN,1.232E2,NaN,NaN,1.16126495E2,NaN,-1E0,NaN,NaN,9.905636E1,-4.3831646E-1,5.7179134E-2,NaN,1.1666499E2,NaN,6.514304E1,NaN,1.08791664E2,6.19125E-1,NaN,1.21333336E2,NaN,1.14190765E2,NaN,NaN,2.07E2,1.0595171E-2,NaN,NaN,1.021393E2,NaN,1.1239657E2,NaN,NaN,1.11922264E2,1.0156916E2,NaN,NaN,NaN,NaN,1.0724035E2,4.4013846E-1,1.0595171E-2,-3.702482E-1,-5.4366696E-1,5.242907E-1,9.535207E-3,1.5871686E-1,-2.696157E-1,-1.8687695E-1,1.19837604E-1,-2.2521026E-1,-4.5200688E-1,9.535207E-3,5.314769E-1,1.4870221E-2,4.7526178E-1,2.5344014E-1,-1.6431311E-1,-3.3326936E-1,1.828668E-1,3.3938313E-1,-6.695495E-2,-3.1883162E-1,2.443556E-1,4.1463542E-1,-1.571192E-1,-1.02896675E-1,-4.2606458E-1,6.4683154E-2,5.370832E-1,5.1041E-1,2.3911566E-1,2.2940105E-1,-2.3120941E-1,-1.300714E-1,4.246901E-1,2.0186114E-1,-1.9034031E-1,9.816262E-2,-3.1485754E-1,3.852384E-1,3.2881595E-2,4.8012137E-1,2.4540462E-1,3.696867E-1,-2.4367328E-1,4.7578317E-1,-1.8844764E-1,1.4778833E-1,-1.3627107E-1,2.3581487E-1,-1.0154789E-1,2.9160555E-2,-2.695706E-1,2.1000487E-1,-2.248442E-1,-2.0495013E-3,-4.211785E-1],"split_indices":[47,46,0,47,0,48,37,37,31,36,48,36,36,36,48,8,16,48,37,37,37,36,36,29,37,37,47,0,31,36,36,20,0,0,48,3,36,47,48,30,39,0,28,0,13,0,37,26,0,0,36,14,48,17,37,48,16,12,48,0,48,37,14,0,0,0,0,0,0,0,0,0,0,0,0,0,0,0,0,0,0,0,0,0,0,0,0,0,0,0,0,0,0,0,0,0,0,0,0,0,0,0,0,0,0,0,0,0,0,0,0,0,0,0,0,0,0,0,0,0,0],"split_type":[0,0,1,0,1,1,1,1,0,1,1,1,1,1,1,0,0,1,1,1,1,1,1,0,1,1,0,1,0,1,1,0,0,0,1,0,1,0,1,0,0,1,0,1,0,1,1,0,0,1,1,0,1,0,1,1,0,0,1,1,1,1,0,0,0,0,0,0,0,0,0,0,0,0,0,0,0,0,0,0,0,0,0,0,0,0,0,0,0,0,0,0,0,0,0,0,0,0,0,0,0,0,0,0,0,0,0,0,0,0,0,0,0,0,0,0,0,0,0,0,0],"sum_hessian":[1.7829994E3,8.494042E2,9.3359515E2,5.286292E2,3.20775E2,3.9897015E2,5.34625E2,1.04176926E2,4.2445227E2,1.06924995E2,2.1384999E2,1.7137979E2,2.2759036E2,2.4357915E2,2.9104584E2,7.494743E0,9.668218E1,4.4968456E1,3.7948383E2,4.8965652E1,5.7959343E1,6.3205666E1,1.5064433E2,5.5960747E1,1.1541904E2,9.818113E1,1.2940923E2,9.1186035E1,1.5239311E2,2.0060928E2,9.043656E1,4.4968457E0,2.9978971E0,2.2484229E0,9.443376E1,2.0235806E1,2.473265E1,1.7837488E2,2.0110893E2,2.8979671E1,1.9985981E1,3.622459E1,2.1734755E1,4.521828E1,1.7987383E1,4.8466003E1,1.0217833E2,5.396215E1,1.9985981E0,7.344848E1,4.197056E1,6.5953735E1,3.2227394E1,5.6960045E1,7.244918E1,8.369129E1,7.494743E0,2.7480724E1,1.24912384E2,1.2516221E2,7.5447075E1,4.471863E1,4.571793E1,2.4982476E0,1.9985981E0,2.9729147E1,6.470461E1,1.8736856E1,1.4989486E0,1.149194E1,1.3240712E1,1.1891659E2,5.9458294E1,1.1167167E2,8.943726E1,1.4989486E0,2.7480724E1,1.4489836E1,5.496145E0,2.7980373E1,8.244217E0,1.9236507E1,2.4982476E0,3.6974064E1,8.244217E0,1.2491238E1,5.496145E0,9.493341E0,3.8972664E1,3.3226692E1,6.895164E1,1.7487733E0,5.2213375E1,2.7480724E1,4.596776E1,2.7730549E1,1.4240011E1,4.2470207E0,6.1706715E1,1.4240011E1,1.7987383E1,2.7980373E1,2.8979671E1,3.0228796E1,4.2220387E1,4.097126E1,4.2720036E1,1.4989486E0,5.9957943E0,2.473265E1,2.7480724E0,6.3705315E1,6.1207066E1,1.0942325E2,1.573896E1,3.1727745E1,4.3719334E1,1.8237207E1,2.6481424E1,8.244217E0,3.7473713E1],"tree_param":{"num_deleted":"0","num_feature":"50","num_nodes":"121","size_leaf_vector":"1"}},{"base_weights":[1.3880603E-4,-3.279881E-1,3.7990943E-1,-4.747656E-1,1.6143383E-1,4.4653907E-1,-2.9684854E-1,-9.6851724E-1,-3.0406374E-1,6.879558E-1,-9.40602E-2,3.1060314E-1,7.43786E-1,2.2912261E-1,-9.875627E-1,-5.995338E-1,-1.2624859E0,4.1202244E-1,-4.507718E-1,9.07989E-1,-5.7198393E-1,2.4454501E-1,-7.5416386E-1,4.258327E-1,-2.4625488E-1,1.2729436E0,4.3115023E-1,9.871392E-1,-3.1730986E-1,-2.539118E-1,-1.4102455E0,5.6255724E-2,-1.185238E0,1.8303122E-1,-1.4234113E0,1.1143857E0,-1.4987907E-1,2.7630627E-1,-5.632378E-1,1.0683818E0,-4.5839265E-1,6.285879E-1,-1.0172662E0,6.623464E-1,-4.7559565E-1,-1.0388827E0,1.9604792E-1,1.0470341E0,2.8489336E-1,1.3852905E-1,-7.8546387E-1,-2.5669557E-1,1.3759077E0,8.759379E-1,-1.6588637E-1,1.481552E0,1.7194913E-1,9.685449E-1,-7.3312336E-1,3.5118443E-1,-1.0690241E0,-1.5838195E0,1.3806444E-1,3.6866853E-1,-2.0642601E-1,-3.901605E-1,3.969001E-1,3.940994E-1,-1.6543199E-1,1.0393137E-2,-4.42596E-1,3.7718055E-1,-1.326957E-1,5.6817334E-2,-4.4061092E-1,3.8269082E-1,-1.6286136E-1,-1.0065835E-1,-2.8774264E-1,4.225792E-1,1.6576055E-1,-3.281292E-1,3.4899697E-1,-5.2577414E-2,3.262918E-1,-3.6999285E-1,4.587276E-2,2.9428893E-1,-1.1632821E-2,2.127771E-1,-2.4457009E-1,1.7998432E-1,-3.4558627E-1,2.5956926E-1,-2.769529E-1,4.0048817E-1,1.424561E-1,1.9141097E-1,2.34851E-2,1.004333E-1,-3.417779E-1,1.8953496E-1,-3.1962144E-1,3.2194322E-1,-3.8175038E-1,4.3064633E-1,-1.9058207E-1,3.13665E-1,-3.0305767E-1,2.1576796E-1,-1.9014347E-1,1.1388412E-1,4.8385525E-1,-3.15727E-1,2.5161687E-1,-1.7975052E-1,4.315792E-1,-4.0332386E-1,1.4021985E-1,2.629079E-1,-2.1864651E-1,6.791843E-2,-4.4412076E-1,-1.4008048E-1,-5.360525E-1],"categories":[5,10,11,14,15,17,20,25,33,39,42,47,48,72,0,1,2,3,4,6,8,9,11,14,15,16,19,23,24,26,27,28,1,3,6,9,16,19,20,22,23,24,28,29,0,2,6,14,15,21,24,26,30,34,35,36,42,46,48,50,51,52,53,55,0,1,3,11,13,28,39,51,1,3,13,15,18,21,27,28,29,4,10,15,16,19,26,28,32,36,38,45,47,1,2,4,6,7,8,10,14,15,16,17,19,20,24,27,29,0,1,2,3,4,5,7,9,11,12,14,19,24,27,1,3,4,6,8,9,11,12,13,14,15,16,17,23,26,28,0,1,3,4,5,6,7,8,9,10,11,12,14,15,16,17,18,19,20,21,22,23,24,25,26,27,29,30,31,32,33,34,35,36,37,39,40,41,42,43,44,45,46,47,48,49,50,51,52,53,54,55,56,58,59,60,61,62,63,64,65,66,67,68,69,70,71,72,73,74,75,76,77,78,79,1,6,7,10,11,12,14,17,18,19,20,23,24,25,27,28,0,1,2,4,5,6,7,9,10,12,14,15,16,17,18,19,21,22,23,24,25,26,28,29,30,31,32,33,34,35,36,37,38,39,40,42,43,44,45,46,47,48,49,50,51,52,53,54,55,56,58,60,61,62,63,64,65,66,68,69,70,71,72,73,74,75,76,77,78,79,80,81,82,3,21,30,37,0,1,2,3,4,5,6,8,9,10,11,12,13,14,15,16,17,18,19,20,21,22,23,24,25,26,27,28,29,30,31,32,33,34,35,36,37,38,39,40,41,42,43,44,45,46,47,48,49,50,51,52,53,54,55,56,57,58,59,60,61,62,63,64,65,66,0,1,2,3,4,5,6,7,8,10,11,12,14,15,16,17,18,19,20,22,23,26,38,42,58,0,1,3,4,5,6,8,9,10,11,12,13,14,15,17,18,19,20,21,22,23,24,25,27,29,31,32,33,34,35,36,39,40,41,42,43,45,47,48,49,50,52,53,55,57,58,59,60,61,63,64,65,66,67,69,70,71,72,73,75,76,77,78,79,80,81,82,2,3,4,6,8,9,11,12,13,24,26,29,1,3,5,6,7,8,9,10,11,12,17,18,19,20,24,25,27,29,30,31,32,33,35,36,37,40,41,42,43,44,49,50,54,55,56,57,0,1,2,3,4,5,6,7,8,9,12,13,14,15,16,17,26,27,1,2,3,4,5,6,7,10,12,13,14,17,18,19,20,21,22,26,28,29,0,1,2,3,4,5,6,7,8,10,11,12,13,14,15,16,17,18,19,20,0,1,2,3,4,5,6,7,8,9,10,12,13,15,16,17,18,20,21,22,23,24,25,26,27,28,29,1,28,37,46,61,67,0,2,3,4,6,7,8,9,10,11,12,13,14,16,17,19,22,23,28,1,4,6,7,11,14,17,19,20,21,22,23,26,2,4,5,7,8,10,11,12,16,19,20,21,22,24,25,1,3,4,5,6,8,9,10,11,12,13,14,15,16,17,18,19,20,22,37,59,75,0,1,2,3,5,6,7,8,9,15,16,19,27,28,8,11,12,14,15,17,22,24,25,26,29,1,2,3,4,5,6,8,9,11,13,15,17,19,21,26,27,28,29,0,2,3,5,6,7,8,9,11,12,13,14,15,16,17,18,19,20,21,22,23,24,25,26,28,29,1,13,27,56,0,3,6,9,11,14,15,16,17,18,19,20,22,24,25,26,27,28],"categories_nodes":[2,4,6,7,9,10,11,12,14,15,16,17,18,19,20,21,23,24,26,28,31,33,34,36,37,38,39,43,44,47,48,50,53,54],"categories_segments":[0,14,32,44,64,72,81,93,109,123,139,214,230,303,307,373,398,465,477,513,531,551,571,598,604,623,636,651,673,687,698,716,742,746],"categories_sizes":[14,18,12,20,8,9,12,16,14,16,75,16,73,4,66,25,67,12,36,18,20,20,27,6,19,13,15,22,14,11,18,26,4,18],"default_left":[0,0,1,0,1,0,1,1,0,1,1,1,1,0,1,1,0,1,0,1,0,1,0,0,1,1,1,0,1,0,0,1,1,1,1,0,1,1,1,1,1,0,0,0,1,0,0,1,1,1,1,0,0,1,1,0,0,0,1,0,0,0,0,0,0,0,0,0,0,0,0,0,0,0,0,0,0,0,0,0,0,0,0,0,0,0,0,0,0,0,0,0,0,0,0,0,0,0,0,0,0,0,0,0,0,0,0,0,0,0,0,0,0,0,0,0,0,0,0,0,0,0,0,0,0],"id":1,"left_children":[1,3,5,7,9,11,13,15,17,19,21,23,25,27,29,31,33,35,37,39,41,43,45,47,49,51,53,55,57,59,61,63,65,67,69,71,73,75,77,79,81,83,85,87,89,91,93,95,97,99,101,103,105,107,109,111,113,115,117,119,121,123,-1,-1,-1,-1,-1,-1,-1,-1,-1,-1,-1,-1,-1,-1,-1,-1,-1,-1,-1,-1,-1,-1,-1,-1,-1,-1,-1,-1,-1,-1,-1,-1,-1,-1,-1,-1,-1,-1,-1,-1,-1,-1,-1,-1,-1,-1,-1,-1,-1,-1,-1,-1,-1,-1,-1,-1,-1,-1,-1,-1,-1,-1,-1],"loss_changes":[2.1697849E2,6.718047E1,3.6526222E1,6.0294647E1,2.9156418E1,2.947403E1,2.672522E1,1.9225708E1,5.645804E1,2.0140022E1,3.2925632E1,3.258433E1,3.749758E1,1.7800991E1,9.478455E0,3.2174725E1,2.3901718E1,3.631869E1,3.6547295E1,1.377914E1,6.5925703E0,2.9672806E1,1.3706234E1,3.6452194E1,1.8246075E1,1.37248535E1,3.893733E1,6.971443E0,1.4232484E1,6.695833E0,7.1915855E0,3.610136E1,1.450333E1,9.914502E0,6.9811096E0,9.638023E0,2.3442528E1,5.0046684E1,3.4454224E1,8.798416E0,8.557313E0,1.530424E0,2.3387108E0,1.3925577E1,1.5229165E1,7.8366623E0,1.0046998E1,1.209272E1,2.5013315E1,1.3386962E1,1.51756E1,9.73716E0,1.0462494E1,2.7887947E1,2.6633938E1,9.834671E-1,7.3321595E0,5.7335196E0,1.5070925E1,5.2372127E0,3.3764892E0,3.3471107E0,0E0,0E0,0E0,0E0,0E0,0E0,0E0,0E0,0E0,0E0,0E0,0E0,0E0,0E0,0E0,0E0,0E0,0E0,0E0,0E0,0E0,0E0,0E0,0E0,0E0,0E0,0E0,0E0,0E0,0E0,0E0,0E0,0E0,0E0,0E0,0E0,0E0,0E0,0E0,0E0,0E0,0E0,0E0,0E0,0E0,0E0,0E0,0E0,0E0,0E0,0E0,0E0,0E0,0E0,0E0,0E0,0E0,0E0,0E0,0E0,0E0,0E0,0E0],"parents":[2147483647,0,0,1,1,2,2,3,3,4,4,5,5,6,6,7,7,8,8,9,9,10,10,11,11,12,12,13,13,14,14,15,15,16,16,17,17,18,18,19,19,20,20,21,21,22,22,23,23,24,24,25,25,26,26,27,27,28,28,29,29,30,30,31,31,32,32,33,33,34,34,35,35,36,36,37,37,38,38,39,39,40,40,41,41,42,42,43,43,44,44,45,45,46,46,47,47,48,48,49,49,50,50,51,51,52,52,53,53,54,54,55,55,56,56,57,57,58,58,59,59,60,60,61,61],"right_children":[2,4,6,8,10,12,14,16,18,20,22,24,26,28,30,32,34,36,38,40,42,44,46,48,50,52,54,56,58,60,62,64,66,68,70,72,74,76,78,80,82,84,86,88,90,92,94,96,98,100,102,104,106,108,110,112,114,116,118,120,122,124,-1,-1,-1,-1,-1,-1,-1,-1,-1,-1,-1,-1,-1,-1,-1,-1,-1,-1,-1,-1,-1,-1,-1,-1,-1,-1,-1,-1,-1,-1,-1,-1,-1,-1,-1,-1,-1,-1,-1,-1,-1,-1,-1,-1,-1,-1,-1,-1,-1,-1,-1,-1,-1,-1,-1,-1,-1,-1,-1,-1,-1,-1,-1],"split_conditions":[8.90618E1,1.4950719E3,NaN,3.3773155E1,NaN,1.4963794E2,NaN,NaN,-2E0,NaN,NaN,NaN,NaN,1E0,NaN,NaN,NaN,NaN,NaN,NaN,NaN,NaN,1.5122601E3,NaN,NaN,9.872607E1,NaN,2E0,NaN,2.03E2,2.41E2,NaN,1.2650934E2,NaN,NaN,1.2517825E2,NaN,NaN,NaN,NaN,1.1322958E2,9.8953766E1,1E2,NaN,NaN,-1.1E1,1.1144822E2,NaN,NaN,1.19502174E2,NaN,3.5E-1,7E0,NaN,NaN,1.0712698E2,4.01975E1,-1.36E2,9.904702E1,9.8728516E1,9.74591E1,9.575806E1,1.3806444E-1,3.6866853E-1,-2.0642601E-1,-3.901605E-1,3.969001E-1,3.940994E-1,-1.6543199E-1,1.0393137E-2,-4.42596E-1,3.7718055E-1,-1.326957E-1,5.6817334E-2,-4.4061092E-1,3.8269082E-1,-1.6286136E-1,-1.0065835E-1,-2.8774264E-1,4.225792E-1,1.6576055E-1,-3.281292E-1,3.4899697E-1,-5.2577414E-2,3.262918E-1,-3.6999285E-1,4.587276E-2,2.9428893E-1,-1.1632821E-2,2.127771E-1,-2.4457009E-1,1.7998432E-1,-3.4558627E-1,2.5956926E-1,-2.769529E-1,4.0048817E-1,1.424561E-1,1.9141097E-1,2.34851E-2,1.004333E-1,-3.417779E-1,1.8953496E-1,-3.1962144E-1,3.2194322E-1,-3.8175038E-1,4.3064633E-1,-1.9058207E-1,3.13665E-1,-3.0305767E-1,2.1576796E-1,-1.9014347E-1,1.1388412E-1,4.8385525E-1,-3.15727E-1,2.5161687E-1,-1.7975052E-1,4.315792E-1,-4.0332386E-1,1.4021985E-1,2.629079E-1,-2.1864651E-1,6.791843E-2,-4.4412076E-1,-1.4008048E-1,-5.360525E-1],"split_indices":[47,46,0,47,36,47,37,48,31,48,37,48,36,35,36,37,0,37,0,0,0,48,46,0,36,13,48,25,37,34,34,36,13,37,37,14,0,37,36,37,2,21,33,0,36,25,15,37,37,17,37,45,38,0,37,1,43,34,11,8,23,8,0,0,0,0,0,0,0,0,0,0,0,0,0,0,0,0,0,0,0,0,0,0,0,0,0,0,0,0,0,0,0,0,0,0,0,0,0,0,0,0,0,0,0,0,0,0,0,0,0,0,0,0,0,0,0,0,0,0,0,0,0,0,0],"split_type":[0,0,1,0,1,0,1,1,0,1,1,1,1,0,1,1,1,1,1,1,1,1,0,1,1,0,1,0,1,0,0,1,0,1,1,0,1,1,1,1,0,0,0,1,1,0,0,1,1,0,1,0,0,1,1,0,0,0,0,0,0,0,0,0,0,0,0,0,0,0,0,0,0,0,0,0,0,0,0,0,0,0,0,0,0,0,0,0,0,0,0,0,0,0,0,0,0,0,0,0,0,0,0,0,0,0,0,0,0,0,0,0,0,0,0,0,0,0,0,0,0,0,0,0,0],"sum_hessian":[1.7392192E3,9.3312396E2,8.060952E2,7.178661E2,2.1525789E2,7.341548E2,7.194043E1,1.8322313E2,5.3464294E2,6.977433E1,1.4548355E2,5.0517487E2,2.2897995E2,4.122008E1,3.072035E1,8.259323E1,1.0062989E2,9.060227E1,4.4404068E2,5.9638523E1,1.0135807E1,9.657448E1,4.890908E1,4.1875748E2,8.641737E1,8.3900635E1,1.4507932E2,1.6929203E1,2.4290878E1,1.1814546E1,1.8905804E1,3.939178E1,4.320145E1,1.0066834E1,9.056306E1,3.983111E1,5.0771164E1,5.928887E1,3.847518E2,5.356848E1,6.0700426E0,2.6308465E0,7.504961E0,6.116744E1,3.540704E1,3.7561066E1,1.1348013E1,7.625009E1,3.4250742E2,5.0863705E1,3.555367E1,5.197231E0,7.87034E1,8.2872665E1,6.2206642E1,1.0029115E1,6.9000883E0,5.6108136E0,1.8680063E1,7.1074843E0,4.7070613E0,1.7440605E1,1.4651986E0,1.5042617E1,2.4349165E1,4.1763203E1,1.4382468E0,3.6537392E0,6.4130955E0,3.1247592E0,8.74383E1,3.6658726E1,3.1723824E0,4.106381E1,9.7073555E0,2.6456673E1,3.28322E1,2.454343E2,1.3931752E2,3.1236486E1,2.2331995E1,4.5952306E0,1.4748118E0,1.1810043E0,1.4498423E0,6.2897625E0,1.2151982E0,4.17813E1,1.9386139E1,7.645804E0,2.7761234E1,2.1463573E0,3.541471E1,7.243856E0,4.1041565E0,4.983803E1,2.6412056E1,1.2565175E2,2.1685565E2,4.473162E1,6.1320834E0,5.657055E0,2.9896614E1,2.2262692E0,2.9709616E0,7.671696E1,1.9864496E0,7.644403E1,6.428638E0,2.1327377E1,4.0879265E1,1.4820534E0,8.547061E0,2.2288854E0,4.671203E0,1.2308877E0,4.379926E0,1.2298158E1,6.381906E0,4.908962E0,2.1985226E0,1.242893E0,3.4641683E0,3.1902142E0,1.4250392E1],"tree_param":{"num_deleted":"0","num_feature":"50","num_nodes":"125","size_leaf_vector":"1"}},{"base_weights":[-7.260772E-4,-3.8990828E-1,1.9588214E-1,-2.9794408E-2,-5.9029615E-1,4.2658076E-1,7.0216276E-2,4.084738E-1,-6.021868E-1,-7.917581E-1,-1.9623396E-1,7.099461E-1,1.8020806E-1,-2.4924618E-1,1.884378E-1,1.3429832E0,1.043064E-1,-2.5508597E-1,-1.122082E0,-5.856744E-1,-1.1934527E0,1.3777581E-1,-7.639918E-1,1.0627923E0,1.9826728E-1,4.6644354E-1,-3.299468E-1,2.7300587E-1,-5.683429E-1,4.663498E-1,4.655626E-2,1.4438633E0,-9.3391724E-2,5.605695E-1,-4.8233965E-1,4.077513E-1,-6.851384E-1,1.8912674E-1,-1.2164233E0,-1.3128757E-1,-8.9886093E-1,-8.245988E-1,-1.452984E0,7.894187E-1,-3.463738E-1,-1.033089E0,4.2815146E-1,1.2924958E0,3.506488E-1,1.0955399E0,-2.4458446E-1,8.684098E-1,4.5727294E-2,2.3601376E-1,-1.0114315E0,1.0189024E0,-1.10461615E-1,3.179642E-1,-8.0470955E-1,9.39706E-1,7.647114E-2,1.5439703E-1,-4.725884E-1,4.690224E-1,6.931755E-2,3.0783865E-1,-3.4184754E-2,1.6543551E-1,-2.2794713E-1,-1.8711846E-1,2.4937229E-1,2.1225013E-1,-2.68701E-1,-3.855333E-1,5.7853595E-4,2.3276989E-1,-1.4758767E-1,-3.8840372E-2,-3.5385767E-1,5.148613E-2,-3.2318428E-1,-4.4772848E-1,-3.0529978E-2,-1.6320702E-1,3.4516472E-1,9.0133116E-2,-3.197654E-1,1.6402172E-1,-3.5193866E-1,-2.4245761E-1,2.7188873E-1,4.0772298E-1,7.9599194E-2,2.0381796E-1,-3.0198157E-1,3.3364695E-2,4.2958164E-1,2.2247411E-1,-1.9171041E-1,-2.2074963E-1,2.8649154E-1,1.3637462E-1,-2.3561846E-1,-3.8864365E-1,1.3327698E-1,-6.425173E-2,-4.5423967E-1,4.3913263E-1,-1.2401629E-1,4.313306E-1,-1.3492672E-1,2.660532E-1,-9.8673664E-2,-6.999548E-2,-3.2943013E-1,3.855451E-1,7.4360125E-2,1.07275456E-1,-2.4895115E-1,1.24973126E-1,-4.1502733E-2,3.520355E-3,-2.709715E-1],"categories":[0,7,9,10,11,14,16,17,18,19,28,30,31,35,36,37,38,39,43,44,46,51,53,56,57,59,61,63,64,66,67,68,70,71,72,74,75,1,3,4,5,7,10,11,12,13,14,15,19,20,22,23,25,29,30,32,33,34,36,39,40,42,43,44,45,47,48,49,50,52,53,55,56,58,63,64,65,67,69,70,71,72,73,74,75,76,77,78,80,81,2,3,5,6,7,8,9,12,18,19,20,22,23,25,27,28,29,32,33,34,36,39,41,47,50,51,52,53,54,55,56,2,3,5,7,11,12,18,19,20,21,22,23,26,27,29,0,1,2,3,6,7,8,9,10,12,13,14,15,16,17,18,19,20,21,23,25,27,28,3,5,7,11,12,18,19,21,22,27,28,1,4,7,10,12,13,17,21,23,25,26,27,0,1,2,4,6,11,12,17,18,21,22,23,24,0,3,5,7,8,10,12,15,16,18,19,20,21,22,25,26,27,29,30,31,33,36,40,41,42,43,44,45,47,49,50,51,55,56,57,3,5,7,9,11,13,17,23,28,31,34,46,48,53,54,57,58,0,1,2,3,4,5,7,8,12,14,15,19,20,22,24,27,28,29,1,2,4,6,8,9,10,11,13,14,15,16,17,18,20,23,25,26,29,10,3,5,7,9,10,12,14,16,23,25,27,28,29,0,1,2,3,4,5,6,7,8,9,10,11,12,13,14,15,16,17,18,19,20,21,22,23,24,25,27,33,41,42,60,0,1,2,3,4,5,6,7,8,9,10,11,12,13,14,15,16,17,18,19,20,21,22,23,25,26,27,28,29,0,1,6,10,11,13,14,15,23,24,28,29,30,34,35,36,37,38,42,46,48,53,54,55,56,58,0,1,4,10,12,13,17,18,21,22,23,25,26,28,29,1,3,5,8,10,11,12,14,15,16,18,20,21,23,24,26,27,28,29,1,6,7,14,15,16,18,25,0,2,4,5,8,9,10,11,12,13,14,16,17,18,19,21,22,23,25,26,28,0,3,6,9,10,11,13,15,16,17,22,27,28,29,1,2,4,5,8,9,13,14,15,20,21,27,1,3,4,6,7,8,9,10,13,14,15,16,17,19,20,22,25,26,27,28,29,0,1,2,3,4,6,7,8,10,11,12,16,17,19,20,21,22,23,24,26,27,28,0,2,3,4,5,6,7,8,10,11,12,14,15,16,17,18,19,20,22,23,25,26,27,28,31,32,33,36,37,38,40,41,44,45,46,47,49,54,57,58,1,3,11,25,32,33,43,48,56,63,67,74,4,5,6,8,10,11,14,15,16,19,20,21,22,23,24,26,27,28,29,0,1,2,3,4,5,6,7,8,9,10,11,12,14,15,16,17,18,19,20,21,22,23,24,25,26,27,28,29,30,31,35,37,42,46,58,0,1,2,3,4,5,6,7,8,9,10,11,12,13,14,15,17,18,19,20,21,22,24,25,26,27,28,0,1,4,5,6,7,8,10,11,12,14,15,16,17,18,20,21,22,23,27,28,1,2,3,4,7,9,10,12,13,14,15,16,17,18,19,20,21,22,24,27,8,9,13,14,15,19,0,1,2,3,4,5,6,7,8,9,10,11,12,13,14,15,16,17,18,19,20,21,22,23,24,25,26,27,28,29,30,31,32,33,34,35,37,38,39,40,41,42,43,44,45,46,47,48,49,50,51,52,53,54,55,56,57,58,59,60,61,62,64,65,66,67,68,69,70,71,72,73,74,75,76,77,78,79,80,81,82,83,0,41,79,1,3,4,5,6,7,9,10,11,12,13,14,15,16,17,18,19,20,22,23,24,25,26,27,28,29,30,32,33,34,35,36,37,38,39,40,41,42,43,44,45,46,47,48,49,50,51,52,53,54,59,60,62,66,2,8,27,57,60,61,68,79,82,0,1,2,3,4,5,7,8,9,10,11,12,13,14,48,2,4,9,10,11,15,21,22,24,26,30,31,37,40,42,46,47,50,54,58,0,2,8,11,12,15,18,20,22,23,24,25,28,2,5,9,16,22,23,25,0,1,3,4,8,9,13,17,19,21,24,26,28,29,2,3,5,9,10,12,13,15,16,19,25,27],"categories_nodes":[1,2,3,5,7,8,9,10,11,12,13,14,15,16,17,18,19,20,21,23,24,25,26,27,28,29,30,33,34,36,39,40,44,45,48,50,52,55,58,59,60,61,62],"categories_segments":[0,37,90,121,136,159,170,182,195,230,247,265,284,285,298,329,358,384,399,418,426,447,461,473,494,516,556,568,587,623,650,671,691,697,779,782,836,845,860,880,893,900,914],"categories_sizes":[37,53,31,15,23,11,12,13,35,17,18,19,1,13,31,29,26,15,19,8,21,14,12,21,22,40,12,19,36,27,21,20,6,82,3,54,9,15,20,13,7,14,12],"default_left":[0,0,0,1,0,1,0,1,1,1,1,1,1,1,1,1,1,1,1,1,1,1,0,1,1,1,1,1,1,1,1,1,0,1,1,1,1,0,1,1,1,0,1,0,1,0,0,0,1,1,1,0,1,1,0,1,0,0,1,1,1,1,1,0,0,0,0,0,0,0,0,0,0,0,0,0,0,0,0,0,0,0,0,0,0,0,0,0,0,0,0,0,0,0,0,0,0,0,0,0,0,0,0,0,0,0,0,0,0,0,0,0,0,0,0,0,0,0,0,0,0,0,0],"id":2,"left_children":[1,3,5,7,9,11,13,15,17,19,21,23,25,27,29,31,33,35,37,39,41,43,45,47,49,51,53,55,57,59,61,63,-1,65,67,69,71,-1,73,75,77,79,81,83,85,87,89,91,93,95,97,99,101,103,105,107,109,111,113,115,117,119,121,-1,-1,-1,-1,-1,-1,-1,-1,-1,-1,-1,-1,-1,-1,-1,-1,-1,-1,-1,-1,-1,-1,-1,-1,-1,-1,-1,-1,-1,-1,-1,-1,-1,-1,-1,-1,-1,-1,-1,-1,-1,-1,-1,-1,-1,-1,-1,-1,-1,-1,-1,-1,-1,-1,-1,-1,-1,-1,-1,-1],"loss_changes":[1.285429E2,4.067015E1,3.2326984E1,5.1078743E1,2.8599365E1,2.733519E1,2.73802E1,3.2650093E1,1.564352E1,1.911441E1,2.3593708E1,3.275911E1,3.10767E1,3.2804054E1,2.0829672E1,5.162792E0,2.3855692E1,1.573743E1,6.5612335E0,2.2672646E1,6.4785614E0,2.5143824E1,1.5208843E1,1.7189552E1,3.0372297E1,2.297114E1,2.9820353E1,2.1558723E1,2.5800392E1,3.2892124E1,1.9734642E1,3.523899E0,0E0,1.5827145E1,1.1631531E1,1.0113586E1,1.0386098E1,0E0,2.8141174E0,2.2145462E1,2.0282806E1,9.104202E0,2.286995E0,1.6954027E1,2.1692297E1,9.014446E0,6.1614227E0,5.1909943E0,1.3032667E1,8.191139E0,2.0523727E1,1.0357876E1,2.3307219E1,1.4196974E1,1.3697674E1,1.688943E1,2.7134094E1,1.0002635E1,1.5928833E1,1.8940231E1,2.5528032E1,2.2433777E1,1.2660902E1,0E0,0E0,0E0,0E0,0E0,0E0,0E0,0E0,0E0,0E0,0E0,0E0,0E0,0E0,0E0,0E0,0E0,0E0,0E0,0E0,0E0,0E0,0E0,0E0,0E0,0E0,0E0,0E0,0E0,0E0,0E0,0E0,0E0,0E0,0E0,0E0,0E0,0E0,0E0,0E0,0E0,0E0,0E0,0E0,0E0,0E0,0E0,0E0,0E0,0E0,0E0,0E0,0E0,0E0,0E0,0E0,0E0,0E0,0E0,0E0],"parents":[2147483647,0,0,1,1,2,2,3,3,4,4,5,5,6,6,7,7,8,8,9,9,10,10,11,11,12,12,13,13,14,14,15,15,16,16,17,17,18,18,19,19,20,20,21,21,22,22,23,23,24,24,25,25,26,26,27,27,28,28,29,29,30,30,31,31,33,33,34,34,35,35,36,36,38,38,39,39,40,40,41,41,42,42,43,43,44,44,45,45,46,46,47,47,48,48,49,49,50,50,51,51,52,52,53,53,54,54,55,55,56,56,57,57,58,58,59,59,60,60,61,61,62,62],"right_children":[2,4,6,8,10,12,14,16,18,20,22,24,26,28,30,32,34,36,38,40,42,44,46,48,50,52,54,56,58,60,62,64,-1,66,68,70,72,-1,74,76,78,80,82,84,86,88,90,92,94,96,98,100,102,104,106,108,110,112,114,116,118,120,122,-1,-1,-1,-1,-1,-1,-1,-1,-1,-1,-1,-1,-1,-1,-1,-1,-1,-1,-1,-1,-1,-1,-1,-1,-1,-1,-1,-1,-1,-1,-1,-1,-1,-1,-1,-1,-1,-1,-1,-1,-1,-1,-1,-1,-1,-1,-1,-1,-1,-1,-1,-1,-1,-1,-1,-1,-1,-1,-1,-1],"split_conditions":[6.471055E1,NaN,NaN,NaN,1.4854214E3,NaN,8.705341E1,NaN,NaN,NaN,NaN,NaN,NaN,NaN,NaN,NaN,NaN,NaN,NaN,NaN,NaN,NaN,1.1860166E2,NaN,NaN,NaN,NaN,NaN,NaN,NaN,NaN,1.22406425E2,-9.3391724E-2,NaN,NaN,9.710056E1,NaN,1.8912674E-1,1.06662025E2,NaN,NaN,-3E0,1.04362595E2,1.0770474E2,NaN,NaN,1.0992779E2,1.0366208E2,NaN,9.827422E1,NaN,9.434486E1,NaN,1.0370746E2,1E0,NaN,1.06E2,4.00455E1,NaN,NaN,NaN,NaN,NaN,4.690224E-1,6.931755E-2,3.0783865E-1,-3.4184754E-2,1.6543551E-1,-2.2794713E-1,-1.8711846E-1,2.4937229E-1,2.1225013E-1,-2.68701E-1,-3.855333E-1,5.7853595E-4,2.3276989E-1,-1.4758767E-1,-3.8840372E-2,-3.5385767E-1,5.148613E-2,-3.2318428E-1,-4.4772848E-1,-3.0529978E-2,-1.6320702E-1,3.4516472E-1,9.0133116E-2,-3.197654E-1,1.6402172E-1,-3.5193866E-1,-2.4245761E-1,2.7188873E-1,4.0772298E-1,7.9599194E-2,2.0381796E-1,-3.0198157E-1,3.3364695E-2,4.2958164E-1,2.2247411E-1,-1.9171041E-1,-2.2074963E-1,2.8649154E-1,1.3637462E-1,-2.3561846E-1,-3.8864365E-1,1.3327698E-1,-6.425173E-2,-4.5423967E-1,4.3913263E-1,-1.2401629E-1,4.313306E-1,-1.3492672E-1,2.660532E-1,-9.8673664E-2,-6.999548E-2,-3.2943013E-1,3.855451E-1,7.4360125E-2,1.07275456E-1,-2.4895115E-1,1.24973126E-1,-4.1502733E-2,3.520355E-3,-2.709715E-1],"split_indices":[47,0,0,48,46,36,47,37,36,36,36,48,48,37,36,48,36,0,37,48,37,37,13,37,37,37,37,36,36,48,0,1,0,37,48,7,37,0,11,37,37,31,8,14,36,0,15,8,0,23,0,7,0,5,31,48,28,44,48,37,37,37,37,0,0,0,0,0,0,0,0,0,0,0,0,0,0,0,0,0,0,0,0,0,0,0,0,0,0,0,0,0,0,0,0,0,0,0,0,0,0,0,0,0,0,0,0,0,0,0,0,0,0,0,0,0,0,0,0,0,0,0,0],"split_type":[0,1,1,1,0,1,0,1,1,1,1,1,1,1,1,1,1,1,1,1,1,1,0,1,1,1,1,1,1,1,1,0,0,1,1,0,1,0,0,1,1,0,0,0,1,1,0,0,1,0,1,0,1,0,0,1,0,0,1,1,1,1,1,0,0,0,0,0,0,0,0,0,0,0,0,0,0,0,0,0,0,0,0,0,0,0,0,0,0,0,0,0,0,0,0,0,0,0,0,0,0,0,0,0,0,0,0,0,0,0,0,0,0,0,0,0,0,0,0,0,0,0,0],"sum_hessian":[1.6779406E3,5.628354E2,1.1151051E3,2.0163287E2,3.6120255E2,3.9237842E2,7.227267E2,1.1435792E2,8.7274956E1,2.3834225E2,1.22860275E2,1.8161383E2,2.1076457E2,1.9491423E2,5.278125E2,2.7242887E1,8.711503E1,5.3228405E1,3.4046555E1,1.591504E2,7.919186E1,7.783032E1,4.502995E1,1.0685271E2,7.476112E1,1.3506729E2,7.569729E1,7.397952E1,1.209347E2,1.7761679E2,3.5019568E2,2.5796965E1,1.445923E0,4.9028015E1,3.8087017E1,2.09658E1,3.2262608E1,1.4489113E0,3.259764E1,6.551587E1,9.363454E1,3.4432537E1,4.475932E1,3.290764E1,4.4922684E1,3.684623E1,8.18372E0,8.0176605E1,2.6676096E1,2.4218204E1,5.054292E1,6.852863E1,6.653866E1,4.1710857E1,3.3986427E1,2.455657E1,4.942295E1,2.5388794E1,9.5545906E1,7.958341E1,9.803339E1,2.905442E2,5.96515E1,2.3219194E1,2.5777712E0,2.8698652E1,2.0329361E1,7.850809E0,3.0236206E1,5.964773E0,1.5001026E1,3.9267995E0,2.8335808E1,3.0806078E1,1.791565E0,1.8309982E1,4.7205887E1,2.5417685E1,6.821685E1,7.031418E0,2.7401117E1,4.3388237E1,1.3710794E0,6.905019E0,2.600262E1,2.3963072E1,2.0959612E1,2.7637227E0,3.4082508E1,2.089809E0,6.093911E0,7.4992485E1,5.184123E0,2.187671E1,4.7993855E0,6.5074897E0,1.7710716E1,1.41889925E1,3.6353928E1,3.1243706E0,6.540426E1,4.4902687E1,2.1635973E1,4.3677626E0,3.7343098E1,1.3694174E1,2.0292255E1,1.8720081E1,5.8364887E0,8.3021145E0,4.112084E1,1.3311423E1,1.2077371E1,3.302451E1,6.25214E1,5.2507923E1,2.7075485E1,7.52868E1,2.274659E1,1.5304906E2,1.3749513E2,2.8533993E1,3.111751E1],"tree_param":{"num_deleted":"0","num_feature":"50","num_nodes":"123","size_leaf_vector":"1"}},{"base_weights":[-2.0470172E-3,-3.0056962E-1,1.4415003E-1,-3.8869292E-1,3.4978333E-1,7.0377535E-1,1.0106445E-1,3.4326464E-1,-4.5815113E-1,9.898105E-1,-9.952159E-2,1.2873437E0,7.518204E-2,-3.9464857E-2,2.9468614E-1,8.156999E-1,-6.324757E-1,-3.038174E-1,-7.4255866E-1,-2.6345277E-1,1.125896E0,6.1146784E-1,-7.7405465E-1,1.4018466E0,-3.1810248E-1,8.0285007E-1,-6.2324506E-1,4.408056E-1,-1.6140132E-1,6.3531566E-1,7.58193E-2,1.1906638E0,-3.1206593E-1,4.1511717E-1,-1.1963956E0,2.6920313E-1,-4.439471E-1,-3.595398E-1,-1.0817149E0,-2.2928439E-1,1.3565813E-1,1.3018564E0,3.3949792E-1,1.07161E0,-3.9014158E-1,-1.1431503E0,5.582717E-1,1.4772693E0,-1.7382543E-1,-2.6392666E-1,1.3096981E-1,-1.9113792E-1,1.015773E0,5.838472E-1,-1.1095893E0,6.9405204E-1,-3.493008E-1,-5.385324E-2,-7.3759156E-1,9.825774E-1,1.8376036E-1,3.9786258E-1,-2.6783818E-1,4.5948374E-1,1.4777712E-2,2.4053474E-1,-2.8460053E-1,3.942465E-1,-2.198829E-1,5.424579E-2,-4.2271474E-1,3.434773E-1,-6.055705E-2,-2.2846268E-2,-2.1246374E-1,1.19963355E-1,-2.7077383E-1,1.734563E-1,-3.3708996E-1,5.053789E-3,4.2353624E-1,-2.66197E-1,2.64723E-1,9.148914E-4,4.325144E-1,-2.940852E-1,2.4827579E-1,-3.9255235E-1,1.942334E-2,-1.435882E-1,3.3293045E-1,4.5840856E-1,1.06326304E-1,-1.45847E-1,3.55569E-1,2.7973908E-1,-1.0558968E-1,-4.6837142E-1,-1.4425845E-1,3.270836E-1,5.386569E-2,8.558247E-2,-3.271343E-1,7.0941076E-2,-7.872242E-2,2.0578475E-1,-2.7526438E-1,3.1956688E-1,-1.5421857E-1,2.2834139E-1,-1.05064735E-1,1.9967028E-1,-4.2422384E-2,5.7495277E-2,-1.8085201E-1],"categories":[0,1,2,4,5,6,7,9,10,11,12,14,15,16,17,18,19,20,21,22,23,25,27,28,29,30,31,32,33,34,35,36,37,38,39,40,42,43,44,45,46,49,50,51,52,53,54,55,56,57,58,59,60,61,62,63,64,66,67,68,70,71,72,74,75,79,80,2,4,5,6,7,8,10,11,12,14,16,17,18,20,21,27,28,29,0,1,2,3,4,5,7,8,9,12,15,16,18,19,20,23,24,25,27,28,29,30,31,32,33,35,36,37,38,39,41,42,43,44,45,46,47,48,49,50,51,53,56,57,58,0,1,3,5,7,9,11,14,17,18,1,3,10,14,15,18,20,21,23,27,28,0,1,2,3,4,5,6,9,21,22,35,36,48,51,54,58,1,28,0,2,3,4,5,6,7,10,11,12,15,21,27,28,0,1,3,4,5,7,8,9,10,11,12,13,14,15,19,20,21,22,23,24,25,26,30,31,32,33,34,35,36,37,40,42,43,44,45,46,48,49,50,52,53,55,56,58,60,62,63,64,65,66,69,70,71,72,73,74,75,76,77,78,79,80,81,82,1,2,3,4,5,8,9,12,15,16,17,18,19,22,26,27,28,29,0,1,2,3,5,6,7,8,9,11,12,15,16,18,19,21,22,23,24,25,27,28,30,31,32,33,34,35,36,38,39,40,41,42,43,44,45,47,48,49,50,51,52,53,54,55,56,57,58,1,4,6,10,13,14,15,17,24,26,28,29,34,37,38,39,48,51,52,53,55,0,2,3,4,5,6,7,8,9,10,11,12,13,14,15,16,17,18,19,20,21,22,23,24,25,26,27,28,29,30,31,32,33,0,1,2,3,4,5,6,7,8,9,10,11,12,13,14,20,29,0,1,3,4,5,6,11,21,23,31,40,47,51,55,2,3,4,5,7,8,9,11,12,15,18,19,20,21,24,25,27,28,29,30,32,33,35,36,37,38,40,41,43,44,46,48,49,50,54,55,56,57,0,2,4,6,11,13,16,17,22,23,24,26,31,34,42,48,53,54,0,1,2,4,7,8,10,11,12,13,15,18,19,20,22,23,24,25,27,28,29,1,3,5,7,8,9,10,11,12,15,16,17,21,22,23,24,26,27,0,2,3,5,6,10,12,13,14,15,16,17,19,21,22,24,0,2,5,10,12,15,16,17,18,19,20,22,23,28,29,1,2,3,4,5,6,8,19,26,27,29,0,1,2,3,4,6,11,13,14,19,20,21,22,24,25,26,27,28,0,1,2,3,4,5,6,7,8,9,10,11,12,13,14,15,16,18,19,20,21,22,23,24,25,26,27,28,29,30,32,34,37,40,42,46,47,48,50,51,52,53,54,0,1,2,11,1,3,4,7,8,9,14,17,20,23,27,29,2,4,7,8,9,10,13,15,16,25,28,29,1,4,5,10,13,14,17,19,20,21,22,24,26,27,29],"categories_nodes":[3,4,5,7,8,10,11,12,13,14,17,18,21,26,27,29,30,35,36,37,55,56,57,58,59,60,61,62],"categories_segments":[0,67,85,130,140,151,167,169,183,247,265,314,335,368,385,399,437,455,476,494,510,525,536,554,597,601,613,625],"categories_sizes":[67,18,45,10,11,16,2,14,64,18,49,21,33,17,14,38,18,21,18,16,15,11,18,43,4,12,12,15],"default_left":[0,0,0,0,1,1,0,1,1,0,1,1,1,0,1,0,0,1,1,0,0,0,0,1,0,0,1,1,0,1,1,1,0,0,0,1,1,1,0,0,0,0,0,0,0,0,0,0,0,0,0,0,0,0,1,1,1,1,1,1,1,1,1,0,0,0,0,0,0,0,0,0,0,0,0,0,0,0,0,0,0,0,0,0,0,0,0,0,0,0,0,0,0,0,0,0,0,0,0,0,0,0,0,0,0,0,0,0,0,0,0,0,0,0,0],"id":3,"left_children":[1,3,5,7,9,11,13,15,17,19,21,23,25,27,29,31,33,35,37,39,41,43,45,47,49,51,53,55,57,59,61,63,65,67,69,71,73,75,77,-1,-1,79,81,83,85,87,89,91,-1,-1,-1,-1,93,95,97,99,101,103,105,107,109,111,113,-1,-1,-1,-1,-1,-1,-1,-1,-1,-1,-1,-1,-1,-1,-1,-1,-1,-1,-1,-1,-1,-1,-1,-1,-1,-1,-1,-1,-1,-1,-1,-1,-1,-1,-1,-1,-1,-1,-1,-1,-1,-1,-1,-1,-1,-1,-1,-1,-1,-1,-1,-1],"loss_changes":[7.042096E1,3.0536156E1,2.604508E1,2.3931076E1,1.8452343E1,2.8244778E1,2.7408062E1,1.9461796E1,1.8539665E1,4.8019466E0,1.8893305E1,7.799713E0,1.9943857E1,3.428955E1,3.1529545E1,1.2266329E1,8.750202E0,2.2508263E1,1.905664E1,1.5634415E0,2.8815804E0,9.293496E0,1.0547407E1,6.4634476E0,1.8583572E0,6.5259094E0,1.243844E1,2.3969265E1,2.8882435E1,2.5779968E1,2.8771542E1,8.2204895E0,6.2992554E0,6.775592E0,2.990118E0,2.3088545E1,2.1757957E1,2.997009E1,6.13916E0,0E0,0E0,2.698925E0,4.609069E0,5.3196726E0,5.6944575E0,3.3019333E0,3.415124E0,1.5348129E0,0E0,0E0,0E0,0E0,4.9256306E0,2.4237134E0,3.4124107E0,1.8178509E1,1.4160574E1,2.3941816E1,1.9415886E1,1.2094795E1,2.2834753E1,1.9455048E1,1.9494728E1,0E0,0E0,0E0,0E0,0E0,0E0,0E0,0E0,0E0,0E0,0E0,0E0,0E0,0E0,0E0,0E0,0E0,0E0,0E0,0E0,0E0,0E0,0E0,0E0,0E0,0E0,0E0,0E0,0E0,0E0,0E0,0E0,0E0,0E0,0E0,0E0,0E0,0E0,0E0,0E0,0E0,0E0,0E0,0E0,0E0,0E0,0E0,0E0,0E0,0E0,0E0,0E0],"parents":[2147483647,0,0,1,1,2,2,3,3,4,4,5,5,6,6,7,7,8,8,9,9,10,10,11,11,12,12,13,13,14,14,15,15,16,16,17,17,18,18,19,19,20,20,21,21,22,22,23,23,24,24,25,25,26,26,27,27,28,28,29,29,30,30,31,31,32,32,33,33,34,34,35,35,36,36,37,37,38,38,41,41,42,42,43,43,44,44,45,45,46,46,47,47,52,52,53,53,54,54,55,55,56,56,57,57,58,58,59,59,60,60,61,61,62,62],"right_children":[2,4,6,8,10,12,14,16,18,20,22,24,26,28,30,32,34,36,38,40,42,44,46,48,50,52,54,56,58,60,62,64,66,68,70,72,74,76,78,-1,-1,80,82,84,86,88,90,92,-1,-1,-1,-1,94,96,98,100,102,104,106,108,110,112,114,-1,-1,-1,-1,-1,-1,-1,-1,-1,-1,-1,-1,-1,-1,-1,-1,-1,-1,-1,-1,-1,-1,-1,-1,-1,-1,-1,-1,-1,-1,-1,-1,-1,-1,-1,-1,-1,-1,-1,-1,-1,-1,-1,-1,-1,-1,-1,-1,-1,-1,-1,-1],"split_conditions":[6.471055E1,1.5008795E3,-2E0,NaN,NaN,NaN,1.1833814E2,NaN,NaN,-3.55E2,NaN,NaN,NaN,NaN,NaN,1.16038055E2,-1.29E2,NaN,NaN,1E0,2E0,NaN,1.0402824E2,1.27849724E2,1.1313956E2,9.3855835E1,NaN,NaN,1.2203341E2,NaN,NaN,1.0164841E2,1.10918E2,1.1023049E2,1.07488205E2,NaN,NaN,NaN,9.563184E1,-2.2928439E-1,1.3565813E-1,5.315E-1,1.9625E0,9.8638954E1,1.13374275E2,1.5155187E3,9.829647E1,1.1898171E2,-1.7382543E-1,-2.6392666E-1,1.3096981E-1,-1.9113792E-1,6.88222E1,9.868385E1,1.14194984E2,NaN,NaN,NaN,NaN,NaN,NaN,NaN,NaN,4.5948374E-1,1.4777712E-2,2.4053474E-1,-2.8460053E-1,3.942465E-1,-2.198829E-1,5.424579E-2,-4.2271474E-1,3.434773E-1,-6.055705E-2,-2.2846268E-2,-2.1246374E-1,1.19963355E-1,-2.7077383E-1,1.734563E-1,-3.3708996E-1,5.053789E-3,4.2353624E-1,-2.66197E-1,2.64723E-1,9.148914E-4,4.325144E-1,-2.940852E-1,2.4827579E-1,-3.9255235E-1,1.942334E-2,-1.435882E-1,3.3293045E-1,4.5840856E-1,1.06326304E-1,-1.45847E-1,3.55569E-1,2.7973908E-1,-1.0558968E-1,-4.6837142E-1,-1.4425845E-1,3.270836E-1,5.386569E-2,8.558247E-2,-3.271343E-1,7.0941076E-2,-7.872242E-2,2.0578475E-1,-2.7526438E-1,3.1956688E-1,-1.5421857E-1,2.2834139E-1,-1.05064735E-1,1.9967028E-1,-4.2422384E-2,5.7495277E-2,-1.8085201E-1],"split_indices":[47,46,31,0,37,48,47,36,37,33,48,36,37,0,37,5,32,48,48,31,31,0,8,4,13,10,36,48,16,48,48,23,1,6,3,36,36,36,21,0,0,39,40,7,14,46,19,3,0,0,0,0,47,10,14,37,36,37,48,0,36,36,36,0,0,0,0,0,0,0,0,0,0,0,0,0,0,0,0,0,0,0,0,0,0,0,0,0,0,0,0,0,0,0,0,0,0,0,0,0,0,0,0,0,0,0,0,0,0,0,0,0,0,0,0],"split_type":[0,0,0,1,1,1,0,1,1,0,1,1,1,1,1,0,0,1,1,0,0,1,0,0,0,0,1,1,0,1,1,0,0,0,0,1,1,1,0,0,0,0,0,0,0,0,0,0,0,0,0,0,0,0,0,1,1,1,1,1,1,1,1,0,0,0,0,0,0,0,0,0,0,0,0,0,0,0,0,0,0,0,0,0,0,0,0,0,0,0,0,0,0,0,0,0,0,0,0,0,0,0,0,0,0,0,0,0,0,0,0,0,0,0,0],"sum_hessian":[1.611571E3,5.2944037E2,1.0821306E3,4.6661594E2,6.2824463E1,7.626132E1,1.00586926E3,4.0099674E1,4.2651627E2,2.541634E1,3.7408123E1,3.9003544E1,3.7257774E1,5.8330597E2,4.2256332E2,2.7128553E1,1.297112E1,2.7782355E2,1.486927E2,2.3978333E0,2.3018507E1,1.8257431E1,1.9150692E1,3.6525322E1,2.4782226E0,1.8173695E1,1.9084082E1,1.17579834E2,4.657261E2,1.645563E2,2.5800702E2,2.031753E1,6.8110237E0,4.631347E0,8.339772E0,5.440966E1,2.234139E2,7.079828E1,7.789443E1,1.3706541E0,1.0271792E0,1.8274115E1,4.7443914E0,1.2462319E1,5.795111E0,1.51074505E1,4.043242E0,3.543092E1,1.0944017E0,1.3257776E0,1.1524451E0,2.0844545E0,1.608924E1,5.42325E0,1.3660831E1,8.913249E1,2.8447348E1,3.9339157E2,7.233455E1,9.235563E1,7.220067E1,1.3311061E2,1.24896416E2,1.5381163E1,4.936366E0,2.382663E0,4.4283605E0,2.5162308E0,2.1151164E0,1.1355124E0,7.20426E0,1.8530367E1,3.5879295E1,9.394856E1,1.2946532E2,2.9628174E1,4.1170105E1,1.6035345E0,7.629089E1,1.5310093E0,1.6743105E1,1.2608542E0,3.4835372E0,3.4653773E0,8.996942E0,4.034754E0,1.7603575E0,1.321505E1,1.8924005E0,1.4497036E0,2.5935383E0,3.355327E1,1.8776518E0,1.441757E0,1.4647483E1,3.953894E0,1.4693564E0,7.08682E0,6.574011E0,4.9721703E1,3.941079E1,1.5656889E1,1.2790459E1,1.6440039E2,2.2899117E2,7.8023653E0,6.453218E1,8.7795746E1,4.5598884E0,3.448612E1,3.7714554E1,8.8796165E1,4.4314445E1,5.284375E1,7.2052666E1],"tree_param":{"num_deleted":"0","num_feature":"50","num_nodes":"115","size_leaf_vector":"1"}},{"base_weights":[-7.8773405E-4,-3.7618166E-1,6.973849E-2,-7.5024045E-1,-1.207265E-1,5.1460344E-1,2.587926E-2,-4.5714638E-1,-1.1742276E0,4.290988E-1,-4.5218244E-1,8.7330633E-1,-3.9696734E-2,-1.1847243E-1,1.8225737E-1,3.2035667E-2,-1.0327767E0,-8.812467E-2,-1.2413079E0,9.3267846E-1,-4.5486954E-1,-2.3199474E-3,-8.3960474E-1,1.1218932E0,1.7537121E-1,7.8758436E-1,-7.558871E-1,1.7649025E-1,-2.5505698E-1,3.001827E-1,-2.1303605E-1,6.027156E-1,-7.1294343E-1,1.9223373E-1,-1.1396465E0,-2.2719024E-1,2.2722726E-1,-5.4554176E-1,-1.2846507E0,6.315912E-1,1.5528048E0,4.9194932E-1,-8.005393E-1,6.3997465E-1,-6.5384036E-1,-9.8951966E-1,7.4451673E-1,1.2140145E0,-2.1276602E-1,4.9075478E-1,-5.4630464E-1,-2.3601529E-1,9.887669E-1,2.9017237E-1,-9.4336444E-1,5.307955E-1,-1.3382955E-1,3.849012E-2,-4.7028908E-1,3.391365E-1,-8.865247E-1,4.5705914E-1,-4.8747265E-1,-1.5957499E-1,2.9660055E-1,7.996286E-2,-3.044326E-1,-7.3819384E-2,1.5831968E-1,3.986374E-2,-3.6587483E-1,-2.6912236E-1,7.2815806E-2,-3.9207366E-1,-8.724338E-2,2.872609E-1,-1.2696637E-1,5.3232205E-1,1.6565064E-1,3.297182E-1,-1.1211447E-1,-3.0604511E-1,1.6335957E-1,-1.4841318E-1,2.6294515E-1,-2.945016E-1,7.15451E-2,1.740089E-1,-3.2613254E-1,4.0696886E-1,-2.126211E-1,-7.094431E-2,3.7918884E-1,2.4667151E-1,-3.0546445E-1,3.0524442E-1,-1.493044E-1,-3.1008106E-1,1.2913476E-1,-4.065703E-2,3.5443762E-1,-3.4501645E-1,1.4916372E-1,3.347411E-1,5.5685155E-2,1.5687585E-1,-1.7634787E-1,1.5161845E-1,-9.316759E-2,-1.2627987E-2,-1.9161259E-1,1.6952623E-1,4.7806054E-2,1.9136305E-1,-3.6343348E-1,3.1107372E-1,-1.22200914E-1,1.5867917E-1,-2.3512131E-1],"categories":[6,11,15,26,34,35,42,46,48,52,53,54,56,58,1,6,9,10,11,14,15,21,22,28,31,34,35,38,40,47,48,50,51,52,53,55,1,2,3,4,5,7,8,9,12,15,16,18,19,20,25,27,30,32,33,35,36,37,39,41,43,44,47,48,49,50,51,53,56,57,58,0,4,10,11,13,14,15,16,17,20,22,23,27,1,3,6,9,10,12,15,16,23,25,28,0,2,3,7,9,21,27,30,33,34,38,40,44,51,54,59,62,63,67,74,75,1,3,12,14,15,25,26,27,28,0,3,5,7,10,11,12,14,15,17,21,22,27,28,0,2,3,9,10,11,12,14,15,19,20,23,24,25,26,28,30,31,33,34,35,36,37,38,40,43,44,45,48,49,50,52,53,54,55,56,58,60,62,65,66,68,69,70,71,72,73,74,76,77,79,80,82,1,4,5,10,11,12,14,15,17,20,22,23,24,25,28,29,32,33,36,39,40,42,45,46,47,48,49,51,56,67,75,0,1,2,4,5,7,9,10,12,14,15,16,17,19,20,21,22,23,25,26,27,28,0,1,3,4,0,1,2,3,4,5,6,7,8,9,10,11,12,14,15,16,17,19,20,21,22,27,28,1,2,3,7,8,15,16,19,20,23,24,25,28,29,0,1,2,3,4,5,7,28,0,1,2,3,4,5,6,7,8,9,10,11,12,13,14,15,16,17,18,19,20,21,22,23,25,26,27,28,29,30,31,32,33,34,35,36,37,38,39,40,41,42,43,44,45,46,47,48,49,50,51,52,53,54,55,56,57,58,59,60,61,62,63,64,65,66,67,68,69,70,71,72,73,1,3,4,8,9,11,12,14,15,18,21,22,23,27,28,1,6,9,10,11,14,16,19,22,23,24,29,32,34,36,37,40,42,45,46,47,50,51,52,53,58,2,3,4,5,7,8,9,11,12,13,15,16,18,19,20,21,22,23,25,26,27,28,29,30,31,32,33,34,36,39,40,42,46,48,50,51,53,54,55,58,0,1,3,6,7,8,9,10,12,13,15,16,17,0,1,2,3,4,5,7,8,9,10,11,12,13,14,15,16,17,18,19,20,21,22,23,24,25,26,27,28,29,0,1,2,3,4,5,6,7,8,9,11,12,13,14,15,16,18,19,20,21,22,23,24,25,26,27,28,29,30,31,0,1,2,3,4,5,6,7,8,9,11,12,16,17,18,19,20,21,23,25,26,27,28,29,31,33,34,35,36,37,39,40,41,42,43,44,45,47,48,49,51,52,54,56,57,58,0,1,2,3,4,5,6,7,8,10,12,13,16,17,18,19,20,22,23,24,25,27,29,30,31,32,33,34,35,36,39,41,43,44,45,46,47,49,50,51,52,53,54,55,56,57,1,3,4,8,9,10,13,14,15,18,19,21,22,23,24,25,27,29,1,2,4,5,6,7,8,9,10,11,12,13,16,17,18,19,21,22,23,26,28,3,4,5,6,7,8,10,11,12,13,17,18,19,20,21,23,25,26,27,28,30,31,32,33,37,38,40,41,43,44,46,47,48,49,52,54,0,1,2,3,4,5,6,7,8,9,10,11,12,13,14,15,16,17,18,19,20,21,22,25,6,17,19,20,21,26,0,3,4,5,6,7,8,9,12,15,16,17,19,20,22,23,24,25,26,27,28,29],"categories_nodes":[3,4,5,7,9,10,11,12,13,14,15,16,20,21,24,26,27,28,30,39,45,49,55,56,57,58,59,60,61,62],"categories_segments":[0,14,36,71,84,95,116,125,139,192,223,245,249,272,286,294,367,382,408,448,461,490,520,566,612,630,651,687,711,717],"categories_sizes":[14,22,35,13,11,21,9,14,53,31,22,4,23,14,8,73,15,26,40,13,29,30,46,46,18,21,36,24,6,22],"default_left":[0,0,0,1,1,1,0,1,0,1,0,1,1,0,1,1,1,0,0,0,1,1,0,0,1,0,0,1,1,0,1,0,0,0,0,0,0,0,1,1,1,0,0,1,0,1,0,0,0,1,0,0,0,0,0,1,1,1,1,1,1,1,1,0,0,0,0,0,0,0,0,0,0,0,0,0,0,0,0,0,0,0,0,0,0,0,0,0,0,0,0,0,0,0,0,0,0,0,0,0,0,0,0,0,0,0,0,0,0,0,0,0,0,0,0,0,0,0,0],"id":4,"left_children":[1,3,5,7,9,11,13,15,17,19,21,23,25,27,29,31,33,35,37,39,41,43,45,47,49,51,53,55,57,59,61,63,65,67,69,-1,-1,71,73,75,77,79,81,83,85,87,89,91,93,95,97,-1,99,-1,101,103,105,107,109,111,113,115,117,-1,-1,-1,-1,-1,-1,-1,-1,-1,-1,-1,-1,-1,-1,-1,-1,-1,-1,-1,-1,-1,-1,-1,-1,-1,-1,-1,-1,-1,-1,-1,-1,-1,-1,-1,-1,-1,-1,-1,-1,-1,-1,-1,-1,-1,-1,-1,-1,-1,-1,-1,-1,-1,-1,-1,-1],"loss_changes":[4.118285E1,2.3417984E1,2.553727E1,1.1845623E1,2.7052588E1,2.339038E1,2.6952896E1,1.7084106E1,2.81139E0,2.5327148E1,1.6108238E1,1.2183918E1,2.8505766E1,2.5062967E1,2.6777418E1,1.4758987E1,3.8649216E0,2.5021539E0,4.355049E-1,5.734833E0,7.258797E0,1.8736286E1,1.2530457E1,6.7049484E0,4.803469E0,7.8559732E0,9.233843E0,2.1745457E1,2.6860727E1,2.0723782E1,2.4545494E1,9.12072E0,4.7280746E0,5.842701E-1,2.782215E0,0E0,0E0,1.3116732E0,3.883896E-1,9.309117E0,1.4749031E0,3.684493E0,5.206829E0,6.484722E0,6.7357416E0,7.6453285E0,5.287844E0,3.8631744E0,4.368732E0,8.000086E0,3.5544968E0,0E0,4.5490093E0,0E0,7.6397915E0,1.8420088E1,3.1879332E1,2.9598457E1,1.7656174E1,1.7315937E1,7.8645983E0,1.9942505E1,2.8815516E1,0E0,0E0,0E0,0E0,0E0,0E0,0E0,0E0,0E0,0E0,0E0,0E0,0E0,0E0,0E0,0E0,0E0,0E0,0E0,0E0,0E0,0E0,0E0,0E0,0E0,0E0,0E0,0E0,0E0,0E0,0E0,0E0,0E0,0E0,0E0,0E0,0E0,0E0,0E0,0E0,0E0,0E0,0E0,0E0,0E0,0E0,0E0,0E0,0E0,0E0,0E0,0E0,0E0,0E0,0E0,0E0],"parents":[2147483647,0,0,1,1,2,2,3,3,4,4,5,5,6,6,7,7,8,8,9,9,10,10,11,11,12,12,13,13,14,14,15,15,16,16,17,17,18,18,19,19,20,20,21,21,22,22,23,23,24,24,25,25,26,26,27,27,28,28,29,29,30,30,31,31,32,32,33,33,34,34,37,37,38,38,39,39,40,40,41,41,42,42,43,43,44,44,45,45,46,46,47,47,48,48,49,49,50,50,52,52,54,54,55,55,56,56,57,57,58,58,59,59,60,60,61,61,62,62],"right_children":[2,4,6,8,10,12,14,16,18,20,22,24,26,28,30,32,34,36,38,40,42,44,46,48,50,52,54,56,58,60,62,64,66,68,70,-1,-1,72,74,76,78,80,82,84,86,88,90,92,94,96,98,-1,100,-1,102,104,106,108,110,112,114,116,118,-1,-1,-1,-1,-1,-1,-1,-1,-1,-1,-1,-1,-1,-1,-1,-1,-1,-1,-1,-1,-1,-1,-1,-1,-1,-1,-1,-1,-1,-1,-1,-1,-1,-1,-1,-1,-1,-1,-1,-1,-1,-1,-1,-1,-1,-1,-1,-1,-1,-1,-1,-1,-1,-1,-1,-1],"split_conditions":[4.19663E1,1.470408E3,-2E0,NaN,NaN,NaN,1.0036639E2,NaN,9.492768E1,NaN,NaN,NaN,NaN,NaN,NaN,NaN,NaN,9.835512E1,9.524968E1,4.107E1,NaN,NaN,3.53E2,1.25E2,NaN,2.1998384E2,NaN,NaN,NaN,7E0,NaN,1.1380478E2,-4E0,1.010102E2,1.04E2,-2.2719024E-1,2.2722726E-1,-1E0,1.0471666E2,NaN,1.0035347E2,1.18E2,2.69E2,1.0357715E2,1.4955641E3,NaN,1.148765E2,1.01608894E2,1.1179651E2,NaN,6.48E-1,-2.3601529E-1,9.559881E1,2.9017237E-1,2.6E2,NaN,NaN,NaN,NaN,NaN,NaN,NaN,NaN,-1.5957499E-1,2.9660055E-1,7.996286E-2,-3.044326E-1,-7.3819384E-2,1.5831968E-1,3.986374E-2,-3.6587483E-1,-2.6912236E-1,7.2815806E-2,-3.9207366E-1,-8.724338E-2,2.872609E-1,-1.2696637E-1,5.3232205E-1,1.6565064E-1,3.297182E-1,-1.1211447E-1,-3.0604511E-1,1.6335957E-1,-1.4841318E-1,2.6294515E-1,-2.945016E-1,7.15451E-2,1.740089E-1,-3.2613254E-1,4.0696886E-1,-2.126211E-1,-7.094431E-2,3.7918884E-1,2.4667151E-1,-3.0546445E-1,3.0524442E-1,-1.493044E-1,-3.1008106E-1,1.2913476E-1,-4.065703E-2,3.5443762E-1,-3.4501645E-1,1.4916372E-1,3.347411E-1,5.5685155E-2,1.5687585E-1,-1.7634787E-1,1.5161845E-1,-9.316759E-2,-1.2627987E-2,-1.9161259E-1,1.6952623E-1,4.7806054E-2,1.9136305E-1,-3.6343348E-1,3.1107372E-1,-1.22200914E-1,1.5867917E-1,-2.3512131E-1],"split_indices":[47,46,31,48,48,48,47,37,23,37,0,36,37,0,0,36,49,24,22,42,36,37,27,28,37,41,0,37,48,38,48,13,31,10,30,0,0,25,8,37,10,32,33,1,46,36,1,13,18,48,39,0,7,0,32,48,48,37,36,48,36,36,37,0,0,0,0,0,0,0,0,0,0,0,0,0,0,0,0,0,0,0,0,0,0,0,0,0,0,0,0,0,0,0,0,0,0,0,0,0,0,0,0,0,0,0,0,0,0,0,0,0,0,0,0,0,0,0,0],"split_type":[0,0,0,1,1,1,0,1,0,1,1,1,1,1,1,1,1,0,0,0,1,1,0,0,1,0,1,1,1,0,1,0,0,0,0,0,0,0,0,1,0,0,0,0,0,1,0,0,0,1,0,0,0,0,0,1,1,1,1,1,1,1,1,0,0,0,0,0,0,0,0,0,0,0,0,0,0,0,0,0,0,0,0,0,0,0,0,0,0,0,0,0,0,0,0,0,0,0,0,0,0,0,0,0,0,0,0,0,0,0,0,0,0,0,0,0,0,0,0],"sum_hessian":[1.5535393E3,2.4502057E2,1.3085188E3,9.8642746E1,1.4637782E2,1.1646628E2,1.1920525E3,5.9553078E1,3.9089672E1,5.4942905E1,9.143491E1,7.0359314E1,4.6106964E1,6.1998785E2,5.7206464E2,3.2704494E1,2.6848581E1,2.40842E0,3.668125E1,3.4967495E1,1.997541E1,4.277358E1,4.8661335E1,5.14328E1,1.8926512E1,2.1347961E1,2.4759003E1,1.9613347E2,4.238544E2,4.4080325E2,1.3126138E2,1.8626734E1,1.4077763E1,2.090232E0,2.475835E1,1.402687E0,1.0057333E0,2.9478092E0,3.373344E1,2.4897572E1,1.0069924E1,5.2291493E0,1.4746261E1,2.1548216E1,2.1225363E1,4.4797253E1,3.8640819E0,4.8196556E1,3.2362456E0,1.3393377E1,5.533135E0,2.0891776E0,1.9258783E1,2.0213418E0,2.273766E1,9.1244865E1,1.0488861E2,1.796532E2,2.4420119E2,4.2748523E2,1.3318024E1,3.794505E1,9.331633E1,4.631821E0,1.3994912E1,3.3437493E0,1.0734014E1,1.0218492E0,1.0683829E0,1.4241769E0,2.3334173E1,1.9431849E0,1.0046242E0,3.268627E1,1.0471698E0,1.9090641E1,5.8069315E0,7.611087E0,2.458837E0,2.915102E0,2.3140473E0,1.2884209E1,1.862052E0,3.5284185E0,1.8019798E1,1.5449303E1,5.77606E0,2.3328996E0,4.2464355E1,2.7657883E0,1.0982935E0,1.4800942E0,4.671646E1,1.4071755E0,1.8290702E0,8.718174E0,4.675203E0,3.6526423E0,1.8804927E0,2.861222E0,1.6397562E1,2.0061024E1,2.6766353E0,3.303115E1,5.8213715E1,4.280922E1,6.2079388E1,7.666048E1,1.0299273E2,6.928881E1,1.7491238E2,1.8847147E2,2.3901376E2,2.1707087E0,1.1147315E1,2.2590994E1,1.5354055E1,2.088395E1,7.243238E1],"tree_param":{"num_deleted":"0","num_feature":"50","num_nodes":"119","size_leaf_vector":"1"}},{"base_weights":[-1.5784508E-3,-2.2565505E-1,8.576934E-2,-3.3981094E-1,4.0860748E-1,1.648461E-1,-1.6726407E-1,-9.765964E-2,-7.6554453E-1,7.124126E-1,-5.7018626E-1,5.1125544E-1,9.973825E-2,1.6381383E-1,-4.156916E-1,7.35433E-1,-2.5397328E-1,-1.2759988E-1,-1.0130938E0,9.113484E-1,-3.3354917E-1,5.3844416E-1,-1.132183E0,7.32368E-1,-3.312689E-1,2.9285333E-1,-3.7869386E-2,6.095553E-1,-2.9207954E-1,1.5249416E-1,-6.853637E-1,9.645365E-1,-5.8411527E-1,1.3533928E-1,-6.685376E-1,1.4228326E0,-3.0754653E-1,-5.7917655E-1,-1.2576597E0,4.2467743E-1,6.114966E-1,2.6976076E-1,-1.2729541E0,-2.888337E-1,1.116828E0,-1.4590019E0,6.0339388E-2,8.972538E-1,-1.1469263E-2,-7.797957E-1,3.6521113E-1,4.9847934E-1,-3.108037E-3,2.1534166E-1,-2.4034263E-1,1.2206918E0,2.4524993E-1,5.735719E-1,-7.109126E-1,1.051238E0,-1.3233365E-1,-1.5343738E-1,-1.0636002E0,3.5923102E-1,-9.158817E-2,-3.319154E-1,2.564209E-1,1.2749189E-1,-1.9748145E-1,-3.6783375E-2,-2.7209932E-1,4.9169177E-1,1.4772391E-1,-2.2032581E-1,7.621926E-2,1.333116E-1,-2.5595284E-1,-3.9038745E-1,1.4016716E-1,2.5509655E-1,-2.0974359E-1,-5.0802094E-1,-1.9629043E-2,9.3891114E-2,3.7556538E-1,-5.1697046E-1,-5.144138E-2,-2.2722685E-1,2.6052517E-1,-5.1237606E-2,3.1019852E-1,2.604395E-1,-2.970283E-1,4.0581416E-2,-3.602053E-1,3.0240357E-1,-1.3661285E-1,-2.1299933E-1,1.6870393E-1,2.8755786E-2,-2.8045034E-1,1.949765E-1,3.2419919E-3,9.394526E-2,-1.2822105E-1,-1.5890464E-2,4.0320727E-1,2.8598607E-1,-2.5410695E-2,-2.4215056E-1,2.661975E-1,2.1222636E-2,-3.1633255E-1,-2.2658814E-1,3.8754117E-1,9.4370715E-2,-2.3900403E-1,1.6603191E-1,-1.6319856E-1,-3.5734266E-1,-9.055046E-2],"categories":[10,11,12,14,15,19,22,25,30,33,35,37,40,42,43,45,48,51,53,55,56,63,67,68,72,74,75,0,1,11,15,16,26,28,31,32,34,35,39,42,46,47,50,53,55,56,58,0,2,3,5,9,11,17,18,1,2,3,4,6,7,8,9,11,12,14,15,16,17,18,19,20,21,22,23,26,27,29,2,4,9,10,13,14,15,16,19,23,24,26,28,29,30,31,32,37,38,39,40,45,47,48,51,52,53,55,1,2,3,4,5,6,7,9,10,11,12,14,15,16,17,18,19,20,21,22,23,24,25,26,28,29,30,31,32,35,36,37,38,39,42,44,45,46,47,48,49,50,51,52,53,54,55,56,57,58,59,60,61,64,65,66,69,70,71,72,73,75,76,77,78,79,80,81,82,83,0,1,2,3,4,5,6,8,9,13,14,15,16,17,18,19,20,22,23,26,27,2,10,21,37,42,0,6,10,11,15,24,34,35,51,53,3,5,6,7,8,9,10,11,12,16,17,18,19,20,21,22,23,25,27,28,33,34,36,38,40,41,44,46,47,48,49,50,52,53,54,57,1,2,3,6,7,8,10,12,16,18,23,24,27,29,1,2,4,5,6,8,9,10,11,12,14,16,20,21,23,27,28,29,3,6,9,10,11,13,1,4,7,8,11,12,14,15,17,18,20,21,24,25,0,1,3,4,5,6,8,9,10,11,12,14,15,16,17,19,20,21,22,23,24,25,27,28,4,6,7,12,14,15,19,20,22,27,28,29,1,2,3,6,8,10,11,12,13,14,18,21,22,23,25,27,28,3,4,5,6,7,10,12,13,14,15,16,17,18,20,21,22,23,24,25,0,2,3,7,10,12,13,14,15,16,17,20,21,22,23,24,25,26,27,28,0,1,2,3,4,5,6,7,8,9,10,12,13,14,15,16,17,18,19,20,21,22,23,24,25,26,27,28,29,30,31,32,34,35,36,37,38,39,40,41,42,44,45,46,47,48,49,50,52,53,54,55,56,57,58,59,60,61,62,63,64,65,66,67,68,69,70,71,72,73,74,76,77,78,79,80,81,82,83,0,1,3,4,5,7,10,13,14,16,17,19,20,21,22,24,26,0,1,3,4,17,24,0,3,4,5,6,7,8,9,10,11,12,13,14,15,16,17,18,19,20,22,23,24,25,26,27,29,32,33,34,35,36,38,39,40,41,43,44,45,46,48,49,50,51,52,53,54,55,56,57,58,59,60,62,63,64,65,67,68,69,70,71,75,80,4,6,10,13,14,17,21,22,23,24,37,45,48,52,54,1,2,3,4,5,8,9,10,11,12,13,14,15,16,17,18,19,20,22,23,24,26,28,29,19,24,26,0,1,2,3,4,5,10,0,1,2,3,4,5,7,8,10,12,13,15,16,18,19,20,21,22,24,25,26,28,0,1,2,5,6,7,10,11,12,13,14,15,16,18,19,20,22,23,25,26,27,29,30,32,33,34,35,37,38,40,41,42,43,44,45,46,47,48,49,50,51,54,57,59,60,61,66,70,80,0,1,2,3,4,5,6,7,8,9,10,11,12,13,14,15,16,17,18,19,20,21,22,23,24,26,27,28,29,30,31,32,33,34,35,36,38,39,41,42,43,44,45,46,47,48,49,50,51,52,53,54,55,56,57,58,59,60,61,62,63,64,65,66,67,68,69,70,71,72,73,74,76,77,78,79,80,81,82,83,1,11,17,21,35,42,46,54,58,2,3,5,15,17,18,19,21,23,24,25,29,0,1,2,3,4,5,6,7,8,9,10,25,33,37,43,48,51,63,67,68,74,75],"categories_nodes":[2,3,4,5,6,7,8,9,11,12,13,14,15,16,19,25,26,27,28,29,30,31,33,34,37,40,50,53,54,56,58,60,61],"categories_segments":[0,27,47,55,78,106,176,197,202,212,248,262,280,286,300,324,336,353,372,392,471,488,494,557,572,596,599,606,628,677,757,766,778],"categories_sizes":[27,20,8,23,28,70,21,5,10,36,14,18,6,14,24,12,17,19,20,79,17,6,63,15,24,3,7,22,49,80,9,12,22],"default_left":[0,0,1,1,1,1,1,0,1,1,1,1,1,1,1,1,1,1,0,1,0,0,0,0,0,1,1,1,1,0,1,1,0,1,1,0,0,1,0,0,1,0,0,0,0,0,0,0,0,0,1,0,0,1,0,0,0,1,1,0,1,1,0,0,0,0,0,0,0,0,0,0,0,0,0,0,0,0,0,0,0,0,0,0,0,0,0,0,0,0,0,0,0,0,0,0,0,0,0,0,0,0,0,0,0,0,0,0,0,0,0,0,0,0,0,0,0,0,0,0,0],"id":5,"left_children":[1,3,5,7,9,11,13,15,17,19,21,23,25,27,29,31,33,35,37,39,41,43,45,47,49,51,53,55,57,59,61,63,65,67,69,71,73,75,77,-1,79,-1,81,-1,83,85,87,89,91,93,95,97,99,101,103,105,107,109,111,113,115,117,119,-1,-1,-1,-1,-1,-1,-1,-1,-1,-1,-1,-1,-1,-1,-1,-1,-1,-1,-1,-1,-1,-1,-1,-1,-1,-1,-1,-1,-1,-1,-1,-1,-1,-1,-1,-1,-1,-1,-1,-1,-1,-1,-1,-1,-1,-1,-1,-1,-1,-1,-1,-1,-1,-1,-1,-1,-1,-1],"loss_changes":[2.928716E1,3.052625E1,2.1570503E1,3.6648525E1,1.9576809E1,1.8461428E1,2.1193972E1,2.99055E1,2.0243729E1,1.0633619E1,1.0469931E1,2.4390007E1,1.8405283E1,2.2699337E1,2.2632359E1,1.1540817E1,3.1223812E1,1.081875E1,9.119331E0,5.4813347E0,1.11792145E1,6.2862873E0,4.306736E0,1.2641357E1,8.917548E0,1.753576E1,2.0818811E1,1.2248981E1,2.051764E1,1.2462221E1,1.9933289E1,9.627306E0,5.450447E0,2.3337122E1,1.2072395E1,6.8454742E-3,8.376443E0,1.0279971E1,5.0102005E0,0E0,9.3853445E0,0E0,2.5960588E0,0E0,1.2880898E-1,2.6084442E0,2.8309705E0,1.2490051E1,1.7794893E1,6.7592745E0,6.5282273E0,1.3521038E1,1.1071935E1,1.6037853E1,2.3487207E1,3.3382702E0,8.622587E0,8.79096E0,1.0231827E1,6.058935E0,1.1367338E1,1.2083533E1,5.295784E0,0E0,0E0,0E0,0E0,0E0,0E0,0E0,0E0,0E0,0E0,0E0,0E0,0E0,0E0,0E0,0E0,0E0,0E0,0E0,0E0,0E0,0E0,0E0,0E0,0E0,0E0,0E0,0E0,0E0,0E0,0E0,0E0,0E0,0E0,0E0,0E0,0E0,0E0,0E0,0E0,0E0,0E0,0E0,0E0,0E0,0E0,0E0,0E0,0E0,0E0,0E0,0E0,0E0,0E0,0E0,0E0,0E0,0E0],"parents":[2147483647,0,0,1,1,2,2,3,3,4,4,5,5,6,6,7,7,8,8,9,9,10,10,11,11,12,12,13,13,14,14,15,15,16,16,17,17,18,18,19,19,20,20,21,21,22,22,23,23,24,24,25,25,26,26,27,27,28,28,29,29,30,30,31,31,32,32,33,33,34,34,35,35,36,36,37,37,38,38,40,40,42,42,44,44,45,45,46,46,47,47,48,48,49,49,50,50,51,51,52,52,53,53,54,54,55,55,56,56,57,57,58,58,59,59,60,60,61,61,62,62],"right_children":[2,4,6,8,10,12,14,16,18,20,22,24,26,28,30,32,34,36,38,40,42,44,46,48,50,52,54,56,58,60,62,64,66,68,70,72,74,76,78,-1,80,-1,82,-1,84,86,88,90,92,94,96,98,100,102,104,106,108,110,112,114,116,118,120,-1,-1,-1,-1,-1,-1,-1,-1,-1,-1,-1,-1,-1,-1,-1,-1,-1,-1,-1,-1,-1,-1,-1,-1,-1,-1,-1,-1,-1,-1,-1,-1,-1,-1,-1,-1,-1,-1,-1,-1,-1,-1,-1,-1,-1,-1,-1,-1,-1,-1,-1,-1,-1,-1,-1,-1,-1,-1],"split_conditions":[1.470408E3,1.4181154E2,NaN,NaN,NaN,NaN,NaN,NaN,NaN,NaN,1.07886314E2,NaN,NaN,NaN,NaN,NaN,NaN,9.540955E1,-1E0,NaN,1.13010315E2,-4.5E0,1.01234795E2,1.18215034E2,1.1581759E2,NaN,NaN,NaN,NaN,NaN,NaN,NaN,1.1372889E2,NaN,NaN,3.98083E1,1.4539568E3,NaN,9.83E2,4.2467743E-1,NaN,2.6976076E-1,1.00558014E2,-2.888337E-1,1.098481E2,1.012985E2,1.008795E2,-4.5E2,1.00121605E2,1.10643166E2,NaN,1.06231705E2,1.03346275E2,NaN,NaN,1.02906425E2,NaN,9.4509346E1,NaN,2.06E2,NaN,NaN,1.5330574E2,3.5923102E-1,-9.158817E-2,-3.319154E-1,2.564209E-1,1.2749189E-1,-1.9748145E-1,-3.6783375E-2,-2.7209932E-1,4.9169177E-1,1.4772391E-1,-2.2032581E-1,7.621926E-2,1.333116E-1,-2.5595284E-1,-3.9038745E-1,1.4016716E-1,2.5509655E-1,-2.0974359E-1,-5.0802094E-1,-1.9629043E-2,9.3891114E-2,3.7556538E-1,-5.1697046E-1,-5.144138E-2,-2.2722685E-1,2.6052517E-1,-5.1237606E-2,3.1019852E-1,2.604395E-1,-2.970283E-1,4.0581416E-2,-3.602053E-1,3.0240357E-1,-1.3661285E-1,-2.1299933E-1,1.6870393E-1,2.8755786E-2,-2.8045034E-1,1.949765E-1,3.2419919E-3,9.394526E-2,-1.2822105E-1,-1.5890464E-2,4.0320727E-1,2.8598607E-1,-2.5410695E-2,-2.4215056E-1,2.661975E-1,2.1222636E-2,-3.1633255E-1,-2.2658814E-1,3.8754117E-1,9.4370715E-2,-2.3900403E-1,1.6603191E-1,-1.6319856E-1,-3.5734266E-1,-9.055046E-2],"split_indices":[46,47,0,48,37,36,48,0,37,48,13,48,48,37,36,37,37,8,31,36,2,25,20,18,13,37,37,36,36,0,37,36,18,0,48,44,46,36,33,0,37,0,21,0,30,11,10,34,8,15,36,30,20,36,0,14,0,20,48,26,37,0,47,0,0,0,0,0,0,0,0,0,0,0,0,0,0,0,0,0,0,0,0,0,0,0,0,0,0,0,0,0,0,0,0,0,0,0,0,0,0,0,0,0,0,0,0,0,0,0,0,0,0,0,0,0,0,0,0,0,0],"split_type":[0,0,1,1,1,1,1,1,1,1,0,1,1,1,1,1,1,0,0,1,0,0,0,0,0,1,1,1,1,1,1,1,0,1,1,0,0,1,0,0,1,0,0,0,0,0,0,0,0,0,1,0,0,1,1,0,1,0,1,0,1,1,0,0,0,0,0,0,0,0,0,0,0,0,0,0,0,0,0,0,0,0,0,0,0,0,0,0,0,0,0,0,0,0,0,0,0,0,0,0,0,0,0,0,0,0,0,0,0,0,0,0,0,0,0,0,0,0,0,0,0],"sum_hessian":[1.4943462E3,4.186876E2,1.0756586E3,3.552188E2,6.346878E1,8.198055E2,2.5585309E2,2.2721277E2,1.2800604E2,4.8642822E1,1.4825961E1,1.2862073E2,6.9118475E2,1.09827385E2,1.460257E2,3.5311413E1,1.9190135E2,3.620912E1,9.179693E1,4.0977783E1,7.6650367E0,5.0015316E0,9.8244295E0,1.0198616E2,2.6634562E1,2.8711984E2,4.040649E2,5.536156E1,5.446582E1,4.7139538E1,9.888616E1,3.0316774E1,4.9946394E0,9.931208E1,9.258928E1,3.0472074E0,3.3161915E1,3.430319E1,5.749374E1,1.3893292E1,2.7084492E1,3.3334503E0,4.3315864E0,1.206194E0,3.7953374E0,7.535748E0,2.2886817E0,8.331217E1,1.8673992E1,1.6128397E1,1.0506165E1,1.6901115E2,1.1810868E2,1.7950908E2,2.2455583E2,1.9798336E1,3.5563225E1,1.7639254E1,3.682657E1,1.0696642E1,3.6442894E1,4.1678288E1,5.720788E1,2.5666315E1,4.65046E0,3.8340378E0,1.1606015E0,7.309871E1,2.6213366E1,2.8608242E1,6.3981037E1,1.854791E0,1.1924164E0,1.8666246E1,1.4495667E1,7.1124034E0,2.7190786E1,5.6314808E1,1.1789333E0,2.320694E1,3.877552E0,2.9144313E0,1.4171553E0,1.0231097E0,2.7722278E0,5.9717875E0,1.5639603E0,1.1686807E0,1.120001E0,9.427526E0,7.388464E1,9.894023E0,8.779969E0,5.294993E0,1.0833404E1,5.7632017E0,4.7429624E0,7.975918E0,1.6103523E2,1.0757955E2,1.0529129E1,5.675114E1,1.22757935E2,5.655158E1,1.6800426E2,1.7982485E0,1.8000088E1,1.0704187E1,2.4859037E1,2.9749036E0,1.466435E1,1.1485935E1,2.5340633E1,1.0055797E0,9.691063E0,2.2101692E1,1.4341204E1,1.4684151E1,2.6994137E1,4.8520454E1,8.687424E0],"tree_param":{"num_deleted":"0","num_feature":"50","num_nodes":"121","size_leaf_vector":"1"}},{"base_weights":[-2.1451158E-3,-3.7105379E-1,4.4035878E-2,-4.722185E-1,5.6251675E-1,2.4376921E-1,-2.2918306E-2,3.078316E-1,-5.787003E-1,-3.68293E-1,1.0175581E0,4.7602367E-1,-1.11553326E-1,1.1807178E-1,-1.5855153E-1,-6.892454E-1,6.6076964E-1,-6.631037E-1,4.584408E-1,-3.4539425E-1,2.2439872E-1,3.704073E-1,5.3831216E-2,8.4140235E-1,1.5665355E-1,4.9312603E-1,-4.2081168E-1,2.1226066E-1,-3.241434E-1,2.4527809E-1,-2.8407258E-1,-2.8909326E-1,5.121122E-2,-2.0102061E-1,8.647123E-1,-4.4578993E-1,-1.0277598E0,3.9424166E-1,-5.006843E-1,-2.4034978E-1,2.5456345E-1,1.1454569E0,-1.0625849E-1,5.6896055E-1,-1.8653195E-1,1.2353833E0,3.0340832E-2,7.932658E-2,-8.119358E-1,4.293916E-1,2.3531416E-2,2.3413032E-1,-7.351606E-1,5.441624E-1,-3.0254433E-1,-1.3095576E-1,-5.19743E-1,-4.5420334E-2,3.3491525E-1,-1.0673977E-2,-2.755084E-1,1.254142E-1,-3.3317766E-1,-2.8321883E-1,2.2340505E-1,-2.1406975E-1,3.632985E-1,1.3317508E-1,-2.987063E-1,3.372899E-1,2.3588873E-2,1.6048029E-1,-1.3374329E-1,4.009862E-1,-1.9233191E-2,-9.207397E-2,3.5158128E-1,1.4766054E-1,-1.3802445E-1,-7.262364E-2,-4.1184613E-1,1.9094248E-1,3.1823255E-2,9.667101E-2,-1.1478785E-1,2.2920613E-1,-1.8056117E-1,6.6624425E-2,-2.6444212E-1,2.2528449E-1,-4.0337976E-2,3.2842103E-2,-3.90956E-1,-2.6172958E-3,-2.2549535E-1,-3.9376326E-2,-2.8280064E-1],"categories":[0,1,3,4,5,6,7,9,10,11,12,14,15,16,17,18,19,20,21,22,23,24,25,26,27,28,30,31,32,34,35,36,37,39,41,42,43,44,45,46,47,49,50,51,52,53,54,55,56,57,58,59,60,61,62,63,64,65,66,67,68,69,70,71,72,73,74,75,76,77,78,80,0,3,4,5,6,7,9,10,11,12,14,15,17,20,22,23,25,26,27,29,30,31,32,33,34,35,39,40,41,42,43,45,48,49,50,52,53,54,55,58,59,61,64,65,69,71,72,75,76,77,78,81,82,83,3,4,7,8,9,11,12,13,16,18,19,22,23,25,26,27,28,30,32,33,34,36,37,38,39,40,41,42,43,44,45,46,48,50,51,0,1,2,3,5,6,7,8,10,12,14,15,16,17,18,19,20,23,24,25,26,27,29,32,33,36,41,42,43,44,47,49,50,51,53,54,55,56,57,58,1,2,6,8,10,11,12,14,16,18,19,20,21,22,23,24,26,27,29,0,1,4,5,8,10,12,13,14,15,16,17,20,22,23,24,25,28,29,30,32,35,38,39,45,46,49,50,51,52,53,55,56,58,64,65,68,69,71,72,73,76,77,78,80,81,83,1,2,8,9,10,11,12,14,15,18,19,21,26,28,31,32,33,34,36,37,40,42,43,44,47,48,51,55,59,60,61,62,63,66,67,68,70,74,79,0,1,3,9,10,11,12,13,17,19,22,23,26,2,10,14,15,16,18,20,29,0,1,4,6,10,13,14,15,17,18,19,20,21,22,24,26,28,1,2,3,4,5,7,8,9,11,12,14,15,16,19,20,21,22,25,27,28,0,4,5,6,7,8,9,10,11,12,16,17,18,20,21,22,26,28,0,1,3,4,8,9,10,13,14,17,18,19,20,21,22,25,26,0,1,2,8,9,11,12,14,15,18,22,23,24,26,27,28,29,0,2,3,6,8,10,11,15,16,21,23,1,2,3,4,6,8,9,21,22,23,25,27,0,1,3,4,7,12,15,16,17,20,22,23,24,26,28,0,1,2,3,4,5,6,7,8,10,11,12,13,14,15,16,17,18,19,20,22,23,24,25,26,27,29,30,31,32,33,35,52,0,1,2,3,4,5,7,8,9,10,11,12,13,16,17,18,19,20,21,22,23,25,26,27,28,29,30,31,33,34,35,36,37,38,39,40,41,43,44,45,46,47,48,49,51,52,54,55,56,57,0,1,2,3,4,5,6,7,8,9,10,11,12,13,14,15,17,19,20,21,22,23,24,25,26,27,28,29,30,31,32,33,34,35,36,37,38,39,40,41,42,43,45,46,47,48,49,50,51,52,53,54,55,56,57,58,59,60,61,63,64,65,68,69,70,71,72,79,27,0,1,9,11,13,21,22,28,54,17,19,22,24,32,34,35,40,46,47,48,52,55,58,0,1,6,12,14,17,19,20,24,25,28,4,5,8,13,16,17,18,19,20,21,23,25,27,0,4,5,7,8,9,11,16,17,20,26,29,0,1,2,3,4,5,6,7,8,10,11,12,13,14,16,17,18,19,20,22,24,26,27,28,29,1,4,5,8,9,17,18,9,11,26,36,40,41,46,3,11,15,26,27,0,2,4,6,8,12,13,19,21,22,24,25,28,29],"categories_nodes":[3,5,6,11,12,13,14,17,23,24,25,26,27,28,29,30,35,42,43,44,45,47,48,49,50,51,52,53,54,55,56],"categories_segments":[0,72,126,161,201,220,267,306,319,327,344,364,382,399,416,427,439,454,487,537,605,606,615,629,640,653,665,690,697,704,709],"categories_sizes":[72,54,35,40,19,47,39,13,8,17,20,18,17,17,11,12,15,33,50,68,1,9,14,11,13,12,25,7,7,5,14],"default_left":[0,0,0,0,0,1,1,0,0,0,1,1,1,1,0,0,1,1,1,0,0,0,0,1,1,1,1,1,1,1,1,0,0,0,0,1,0,0,0,0,0,0,1,1,0,1,0,1,1,1,1,1,1,1,1,1,1,0,0,0,0,0,0,0,0,0,0,0,0,0,0,0,0,0,0,0,0,0,0,0,0,0,0,0,0,0,0,0,0,0,0,0,0,0,0,0,0],"id":6,"left_children":[1,3,5,7,9,11,13,15,17,19,21,23,25,27,29,31,33,35,37,-1,-1,-1,39,41,43,45,47,49,51,53,55,-1,-1,-1,57,59,61,-1,63,-1,-1,65,67,69,71,73,75,77,79,81,83,85,87,89,91,93,95,-1,-1,-1,-1,-1,-1,-1,-1,-1,-1,-1,-1,-1,-1,-1,-1,-1,-1,-1,-1,-1,-1,-1,-1,-1,-1,-1,-1,-1,-1,-1,-1,-1,-1,-1,-1,-1,-1,-1,-1],"loss_changes":[2.4696178E1,1.5497162E1,1.7234854E1,1.2309307E1,7.2465563E0,2.6753376E1,1.8488098E1,6.85838E0,1.1583832E1,6.1592875E0,2.2693968E0,2.2721317E1,2.4274258E1,1.9817276E1,2.5043701E1,1.4024453E0,4.3653264E0,9.016945E0,9.10195E0,0E0,0E0,0E0,2.7849436E0,2.6375168E1,1.5066646E1,1.5079919E1,1.6826464E1,1.6032454E1,1.936651E1,1.9381392E1,1.3511684E1,0E0,0E0,0E0,3.3737593E0,1.4833126E1,5.7195435E0,0E0,3.7814734E0,0E0,0E0,9.2788925E0,1.1720103E1,1.3056885E1,1.1173065E1,2.305872E0,1.11911335E1,8.80401E0,1.50651455E1,1.2116959E1,2.566111E1,1.6509054E1,6.977438E0,1.0807089E1,1.7488201E1,1.7401718E1,2.4171936E1,0E0,0E0,0E0,0E0,0E0,0E0,0E0,0E0,0E0,0E0,0E0,0E0,0E0,0E0,0E0,0E0,0E0,0E0,0E0,0E0,0E0,0E0,0E0,0E0,0E0,0E0,0E0,0E0,0E0,0E0,0E0,0E0,0E0,0E0,0E0,0E0,0E0,0E0,0E0,0E0],"parents":[2147483647,0,0,1,1,2,2,3,3,4,4,5,5,6,6,7,7,8,8,9,9,10,10,11,11,12,12,13,13,14,14,15,15,16,16,17,17,18,18,22,22,23,23,24,24,25,25,26,26,27,27,28,28,29,29,30,30,34,34,35,35,36,36,38,38,41,41,42,42,43,43,44,44,45,45,46,46,47,47,48,48,49,49,50,50,51,51,52,52,53,53,54,54,55,55,56,56],"right_children":[2,4,6,8,10,12,14,16,18,20,22,24,26,28,30,32,34,36,38,-1,-1,-1,40,42,44,46,48,50,52,54,56,-1,-1,-1,58,60,62,-1,64,-1,-1,66,68,70,72,74,76,78,80,82,84,86,88,90,92,94,96,-1,-1,-1,-1,-1,-1,-1,-1,-1,-1,-1,-1,-1,-1,-1,-1,-1,-1,-1,-1,-1,-1,-1,-1,-1,-1,-1,-1,-1,-1,-1,-1,-1,-1,-1,-1,-1,-1,-1,-1],"split_conditions":[3.5323048E1,1.5001251E3,1.0853261E2,NaN,1.0067404E2,NaN,NaN,8.881685E0,4.7E2,1.0943722E2,1.0976481E2,NaN,NaN,NaN,NaN,1.94E2,1.0538157E2,NaN,1.108714E2,-3.4539425E-1,2.2439872E-1,3.704073E-1,4.03209E1,NaN,NaN,NaN,NaN,NaN,NaN,NaN,NaN,-2.8909326E-1,5.121122E-2,-2.0102061E-1,-2.87E2,NaN,-5.75E2,3.9424166E-1,6.61E2,-2.4034978E-1,2.5456345E-1,-3.45E2,NaN,NaN,NaN,NaN,1.0542736E2,NaN,NaN,NaN,NaN,NaN,NaN,NaN,NaN,NaN,NaN,-4.5420334E-2,3.3491525E-1,-1.0673977E-2,-2.755084E-1,1.254142E-1,-3.3317766E-1,-2.8321883E-1,2.2340505E-1,-2.1406975E-1,3.632985E-1,1.3317508E-1,-2.987063E-1,3.372899E-1,2.3588873E-2,1.6048029E-1,-1.3374329E-1,4.009862E-1,-1.9233191E-2,-9.207397E-2,3.5158128E-1,1.4766054E-1,-1.3802445E-1,-7.262364E-2,-4.1184613E-1,1.9094248E-1,3.1823255E-2,9.667101E-2,-1.1478785E-1,2.2920613E-1,-1.8056117E-1,6.6624425E-2,-2.6444212E-1,2.2528449E-1,-4.0337976E-2,3.2842103E-2,-3.90956E-1,-2.6172958E-3,-2.2549535E-1,-3.9376326E-2,-2.8280064E-1],"split_indices":[47,46,16,0,8,0,48,47,27,13,16,48,36,0,0,32,13,36,5,0,0,0,44,37,37,37,37,36,37,36,36,0,0,0,33,37,32,0,32,0,0,34,48,48,0,0,47,48,48,37,37,36,36,37,48,37,37,0,0,0,0,0,0,0,0,0,0,0,0,0,0,0,0,0,0,0,0,0,0,0,0,0,0,0,0,0,0,0,0,0,0,0,0,0,0,0,0],"split_type":[0,0,0,1,0,1,1,0,0,0,0,1,1,1,1,0,0,1,0,0,0,0,0,1,1,1,1,1,1,1,1,0,0,0,0,1,0,0,0,0,0,0,1,1,1,1,0,1,1,1,1,1,1,1,1,1,1,0,0,0,0,0,0,0,0,0,0,0,0,0,0,0,0,0,0,0,0,0,0,0,0,0,0,0,0,0,0,0,0,0,0,0,0,0,0,0,0],"sum_hessian":[1.4476389E3,1.6027509E2,1.2873638E3,1.4505106E2,1.5224023E1,3.225407E2,9.648231E2,1.7195028E1,1.2785603E2,5.0613723E0,1.0162651E1,1.9484303E2,1.2769768E2,4.7313306E2,4.9169006E2,4.246228E0,1.29488E1,1.1856754E2,9.2884865E0,2.9562986E0,2.1050735E0,8.064509E0,2.0981414E0,9.011336E1,1.04729675E2,4.300918E1,8.468851E1,3.9048282E2,8.265023E1,1.1636464E2,3.7532544E2,3.1276526E0,1.1185757E0,1.4169362E0,1.1531864E1,7.5685745E1,4.2881798E1,4.7133007E0,4.5751853E0,1.0068245E0,1.0913168E0,6.806587E1,2.2047483E1,4.727503E1,5.7454643E1,1.5876131E1,2.7133045E1,3.751478E1,4.7173725E1,1.8098566E2,2.0949716E2,3.5229412E1,4.7420815E1,7.529268E1,4.1071957E1,2.2845331E2,1.4687213E2,2.368316E0,9.163548E0,4.109179E1,3.4593956E1,2.1043432E0,4.0777454E1,3.552395E0,1.0227902E0,1.9811674E0,6.60847E1,1.3931039E1,8.116445E0,2.1561718E1,2.5713312E1,1.4908179E1,4.2546467E1,1.4702185E1,1.1739464E0,2.150973E1,5.623317E0,2.1299314E1,1.6215466E1,2.4109823E1,2.3063902E1,1.0973291E2,7.125274E1,1.2083596E2,8.86612E1,2.161505E1,1.3614364E1,6.2185564E0,4.120226E1,5.7626488E1,1.7666191E1,2.9723711E1,1.1348246E1,1.917138E2,3.6739494E1,7.723574E1,6.963639E1],"tree_param":{"num_deleted":"0","num_feature":"50","num_nodes":"97","size_leaf_vector":"1"}},{"base_weights":[-1.98667E-3,-3.6121827E-1,3.655879E-2,7.3532194E-2,-7.1662176E-1,-2.6632397E-2,2.7072734E-1,5.395073E-1,-5.856563E-1,-2.0211436E-1,-1.0827914E0,-1.2747647E-1,1.2747201E-1,4.019799E-1,-4.764757E-1,-6.4248085E-1,7.891462E-1,-1.4123534E-1,-1.0639484E0,-1.0871048E0,1.23300724E-1,-1.2830193E0,-3.4297043E-1,-2.6496213E-2,-4.2666435E-1,5.698735E-1,2.0286417E-2,7.0726186E-1,9.894433E-2,5.1642215E-1,-8.7306136E-1,1.9319744E-1,-2.977385E-1,-6.8048793E-1,9.464662E-1,4.5406297E-1,-9.406558E-1,3.7298877E-2,-1.2196306E0,-4.011303E-1,-1.764382E-1,-1.9710612E-1,9.78497E-1,-4.7813788E-1,-4.4980764E-1,3.9919552E-1,-1.1366761E0,1.18652724E-1,-2.81089E-1,8.094144E-2,-5.721219E-1,9.5855683E-1,1.01077266E-1,1.821675E-1,-2.298616E-1,9.586302E-1,1.7128432E-1,5.9428877E-1,-2.80781E-1,-2.017063E-1,3.3212113E-1,-1.02472E0,5.7486016E-3,-3.964138E-1,1.0465714E-1,-9.7747765E-2,3.5851154E-1,3.0037853E-1,-2.4462761E-1,3.7456147E-2,-3.562216E-1,-3.8754848E-1,-1.07143246E-1,6.736555E-2,-1.4612344E-1,-2.2520517E-1,1.2323818E-1,-2.8277817E-3,3.5267577E-1,-2.2797431E-1,2.1318105E-1,-2.2314934E-1,2.437787E-1,-4.4047427E-1,1.0193705E-2,1.22076504E-1,-5.8023732E-2,1.0088528E-1,-1.6600865E-1,1.586824E-1,-1.7490895E-1,-8.0432985E-3,-2.2877271E-1,3.2007656E-1,1.9786187E-2,2.1729082E-1,-1.9186953E-1,1.24771856E-1,-6.8592325E-2,6.20181E-2,-2.0896398E-1,3.5227105E-1,1.203131E-1,1.9438964E-1,-1.488997E-1,2.294152E-1,-1.5135223E-1,-1.2826969E-1,3.2343286E-1,-2.8439066E-1,1.5552938E-1,-3.5547155E-1,9.194216E-3,-2.3219332E-1,2.0444621E-1],"categories":[1,2,3,4,5,7,9,11,12,13,15,16,17,18,19,20,25,0,1,2,3,4,5,7,8,11,12,13,15,18,19,20,25,26,27,29,30,31,33,34,35,36,38,39,40,41,42,43,44,45,46,47,48,49,50,55,56,57,58,6,10,13,17,22,23,24,28,32,37,39,42,47,48,50,51,52,54,58,0,3,6,9,10,12,14,15,16,20,22,23,25,37,38,41,44,47,59,61,63,75,0,8,21,22,24,27,0,2,13,17,18,19,28,30,35,36,37,43,53,54,55,62,66,67,72,74,83,1,4,5,6,7,8,10,11,12,14,15,16,17,18,20,21,22,23,24,25,26,27,28,29,31,32,33,34,36,39,40,41,42,43,44,45,46,47,48,49,50,51,52,53,54,55,56,57,58,59,61,63,64,65,67,69,70,71,72,73,75,76,77,78,79,80,81,83,1,2,3,5,6,7,8,9,11,12,14,15,16,18,19,20,23,24,25,27,28,32,33,34,35,36,39,41,44,45,46,47,48,49,50,51,52,56,57,0,2,3,4,5,7,8,9,10,11,12,13,15,17,18,19,20,21,22,23,24,25,27,10,13,28,0,1,2,3,4,5,6,7,8,9,10,11,12,13,14,15,16,17,18,19,20,21,22,23,24,25,26,27,28,29,37,60,1,4,6,8,10,13,20,22,23,24,28,2,3,4,5,7,8,10,12,13,14,16,18,19,20,21,22,23,25,26,27,30,31,32,33,35,36,38,39,41,43,44,45,46,49,50,51,52,53,54,56,58,0,3,7,8,12,13,16,17,18,19,20,25,27,28,33,36,37,40,41,42,43,47,48,53,54,57,58,0,1,6,10,13,14,15,18,20,21,26,27,28,2,3,6,7,9,12,14,15,16,17,18,19,23,25,27,28,29,0,1,2,2,3,4,7,9,10,11,14,17,19,22,23,26,27,29,0,1,3,4,5,6,7,8,9,10,11,12,13,14,15,16,17,18,19,20,21,22,23,24,25,27,29,31,32,33,35,36,37,38,40,41,42,43,44,45,49,50,52,53,54,56,57,58,1,2,3,5,6,7,9,10,11,12,13,15,16,20,23,0,3,4,5,6,7,8,9,11,12,13,14,16,17,18,19,20,21,22,23,24,26,29,0,1,2,7,14,15,18,24,26,29,0,2,3,4,5,6,8,9,10,11,12,13,14,15,16,19,22,23,24,25,26,27,28,29,30,32,33,35,36,37,38,39,41,42,44,45,47,48,49,50,51,52,53,55,58,59,60,62,64,65,66,67,68,69,71,72,73,74,75,76,77,1,7,9,10,12,15,17,19,21,22,25,27,28,29,7,9,10,11,14,15,16,19,21,25,0,2,3,4,6,8,10,11,12,20,24,28,29,1,2,9,10,13,15,18,26],"categories_nodes":[1,3,4,6,8,11,12,13,14,17,21,23,25,26,27,28,43,47,48,49,50,52,53,54,55,56,57],"categories_segments":[0,17,59,78,100,106,127,195,234,257,260,292,303,344,371,384,401,404,419,467,482,505,515,576,590,600,613],"categories_sizes":[17,42,19,22,6,21,68,39,23,3,32,11,41,27,13,17,3,15,48,15,23,10,61,14,10,13,8],"default_left":[0,1,1,1,1,0,1,0,1,0,0,1,0,1,1,0,0,1,0,1,0,0,0,1,0,1,1,1,1,0,0,0,0,0,0,1,0,0,0,0,1,0,0,1,0,0,0,1,1,1,1,1,1,1,1,1,1,1,0,0,0,0,0,0,0,0,0,0,0,0,0,0,0,0,0,0,0,0,0,0,0,0,0,0,0,0,0,0,0,0,0,0,0,0,0,0,0,0,0,0,0,0,0,0,0,0,0,0,0,0,0,0,0,0,0],"id":7,"left_children":[1,3,5,7,9,11,13,15,17,19,21,23,25,27,29,31,33,35,37,39,41,43,45,47,49,51,53,55,57,59,61,-1,-1,63,65,67,69,-1,71,-1,73,75,77,79,-1,81,83,85,87,89,91,93,95,97,99,101,103,105,107,109,-1,111,113,-1,-1,-1,-1,-1,-1,-1,-1,-1,-1,-1,-1,-1,-1,-1,-1,-1,-1,-1,-1,-1,-1,-1,-1,-1,-1,-1,-1,-1,-1,-1,-1,-1,-1,-1,-1,-1,-1,-1,-1,-1,-1,-1,-1,-1,-1,-1,-1,-1,-1,-1,-1],"loss_changes":[1.9431896E1,2.1064383E1,1.8761614E1,1.938259E1,1.3894875E1,1.5541053E1,2.6614614E1,1.1391114E1,5.4159765E0,9.458474E0,6.009224E0,1.824712E1,1.8749647E1,2.1180916E1,1.6482418E1,3.7832913E0,7.788973E0,7.435534E0,2.4565601E0,1.7690096E0,6.9256306E0,5.1858444E0,6.7202573E0,1.6769972E1,1.1301453E1,1.3956465E1,1.2980634E1,1.5230991E1,2.2069094E1,5.418704E0,3.9328842E0,0E0,0E0,2.8160703E0,9.349951E0,7.148672E0,1.8864598E0,0E0,2.3036385E-1,0E0,4.891515E-1,6.603557E0,1.3476496E0,3.4372249E0,0E0,3.551888E0,2.1461167E0,2.6090778E1,2.7879595E1,1.0668397E1,1.2297756E1,3.9967957E0,1.7116344E1,1.8775482E1,2.5811924E1,8.854469E0,1.2318972E1,9.908215E0,1.3743861E1,3.916741E0,0E0,4.2852573E0,3.3362253E0,0E0,0E0,0E0,0E0,0E0,0E0,0E0,0E0,0E0,0E0,0E0,0E0,0E0,0E0,0E0,0E0,0E0,0E0,0E0,0E0,0E0,0E0,0E0,0E0,0E0,0E0,0E0,0E0,0E0,0E0,0E0,0E0,0E0,0E0,0E0,0E0,0E0,0E0,0E0,0E0,0E0,0E0,0E0,0E0,0E0,0E0,0E0,0E0,0E0,0E0,0E0,0E0],"parents":[2147483647,0,0,1,1,2,2,3,3,4,4,5,5,6,6,7,7,8,8,9,9,10,10,11,11,12,12,13,13,14,14,15,15,16,16,17,17,18,18,19,19,20,20,21,21,22,22,23,23,24,24,25,25,26,26,27,27,28,28,29,29,30,30,33,33,34,34,35,35,36,36,38,38,40,40,41,41,42,42,43,43,45,45,46,46,47,47,48,48,49,49,50,50,51,51,52,52,53,53,54,54,55,55,56,56,57,57,58,58,59,59,61,61,62,62],"right_children":[2,4,6,8,10,12,14,16,18,20,22,24,26,28,30,32,34,36,38,40,42,44,46,48,50,52,54,56,58,60,62,-1,-1,64,66,68,70,-1,72,-1,74,76,78,80,-1,82,84,86,88,90,92,94,96,98,100,102,104,106,108,110,-1,112,114,-1,-1,-1,-1,-1,-1,-1,-1,-1,-1,-1,-1,-1,-1,-1,-1,-1,-1,-1,-1,-1,-1,-1,-1,-1,-1,-1,-1,-1,-1,-1,-1,-1,-1,-1,-1,-1,-1,-1,-1,-1,-1,-1,-1,-1,-1,-1,-1,-1,-1,-1,-1],"split_conditions":[1.4473328E3,NaN,1.16732956E2,NaN,NaN,1.040586E2,NaN,4.4593628E1,NaN,2E0,9E0,NaN,NaN,NaN,NaN,-3E0,9.610581E1,NaN,9.602468E1,1.01233826E2,1.0262009E2,NaN,1E0,NaN,1.0568644E2,NaN,NaN,NaN,NaN,6.471055E1,1.0612615E2,1.9319744E-1,-2.977385E-1,1.1554432E2,1.0633846E2,1.00625854E2,1.1047368E2,3.7298877E-2,1.5330574E2,-4.011303E-1,1.00800735E2,8.877743E1,9.8953766E1,NaN,-4.4980764E-1,1.1093653E2,1.01567955E2,NaN,NaN,NaN,NaN,1.1924354E2,NaN,NaN,NaN,NaN,NaN,NaN,1.0366208E2,1.4709382E3,3.3212113E-1,1.1517324E2,3.99725E1,-3.964138E-1,1.0465714E-1,-9.7747765E-2,3.5851154E-1,3.0037853E-1,-2.4462761E-1,3.7456147E-2,-3.562216E-1,-3.8754848E-1,-1.07143246E-1,6.736555E-2,-1.4612344E-1,-2.2520517E-1,1.2323818E-1,-2.8277817E-3,3.5267577E-1,-2.2797431E-1,2.1318105E-1,-2.2314934E-1,2.437787E-1,-4.4047427E-1,1.0193705E-2,1.22076504E-1,-5.8023732E-2,1.0088528E-1,-1.6600865E-1,1.586824E-1,-1.7490895E-1,-8.0432985E-3,-2.2877271E-1,3.2007656E-1,1.9786187E-2,2.1729082E-1,-1.9186953E-1,1.24771856E-1,-6.8592325E-2,6.20181E-2,-2.0896398E-1,3.5227105E-1,1.203131E-1,1.9438964E-1,-1.488997E-1,2.294152E-1,-1.5135223E-1,-1.2826969E-1,3.2343286E-1,-2.8439066E-1,1.5552938E-1,-3.5547155E-1,9.194216E-3,-2.3219332E-1,2.0444621E-1],"split_indices":[46,37,14,48,48,47,0,47,37,25,25,0,0,48,37,25,11,36,8,7,10,0,31,37,16,48,48,36,37,47,47,0,0,6,30,8,18,0,47,0,11,47,9,37,0,3,10,36,48,36,36,17,37,0,37,37,37,36,8,46,0,15,42,0,0,0,0,0,0,0,0,0,0,0,0,0,0,0,0,0,0,0,0,0,0,0,0,0,0,0,0,0,0,0,0,0,0,0,0,0,0,0,0,0,0,0,0,0,0,0,0,0,0,0,0],"split_type":[0,1,0,1,1,0,1,0,1,0,0,1,1,1,1,0,0,1,0,0,0,1,0,1,0,1,1,1,1,0,0,0,0,0,0,0,0,0,0,0,0,0,0,1,0,0,0,1,1,1,1,0,1,1,1,1,1,1,0,0,0,0,0,0,0,0,0,0,0,0,0,0,0,0,0,0,0,0,0,0,0,0,0,0,0,0,0,0,0,0,0,0,0,0,0,0,0,0,0,0,0,0,0,0,0,0,0,0,0,0,0,0,0,0,0],"sum_hessian":[1.4014009E3,1.3498758E2,1.2664133E3,6.107282E1,7.391477E1,9.979889E2,2.6842447E2,3.5886494E1,2.5186321E1,3.1377714E1,4.2537056E1,6.033419E2,3.9464694E2,2.2871138E2,3.9713078E1,5.9832773E0,2.990322E1,1.3726854E1,1.1459468E1,7.8065505E0,2.3571163E1,3.289894E1,9.638116E0,4.5190573E2,1.5143619E2,7.612584E1,3.185211E2,1.1326889E2,1.1544249E2,1.1248642E1,2.8464436E1,1.0999526E0,4.8833246E0,2.5699608E0,2.7333258E1,8.115533E0,5.6113214E0,1.3507743E0,1.0108693E1,5.7576857E0,2.0488648E0,1.7706709E1,5.864455E0,7.64949E0,2.5249449E1,5.2376366E0,4.4004793E0,2.8815576E2,1.6374997E2,3.382835E1,1.1760784E2,4.1047913E1,3.5077923E1,1.9354314E2,1.2497797E2,7.656982E1,3.6699074E1,4.9849594E1,6.5592896E1,5.3736696E0,5.8749723E0,2.4133604E1,4.330833E0,1.4089875E0,1.1609733E0,4.4165897E0,2.2916668E1,5.818724E0,2.2968087E0,1.1480092E0,4.463312E0,8.8685255E0,1.2401676E0,1.0153413E0,1.0335236E0,9.144492E0,8.562216E0,1.1337285E0,4.7307267E0,6.4753327E0,1.1741571E0,1.1788596E0,4.058777E0,3.2311046E0,1.1693747E0,1.4963087E2,1.3852489E2,5.004315E1,1.13706825E2,2.0320745E1,1.3507606E1,3.073825E1,8.686959E1,3.6429905E1,4.6180067E0,1.906089E1,1.6017033E1,1.23348724E2,7.0194405E1,6.4858864E1,6.0119102E1,5.4420624E1,2.2149193E1,2.1428482E1,1.5270592E1,4.3419125E1,6.4304724E0,5.9816944E1,5.7759485E0,2.483599E0,2.8900704E0,2.0846716E1,3.2868874E0,1.9432088E0,2.387624E0],"tree_param":{"num_deleted":"0","num_feature":"50","num_nodes":"115","size_leaf_vector":"1"}},{"base_weights":[-2.7427638E-3,-8.297506E-1,1.1031344E-2,-9.425639E-1,1.7601779E-1,-1.10194586E-1,1.0152119E-1,-1.0747153E0,1.5659271E-1,1.6133983E-1,-2.296493E-1,1.7247139E-1,-1.4295259E-1,-1.1172007E0,-5.2307487E-2,3.753308E-1,-3.9139062E-1,-4.402686E-2,-4.803419E-1,3.2372165E-1,2.199553E-3,2.9066166E-1,-3.5649744E-1,-3.4841815E-1,-1.10562205E-1,6.383203E-1,-8.781044E-2,7.699222E-2,-8.7465197E-1,4.852548E-1,-1.9627571E-1,-3.249943E-1,-1.0886225E0,6.7404187E-1,1.617864E-1,2.4957402E-1,-2.195643E-1,6.8786854E-1,-4.092973E-1,2.0805426E-1,-6.175003E-1,3.126377E-1,4.3729413E-2,1.1703109E-1,-1.5862079E-1,-1.6111004E-1,1.0307125E-1,6.619645E-2,-3.3579713E-1,2.7198243E-1,1.0579802E-3,1.3957746E-1,-1.0820065E-1,4.5734476E-2,-1.5725093E-1,-1.0763501E-1,-3.9906427E-1,3.2999107E-1,1.3868093E-1,1.4126295E-1,-5.336345E-2,1.7161033E-1,-7.064837E-2,1.4454192E-1,-1.09544426E-1,2.6586708E-1,-4.4629477E-2,4.130037E-3,-3.05267E-1,2.4496762E-1,-6.72798E-2,6.583064E-2,-2.3807836E-1],"categories":[5,10,11,12,14,15,16,22,24,25,26,30,33,34,35,39,41,43,45,55,56,63,66,67,68,70,72,74,75,0,2,3,4,5,6,7,9,10,11,12,14,15,16,17,18,19,31,34,36,37,42,48,59,61,70,74,2,3,4,8,9,11,13,17,18,19,20,23,3,8,12,15,19,20,22,23,26,27,29,1,2,5,6,7,10,11,12,13,14,15,16,18,20,22,23,28,0,1,2,3,5,6,7,8,11,12,16,18,19,20,23,25,27,28,29,32,33,36,38,40,41,43,44,45,46,49,50,53,54,55,57,58,0,1,3,4,5,6,7,10,11,14,15,28,1,2,3,4,5,7,8,10,11,12,13,14,15,18,19,21,22,23,24,25,26,27,28,29,31,32,33,34,36,37,38,41,42,43,44,45,46,47,49,50,51,52,53,54,55,56,57,58,3,7,18,27,30,33,36,38,40,48,60,70,74,80,0,3,4,5,6,8,9,10,11,12,13,14,15,16,18,19,20,21,22,23,24,25,26,28,29,30,32,33,34,35,37,39,40,41,43,44,45,47,48,49,50,51,52,53,54,55,56,57,58,59,60,63,64,65,66,67,68,69,70,71,72,73,74,75,76,77,78,80,81,82,2,6,8,9,11,12,13,14,15,20,21,22,23,24,25,27,29,0,3,4,9,13,15,17,24,42,47,48,53,58,1,4,9,11,13,14,15,16,17,22,26,30,31,34,37,38,39,40,46,48,51,52,53,54,55,1,2,3,4,7,9,10,11,12,13,17,20,23,26,27,28,1,2,3,4,10,12,13,15,16,17,21,22,26,29,0,2,3,4,6,8,9,11,12,13,14,15,16,17,18,19,20,21,22,23,24,27,1,2,3,4,5,6,7,9,10,11,12,13,14,15,16,17,20,21,22,23,24,25,26,27,28,29,30,31,32,34,35,36,39,40,43,44,45,46,47,48,49,50,51,52,53,54,55,57,58,59,60,61,62,64,65,66,69,71,72,73,75,76,77,78,79,81,82,83,0,1,2,3,4,6,9,10,11,14,15,17,18,19,20,21,22,24,25,26,27,28,29,0,1,2,3,5,6,9,11,12,13,14,16,18,19,21,24,25,26,27,28,1,7,8,10,15,17,19,21,22,23,27,28,29,0,1,3,4,5,6,7,14,16,22,24,28,30,36,40,42,46,47,50,53,58,1,4,7,22,23,28,0,1,2,6,7,10,12,13,14,15,16,18,19,20,21,22,23,24,25,26,28,0,1,2,3,4,5,6,7,8,9,10,11,12,13,14,15,16,17,18,19,20,21,22,23,24,25,27,28,29,30,31,32,33,34,35,36,37,38,39,40,42,43,44,45,46,47,48,49,50,51,52,53,54,55,56,57,58,59,60,61,62,63,64,65,66,67,68,69,71,73,74,75,76,77,78,79,80,81,82,83],"categories_nodes":[6,9,10,11,12,15,16,17,18,19,20,21,22,25,26,29,30,31,33,34,35,38,39,40],"categories_segments":[0,29,56,68,79,96,132,144,192,206,276,293,306,331,347,361,383,451,474,494,507,528,534,555],"categories_sizes":[29,27,12,11,17,36,12,48,14,70,17,13,25,16,14,22,68,23,20,13,21,6,21,80],"default_left":[0,0,0,1,0,0,1,1,0,1,1,1,1,0,0,1,1,1,1,0,1,1,1,0,0,1,1,0,0,1,0,1,0,1,1,1,1,0,1,1,0,0,0,0,0,0,0,0,0,0,0,0,0,0,0,0,0,0,0,0,0,0,0,0,0,0,0,0,0,0,0,0,0],"id":8,"left_children":[1,3,5,7,-1,9,11,13,-1,15,17,19,21,23,-1,25,27,29,31,33,35,37,39,-1,-1,41,43,45,47,49,51,53,55,57,59,61,63,65,67,69,71,-1,-1,-1,-1,-1,-1,-1,-1,-1,-1,-1,-1,-1,-1,-1,-1,-1,-1,-1,-1,-1,-1,-1,-1,-1,-1,-1,-1,-1,-1,-1,-1],"loss_changes":[1.5514912E1,4.1185656E0,1.47093E1,4.6351185E0,0E0,1.862813E1,1.3341121E1,5.562954E-1,0E0,2.0928457E1,1.8520931E1,1.5335222E1,1.6144476E1,1.862278E-1,0E0,1.5545773E1,1.1277817E1,1.863278E1,1.5655296E1,1.778054E1,1.5477496E1,1.6327566E1,1.7297815E1,0E0,0E0,1.6005234E1,1.0097281E1,4.4517574E0,6.801281E0,1.048632E1,1.967414E1,1.3048737E1,5.5247116E0,8.454979E0,2.2863537E1,2.0994549E1,1.536688E1,6.3039665E0,5.552065E0,1.0071007E1,1.1954849E1,0E0,0E0,0E0,0E0,0E0,0E0,0E0,0E0,0E0,0E0,0E0,0E0,0E0,0E0,0E0,0E0,0E0,0E0,0E0,0E0,0E0,0E0,0E0,0E0,0E0,0E0,0E0,0E0,0E0,0E0,0E0,0E0],"parents":[2147483647,0,0,1,1,2,2,3,3,5,5,6,6,7,7,9,9,10,10,11,11,12,12,13,13,15,15,16,16,17,17,18,18,19,19,20,20,21,21,22,22,25,25,26,26,27,27,28,28,29,29,30,30,31,31,32,32,33,33,34,34,35,35,36,36,37,37,38,38,39,39,40,40],"right_children":[2,4,6,8,-1,10,12,14,-1,16,18,20,22,24,-1,26,28,30,32,34,36,38,40,-1,-1,42,44,46,48,50,52,54,56,58,60,62,64,66,68,70,72,-1,-1,-1,-1,-1,-1,-1,-1,-1,-1,-1,-1,-1,-1,-1,-1,-1,-1,-1,-1,-1,-1,-1,-1,-1,-1,-1,-1,-1,-1,-1,-1],"split_conditions":[2.4147594E0,1.5001251E3,1.4814388E3,1.2650934E2,1.7601779E-1,-1E0,NaN,1.0533775E2,1.5659271E-1,NaN,NaN,NaN,NaN,2.272695E2,-5.2307487E-2,NaN,NaN,NaN,NaN,NaN,NaN,NaN,NaN,-3.4841815E-1,-1.10562205E-1,NaN,NaN,4.0778107E1,-4E0,NaN,NaN,NaN,9.774622E1,NaN,NaN,NaN,1.0702472E2,6.37E-1,NaN,NaN,NaN,3.126377E-1,4.3729413E-2,1.1703109E-1,-1.5862079E-1,-1.6111004E-1,1.0307125E-1,6.619645E-2,-3.3579713E-1,2.7198243E-1,1.0579802E-3,1.3957746E-1,-1.0820065E-1,4.5734476E-2,-1.5725093E-1,-1.0763501E-1,-3.9906427E-1,3.2999107E-1,1.3868093E-1,1.4126295E-1,-5.336345E-2,1.7161033E-1,-7.064837E-2,1.4454192E-1,-1.09544426E-1,2.6586708E-1,-4.4629477E-2,4.130037E-3,-3.05267E-1,2.4496762E-1,-6.72798E-2,6.583064E-2,-2.3807836E-1],"split_indices":[47,46,46,13,0,31,0,7,0,0,37,36,36,41,0,48,37,48,0,0,37,48,48,0,0,36,36,47,31,37,0,36,20,37,37,48,17,39,37,37,0,0,0,0,0,0,0,0,0,0,0,0,0,0,0,0,0,0,0,0,0,0,0,0,0,0,0,0,0,0,0,0,0],"split_type":[0,0,0,0,0,0,1,0,0,1,1,1,1,0,0,1,1,1,1,1,1,1,1,0,0,1,1,0,0,1,1,1,0,1,1,1,0,0,1,1,1,0,0,0,0,0,0,0,0,0,0,0,0,0,0,0,0,0,0,0,0,0,0,0,0,0,0,0,0,0,0,0,0],"sum_hessian":[1.3601938E3,2.1312874E1,1.338881E3,2.0050547E1,1.2623262E0,5.721606E2,7.6672034E2,1.8635193E1,1.4153544E0,1.7469897E2,3.974616E2,5.944856E2,1.7223471E2,1.7565481E1,1.0697112E0,1.2617209E2,4.852689E1,2.2904414E2,1.6841748E2,3.1435074E2,2.801349E2,5.6713593E1,1.1552112E2,1.6065828E1,1.4996529E0,8.0233925E1,4.5938164E1,2.5069704E1,2.3457186E1,5.0678143E1,1.78366E2,1.3537787E2,3.3039608E1,9.837349E1,2.1597725E2,1.3236177E2,1.477731E2,3.6192593E1,2.0520998E1,3.658667E1,7.893445E1,4.3475906E1,3.675802E1,2.2099756E1,2.3838408E1,7.282036E0,1.7787668E1,4.3010597E0,1.9156126E1,2.656262E1,2.4115524E1,3.5137817E1,1.4322818E2,3.9920124E1,9.545775E1,8.834872E0,2.4204737E1,3.1275751E1,6.709774E1,1.1287566E2,1.0310159E2,7.939971E1,5.2962055E1,2.5003876E1,1.22769226E2,2.9208387E1,6.984207E0,1.2679419E1,7.8415785E0,1.4827588E1,2.1759083E1,1.3678328E1,6.525612E1],"tree_param":{"num_deleted":"0","num_feature":"50","num_nodes":"73","size_leaf_vector":"1"}},{"base_weights":[-2.526683E-3,-1.659297E-1,6.788795E-2,-7.68314E-2,-4.9241218E-1,1.6608585E-1,-8.564371E-2,1.5442741E-1,-2.8667605E-1,2.5195811E-2,-7.68959E-1,3.3973455E-1,-7.0544355E-2,3.4494254E-1,-2.6627332E-1,4.4243717E-1,-2.6190844E-1,3.228422E-1,-3.8843805E-1,9.432302E-1,-4.1948867E-1,-1.4876764E-1,-9.871551E-1,6.269751E-1,1.9290438E-1,1.08451925E-1,-4.138128E-1,7.496033E-1,-7.458402E-2,1.9820271E-2,-5.8308804E-1,-1.9074078E-1,6.388475E-1,8.584565E-2,-6.8287855E-1,7.9619604E-1,-3.6165494E-1,2.3124708E-1,-5.012863E-1,1.2312967E0,-7.26843E-2,-1.0575639E0,5.4522227E-2,2.6202384E-1,-8.989258E-1,-4.3053623E-2,-1.0783833E0,1.1567247E0,3.587286E-1,4.7166377E-1,-9.5327266E-2,3.8200542E-1,-2.7331942E-1,5.183393E-1,-6.252724E-1,8.8994014E-1,-4.9795187E-1,4.4903323E-1,-4.5751226E-1,4.135212E-1,-3.2260513E-1,-2.531393E-1,-1.0078747E0,2.0725031E-1,-1.7983724E-1,3.0132183E-1,5.1969375E-2,2.518547E-1,-4.0463336E-2,2.4938016E-1,-2.4341287E-1,-1.3295315E-1,2.9364425E-1,-2.6015002E-1,1.1396341E-1,-1.3955258E-1,1.7386317E-1,-9.919325E-3,-2.0260067E-1,1.6248481E-1,4.4657686E-1,-1.9932821E-1,1.5260597E-1,-3.447613E-1,-5.1993195E-2,1.3481237E-1,-3.1146508E-1,-7.890355E-2,3.565848E-1,-3.104699E-1,-4.2998374E-2,2.3068343E-1,-2.2331159E-1,-7.659184E-2,-3.4572923E-1,1.0067358E-1,3.7770534E-1,2.4477395E-1,-1.9078841E-2,2.3807581E-1,8.807845E-3,9.782183E-2,-1.6432272E-1,2.501714E-1,1.990402E-2,1.2377391E-1,-1.6973884E-1,2.3998074E-1,-1.8733653E-1,-4.337296E-2,-2.9341692E-1,3.778955E-1,1.6889769E-1,2.4009486E-1,-2.9963422E-1,-9.716114E-2,2.499607E-1,1.26262E-1,-2.5005525E-1,2.1417777E-1,-1.2988114E-1,6.386475E-2,-2.0322444E-1,-2.409953E-2,-3.660047E-1,-1.2808608E-1,-4.1472563E-1],"categories":[0,9,16,17,18,19,28,31,36,37,38,43,46,53,56,57,66,68,72,74,1,2,3,5,6,7,8,12,14,17,18,19,22,23,24,25,27,28,29,32,33,34,35,36,41,42,43,44,45,49,50,51,52,53,54,55,56,57,58,1,3,4,5,6,7,8,9,11,12,13,15,16,17,18,20,21,22,23,24,1,3,4,5,7,10,11,12,13,14,15,18,20,22,23,26,30,31,33,34,36,41,42,43,45,46,47,48,49,50,52,53,54,55,56,58,61,63,64,65,66,69,71,72,73,75,76,77,78,79,80,81,82,83,3,8,9,17,19,21,24,25,27,30,33,34,35,39,40,42,44,48,51,59,60,62,63,67,68,70,80,1,7,8,10,13,14,16,17,18,20,21,24,27,0,1,2,4,5,6,7,8,9,10,11,12,13,14,15,16,17,18,19,21,22,23,24,27,28,29,30,31,32,33,34,35,36,37,38,41,42,43,45,46,47,49,50,51,52,53,54,55,56,57,58,59,60,61,62,63,64,65,66,67,68,69,70,75,0,1,2,3,4,5,6,7,9,10,11,12,13,16,17,18,19,20,21,23,25,28,29,0,1,2,3,5,8,9,12,14,15,17,19,20,23,24,25,26,27,28,29,1,3,4,6,7,9,10,11,12,13,15,16,17,20,21,24,25,26,29,0,2,3,4,5,8,9,15,20,22,26,1,4,5,7,9,11,13,14,15,18,19,20,22,27,29,0,4,6,9,10,11,16,21,22,28,30,32,34,35,37,39,40,45,46,47,50,53,57,2,5,7,9,11,14,15,18,19,23,26,28,29,0,1,2,3,4,5,6,7,8,9,10,11,12,13,14,15,16,18,19,20,21,23,24,25,26,27,28,29,30,31,32,33,34,36,37,38,39,40,41,43,44,45,46,47,48,49,51,52,53,55,56,1,2,3,5,6,7,8,9,10,11,12,13,14,15,17,18,19,20,21,23,25,26,27,29,30,31,32,33,34,35,36,37,38,41,42,43,44,45,46,47,48,49,55,56,57,58,2,3,7,8,12,13,15,16,19,22,23,24,25,26,27,11,14,16,31,37,38,39,47,48,50,52,53,54,58,0,2,3,4,5,6,7,8,9,10,11,12,13,15,16,17,18,19,20,21,22,23,24,25,26,27,28,29,30,32,33,34,35,36,37,38,40,42,48,50,51,52,53,54,55,11,26,58,1,2,3,4,5,8,10,11,12,13,15,17,19,20,21,23,26,27,29,2,4,6,9,11,14,15,16,17,19,21,23,25,28,29,4,6,8,9,11,13,14,20,22,23,25,27,29,0,1,4,6,10,14,16,17,19,20,22,23,24,25,28,0,1,2,4,5,6,7,8,9,10,11,12,13,14,15,16,17,18,19,20,21,22,23,24,25,26,28,29,30,31,32,33,34,35,36,37,38,39,40,41,42,43,44,45,46,47,48,49,50,51,52,53,54,55,56,57,58,60,61,62,63,64,65,66,67,68,69,71,72,73,74,75,76,77,78,79,81,82,83,0,38,0,1,2,3,4,6,8,9,13,14,19,21,23,24,26,28,0,2,4,5,6,8,13,14,18,19,20,21,22,23,24,25,27,28,29,2,3,4,6,8,11,12,15,16,18,19,20,23,24,25,27,28,0,1,2,3,4,5,6,9,10,11,12,14,15,16,17,18,19,20,21,22,25,29,19,23,0,3,6,7,8,10,16,18,19,22,23,26,27,29,1,2,3,4,5,6,7,8,9,10,12,14,15,16,17,18,19,21,22,23,24,25,26,27,29,30,32,33,34,35,36,37,38,39,40,41,42,44,45,46,47,48,49,50,51,52,53,54,55,56,58,59,60,62,63,64,65,66,67,68,69,70,71,72,73,74,76,77,78,80,81,82,83,0,1,2,3,4,5,6,7,8,9,10,11,12,13,14,15,16,17,18,19,20,21,22,0,1,3,4,5,6,7,8,9,10,11,12,13,14,15,16,18,19,20,21,22,23,24,25,26,27,28,29,30,31,32,33,34,35,36,37,38,39,40,41,42,43,44,45,46,48,51,54,58,0,2,3,8,10,13,14,15,24,26,29,0,1,2,8,9,10,11,12,14,18,19,20,22,25,27,28,0,1,2,3,4,5,6,7,10,11,12,21,24,25,27,28],"categories_nodes":[1,3,4,5,6,7,8,9,10,11,12,13,14,16,17,23,24,25,26,27,28,29,30,32,33,42,48,49,51,52,53,54,55,56,58,59,60,62],"categories_segments":[0,20,59,79,133,160,173,237,260,280,299,310,325,348,361,412,458,473,487,532,535,554,569,582,597,676,678,694,713,730,752,754,768,841,864,913,924,940],"categories_sizes":[20,39,20,54,27,13,64,23,20,19,11,15,23,13,51,46,15,14,45,3,19,15,13,15,79,2,16,19,17,22,2,14,73,23,49,11,16,16],"default_left":[0,1,0,1,1,1,0,1,0,1,1,1,1,1,1,0,1,1,1,1,0,0,0,1,1,1,1,1,1,1,1,0,1,0,0,0,0,1,0,0,0,0,1,0,0,0,1,0,1,1,0,1,1,1,1,0,1,0,1,1,1,1,1,0,0,0,0,0,0,0,0,0,0,0,0,0,0,0,0,0,0,0,0,0,0,0,0,0,0,0,0,0,0,0,0,0,0,0,0,0,0,0,0,0,0,0,0,0,0,0,0,0,0,0,0,0,0,0,0,0,0,0,0,0,0,0,0],"id":9,"left_children":[1,3,5,7,9,11,13,15,17,19,21,23,25,27,29,31,33,35,37,39,41,43,45,47,49,51,53,55,57,59,61,63,65,67,69,71,73,75,77,79,81,83,85,87,89,91,93,95,97,99,101,103,105,107,109,111,113,115,117,119,121,123,125,-1,-1,-1,-1,-1,-1,-1,-1,-1,-1,-1,-1,-1,-1,-1,-1,-1,-1,-1,-1,-1,-1,-1,-1,-1,-1,-1,-1,-1,-1,-1,-1,-1,-1,-1,-1,-1,-1,-1,-1,-1,-1,-1,-1,-1,-1,-1,-1,-1,-1,-1,-1,-1,-1,-1,-1,-1,-1,-1,-1,-1,-1,-1,-1],"loss_changes":[1.5293146E1,1.1605679E1,1.4018761E1,1.5361794E1,1.2276867E1,2.3317465E1,2.8326065E1,1.8199127E1,1.0411256E1,1.2964205E1,7.410103E0,1.3675697E1,1.4837989E1,1.834245E1,2.3242296E1,1.1254065E1,9.178141E0,8.152132E0,1.008523E1,3.119729E0,6.5401707E0,5.0770698E0,3.4962654E0,1.5246216E1,1.7553787E1,1.6713257E1,1.6629848E1,1.0058434E1,1.0991989E1,1.8420446E1,1.6795528E1,8.327749E0,1.1494064E1,5.935913E0,6.1791325E0,3.7520714E0,4.3067408E0,5.76265E0,9.831423E0,6.3513756E-1,1.4497579E0,5.45084E-1,6.1828704E0,5.6281557E0,4.460249E-1,3.2295203E0,1.9892464E0,2.6515923E0,1.4458026E1,1.577397E1,2.0762606E1,1.3220166E1,1.3668132E1,5.597801E0,1.1369871E1,5.3014717E0,4.8270426E0,7.166952E0,1.0776934E1,1.6465424E1,1.4034773E1,1.1565317E1,1.0908443E1,0E0,0E0,0E0,0E0,0E0,0E0,0E0,0E0,0E0,0E0,0E0,0E0,0E0,0E0,0E0,0E0,0E0,0E0,0E0,0E0,0E0,0E0,0E0,0E0,0E0,0E0,0E0,0E0,0E0,0E0,0E0,0E0,0E0,0E0,0E0,0E0,0E0,0E0,0E0,0E0,0E0,0E0,0E0,0E0,0E0,0E0,0E0,0E0,0E0,0E0,0E0,0E0,0E0,0E0,0E0,0E0,0E0,0E0,0E0,0E0,0E0,0E0,0E0,0E0],"parents":[2147483647,0,0,1,1,2,2,3,3,4,4,5,5,6,6,7,7,8,8,9,9,10,10,11,11,12,12,13,13,14,14,15,15,16,16,17,17,18,18,19,19,20,20,21,21,22,22,23,23,24,24,25,25,26,26,27,27,28,28,29,29,30,30,31,31,32,32,33,33,34,34,35,35,36,36,37,37,38,38,39,39,40,40,41,41,42,42,43,43,44,44,45,45,46,46,47,47,48,48,49,49,50,50,51,51,52,52,53,53,54,54,55,55,56,56,57,57,58,58,59,59,60,60,61,61,62,62],"right_children":[2,4,6,8,10,12,14,16,18,20,22,24,26,28,30,32,34,36,38,40,42,44,46,48,50,52,54,56,58,60,62,64,66,68,70,72,74,76,78,80,82,84,86,88,90,92,94,96,98,100,102,104,106,108,110,112,114,116,118,120,122,124,126,-1,-1,-1,-1,-1,-1,-1,-1,-1,-1,-1,-1,-1,-1,-1,-1,-1,-1,-1,-1,-1,-1,-1,-1,-1,-1,-1,-1,-1,-1,-1,-1,-1,-1,-1,-1,-1,-1,-1,-1,-1,-1,-1,-1,-1,-1,-1,-1,-1,-1,-1,-1,-1,-1,-1,-1,-1,-1,-1,-1,-1,-1,-1,-1],"split_conditions":[6.471055E1,NaN,1.15914406E2,NaN,NaN,NaN,NaN,NaN,NaN,NaN,NaN,NaN,NaN,NaN,NaN,1.0745146E2,NaN,NaN,9.590169E1,1.158E2,1.4806091E3,1.1303615E2,-3.08E2,NaN,NaN,NaN,NaN,NaN,NaN,NaN,NaN,1.01036446E2,NaN,NaN,-5.97E2,1.45451E3,1.120816E2,9.3629166E1,1.10244415E2,3.441225E1,9.90567E1,2.256195E2,NaN,1.1280971E2,4.16875E1,-7.3E1,9.243187E1,7.279862E1,NaN,NaN,1.1082636E2,NaN,NaN,NaN,NaN,NaN,NaN,1.0922593E2,NaN,NaN,NaN,1.014384E2,NaN,2.0725031E-1,-1.7983724E-1,3.0132183E-1,5.1969375E-2,2.518547E-1,-4.0463336E-2,2.4938016E-1,-2.4341287E-1,-1.3295315E-1,2.9364425E-1,-2.6015002E-1,1.1396341E-1,-1.3955258E-1,1.7386317E-1,-9.919325E-3,-2.0260067E-1,1.6248481E-1,4.4657686E-1,-1.9932821E-1,1.5260597E-1,-3.447613E-1,-5.1993195E-2,1.3481237E-1,-3.1146508E-1,-7.890355E-2,3.565848E-1,-3.104699E-1,-4.2998374E-2,2.3068343E-1,-2.2331159E-1,-7.659184E-2,-3.4572923E-1,1.0067358E-1,3.7770534E-1,2.4477395E-1,-1.9078841E-2,2.3807581E-1,8.807845E-3,9.782183E-2,-1.6432272E-1,2.501714E-1,1.990402E-2,1.2377391E-1,-1.6973884E-1,2.3998074E-1,-1.8733653E-1,-4.337296E-2,-2.9341692E-1,3.778955E-1,1.6889769E-1,2.4009486E-1,-2.9963422E-1,-9.716114E-2,2.499607E-1,1.26262E-1,-2.5005525E-1,2.1417777E-1,-1.2988114E-1,6.386475E-2,-2.0322444E-1,-2.409953E-2,-3.660047E-1,-1.2808608E-1,-4.1472563E-1],"split_indices":[47,0,17,48,36,0,0,37,0,37,37,36,37,37,48,1,36,48,23,29,46,30,32,48,37,48,48,48,36,37,36,1,36,0,33,46,2,22,6,47,8,41,0,16,43,38,22,47,37,36,17,36,36,36,36,0,36,1,48,36,36,8,37,0,0,0,0,0,0,0,0,0,0,0,0,0,0,0,0,0,0,0,0,0,0,0,0,0,0,0,0,0,0,0,0,0,0,0,0,0,0,0,0,0,0,0,0,0,0,0,0,0,0,0,0,0,0,0,0,0,0,0,0,0,0,0,0],"split_type":[0,1,0,1,1,1,1,1,1,1,1,1,1,1,1,0,1,1,0,0,0,0,0,1,1,1,1,1,1,1,1,0,1,1,0,0,0,0,0,0,0,0,1,0,0,0,0,0,1,1,0,1,1,1,1,1,1,0,1,1,1,0,1,0,0,0,0,0,0,0,0,0,0,0,0,0,0,0,0,0,0,0,0,0,0,0,0,0,0,0,0,0,0,0,0,0,0,0,0,0,0,0,0,0,0,0,0,0,0,0,0,0,0,0,0,0,0,0,0,0,0,0,0,0,0,0,0],"sum_hessian":[1.3271705E3,3.9927142E2,9.278991E2,3.1464023E2,8.463119E1,5.658824E2,3.6201672E2,1.4980836E2,1.6483186E2,2.9787436E1,5.484375E1,3.2612393E2,2.3975848E2,1.0671619E2,2.5530054E2,8.851406E1,6.12943E1,2.3271471E1,1.415604E2,9.354435E0,2.0433002E1,1.4711163E1,4.0132587E1,1.0920959E2,2.1691434E2,1.5803545E2,8.172304E1,5.3920025E1,5.279616E1,1.3464728E2,1.2065327E2,2.0963104E1,6.755096E1,3.400204E1,2.7292257E1,1.3661134E1,9.610337E0,2.1646042E1,1.19914345E2,7.122745E0,2.2316895E0,8.184539E0,1.2248463E1,9.926213E0,4.78495E0,3.6659913E0,3.6466595E1,3.559744E1,7.361215E1,1.0994556E2,1.0696877E2,9.2066055E1,6.596939E1,1.4842661E1,6.688038E1,4.8725563E1,5.1944633E0,2.2228378E1,3.0567783E1,6.253757E1,7.21097E1,6.880534E1,5.184792E1,6.421689E0,1.4541415E1,3.7193176E1,3.0357786E1,7.0672235E0,2.6934818E1,1.7071398E0,2.5585117E1,1.5711845E0,1.2089949E1,5.6138716E0,3.9964662E0,7.1046543E0,1.4541388E1,3.281808E1,8.709627E1,2.7788954E0,4.3438497E0,1.0351789E0,1.1965107E0,7.144481E0,1.0400577E0,9.429833E0,2.8186297E0,6.7931542E0,3.1330588E0,3.741927E0,1.043023E0,1.6542476E0,2.0117438E0,3.3770244E0,3.3089573E1,4.417441E0,3.1179996E1,3.489974E1,3.8712414E1,6.3172512E1,4.677305E1,5.5527344E1,5.1441433E1,3.7187035E1,5.4879017E1,1.9598202E1,4.637119E1,1.2149031E1,2.6936302E0,2.8904942E1,3.7975437E1,2.1528477E1,2.7197084E1,1.2795587E0,3.9149046E0,7.4323363E0,1.47960415E1,9.126963E0,2.144082E1,4.6272293E1,1.6265282E1,2.8897253E1,4.3212452E1,5.9291416E1,9.513931E0,2.1163328E1,3.0684591E1],"tree_param":{"num_deleted":"0","num_feature":"50","num_nodes":"127","size_leaf_vector":"1"}},{"base_weights":[-1.7626868E-3,-4.2777542E-2,2.3541574E-1,-3.9598778E-1,-9.073563E-3,3.7357503E-1,-3.0536243E-1,-8.652463E-2,-8.878834E-1,-1.1078665E-1,1.067513E-1,7.1060276E-1,9.498524E-2,4.534433E-1,-6.05446E-1,3.3780894E-1,-4.372986E-1,-1.399423E-1,-1.0826066E0,-3.981445E-3,-4.0366316E-1,3.2941195E-1,-6.67751E-2,7.9119104E-1,-3.7298498E-1,5.359689E-1,-4.5648032E-1,-2.1233071E-1,7.538486E-1,-9.8706234E-1,4.9534667E-1,-4.2284402E-1,5.7842886E-1,2.855786E-1,-7.1843356E-1,-7.1053654E-1,6.018461E-1,-1.2292302E0,-4.062652E-1,3.0713376E-1,-1.425236E-1,1.33792935E-2,-6.753189E-1,8.1533617E-1,1.6967289E-1,4.552791E-1,-1.7381153E-1,8.840245E-1,-1.6777755E-1,-2.7213487E-1,2.3496002E-1,-4.7070542E-1,7.0336366E-1,7.973445E-1,-6.2654674E-1,-1.5821505E-2,1.1762762E0,1.1929045E-1,-1.1507087E0,-2.668404E-1,8.313679E-1,2.0769262E-1,-2.7939135E-1,-4.212071E-2,2.8925702E-1,2.37436E-1,-2.0142092E-1,-2.9235265E-1,3.4271456E-2,-3.4814966E-1,-3.479079E-3,-3.7934404E-2,2.7048138E-1,-3.8685653E-1,-2.6787452E-2,-2.5674656E-1,1.7357446E-1,2.0732105E-1,-5.7211267E-3,2.1785602E-2,-1.3985011E-1,-1.0825443E-1,2.1538104E-1,-9.6565455E-2,-3.131579E-1,3.074175E-1,8.315287E-3,1.52983E-1,-3.3369113E-2,2.466643E-1,-9.0011224E-2,2.5259744E-2,-1.2751427E-1,-1.3125506E-1,2.8618115E-1,2.2415124E-1,-2.9521048E-1,-3.3468467E-1,5.709043E-2,2.6924995E-1,-1.8108284E-1,-5.9369665E-2,3.3894804E-1,-4.032676E-1,-8.974139E-2,-1.6724153E-1,2.0504865E-1,9.577696E-2,3.8387713E-1,3.7086077E-2,-3.7763634E-1,3.147228E-1,-2.8449794E-2],"categories":[2,4,11,13,17,27,28,33,40,42,44,47,56,61,74,1,3,4,5,9,12,13,15,16,17,18,19,20,1,4,5,10,14,15,19,20,24,27,28,29,0,1,3,4,5,7,8,11,12,13,14,16,17,18,19,23,24,27,28,0,1,3,4,5,6,7,8,11,12,13,14,15,16,17,18,19,20,24,25,26,27,28,29,30,31,32,33,34,35,36,38,39,40,41,42,43,44,45,46,47,48,49,50,53,55,56,57,58,1,9,12,18,20,30,34,35,36,37,41,43,54,55,59,60,62,67,68,70,72,74,82,83,1,2,3,7,8,9,11,12,15,18,19,20,23,24,25,26,27,29,30,32,33,34,35,36,38,39,40,41,42,43,44,45,46,47,49,50,51,53,56,58,0,2,6,10,13,16,17,21,24,31,37,40,42,54,55,0,1,3,4,7,8,9,10,11,12,13,14,15,16,17,18,19,20,22,23,24,25,26,28,0,1,2,3,4,5,6,7,8,9,10,11,12,13,14,15,16,17,18,19,20,21,22,23,24,25,26,27,28,29,30,31,0,1,2,3,4,6,7,8,9,10,12,13,14,16,17,18,19,20,21,22,23,25,26,27,28,31,33,34,36,37,40,41,43,44,45,46,47,49,51,52,53,54,55,57,1,3,5,6,7,8,12,14,15,16,18,20,21,22,23,26,28,0,1,3,4,6,9,11,13,14,15,17,18,19,20,21,22,23,24,25,26,27,29,0,2,4,5,6,7,8,9,10,11,12,14,15,16,17,18,19,20,21,22,23,24,25,26,27,28,29,31,32,33,35,36,37,38,39,40,41,42,43,44,45,46,47,48,49,50,51,52,53,55,57,58,61,62,64,65,66,68,69,70,71,73,75,76,77,78,79,81,82,83,0,3,4,5,7,8,11,12,16,48,0,1,2,3,4,5,6,7,8,9,10,11,12,13,14,15,16,17,18,19,20,21,22,23,24,25,26,27,28,29,30,31,32,33,34,35,37,38,39,40,41,42,43,44,45,46,47,48,49,50,51,52,53,54,55,56,57,58,59,60,61,62,63,64,65,66,67,68,69,70,71,72,73,74,80,0,1,2,3,4,5,6,7,8,9,10,11,12,13,14,15,16,17,18,19,20,0,1,2,3,4,5,6,7,8,0,1,5,6,9,10,11,14,16,17,18,19,21,22,23,25,26,29,0,1,2,6,8,10,11,13,20,21,22,26,1,4,6,9,10,12,14,17,18,19,21,22,25,26,28,2,4,7,8,11,13,15,17,21,23,24,25,27,28,29,0,1,2,3,4,5,10,11,16,23,29,0,1,2,7,8,10,12,13,18,20,22,25,26,28,29],"categories_nodes":[2,3,5,6,7,9,10,12,16,18,19,20,21,22,23,26,31,33,39,40,42,44,45,46],"categories_segments":[0,15,28,40,59,108,132,172,187,211,243,287,304,326,396,406,481,502,511,529,541,556,571,582],"categories_sizes":[15,13,12,19,49,24,40,15,24,32,44,17,22,70,10,75,21,9,18,12,15,15,11,15],"default_left":[0,0,1,1,0,1,1,1,0,1,1,0,1,0,1,0,1,0,1,1,1,1,0,1,0,0,0,0,1,0,0,0,0,1,0,1,0,0,1,1,1,0,1,0,1,1,1,1,0,0,0,0,0,0,0,0,0,0,0,0,0,0,0,0,0,0,0,0,0,0,0,0,0,0,0,0,0,0,0,0,0,0,0,0,0,0,0,0,0,0,0,0,0,0,0,0,0,0,0,0,0,0,0,0,0,0,0,0,0,0,0,0,0],"id":10,"left_children":[1,3,5,7,9,11,13,15,17,19,21,23,25,27,29,31,33,35,37,39,41,43,45,47,49,51,53,-1,55,57,59,61,63,65,67,69,71,73,75,77,79,81,83,85,87,89,91,93,95,-1,-1,97,99,101,103,105,107,-1,109,-1,111,-1,-1,-1,-1,-1,-1,-1,-1,-1,-1,-1,-1,-1,-1,-1,-1,-1,-1,-1,-1,-1,-1,-1,-1,-1,-1,-1,-1,-1,-1,-1,-1,-1,-1,-1,-1,-1,-1,-1,-1,-1,-1,-1,-1,-1,-1,-1,-1,-1,-1,-1,-1],"loss_changes":[1.2440399E1,1.2975564E1,1.4200937E1,1.437668E1,1.1749325E1,1.4075258E1,9.136339E0,