{"learner":{"attributes":{"scikit_learn":"{\"_estimator_type\": \"classifier\"}"},"feature_names":["CREW","Opp_Avg_3_game_DEFF","Opp_Avg_5_game_DEFF","Opp_Season_Avg_DEFF","Opp_Avg_3_game_OEFF","Opp_Avg_5_game_OEFF","Opp_Season_Avg_OEFF","Opp_Avg_3_game_PACE","Opp_Avg_5_game_PACE","Opp_Season_Avg_PACE","Opp_Avg_3_game_POSS","Opp_Avg_5_game_POSS","Opp_Season_Avg_POSS","Avg_3_game_DEFF","Avg_5_game_DEFF","Season_Avg_DEFF","Avg_3_game_OEFF","Avg_5_game_OEFF","Season_Avg_OEFF","Avg_3_game_PACE","Avg_5_game_PACE","Season_Avg_PACE","Avg_3_game_POSS","Avg_5_game_POSS","Season_Avg_POSS","CLOSING_SPREAD","CLOSING_TOTAL","MONEYLINE","Avg_3_game_PTS","Avg_5_game_PTS","Season_Avg_PTS","Streak","Last_ML_1","Last_ML_2","Last_ML_3","VENUE","TEAM","Opponent","Win_Loss_Diff","HOME TEAM WIN%","HOME TEAM POINTS DIFFERENTIAL","TOTAL POINTS PER GAME","CALLED FOULS PER GAME","FOUL% AGAINST ROAD TEAMS","FOUL% AGAINST HOME TEAMS","FOUL DIFFERENTIAL (Against Road Team) - (Against Home Team)","Elo_Rating","Momentum","MAIN REF","TEAM_REST_DAYS"],"feature_types":["c","float","float","float","float","float","float","float","float","float","float","float","float","float","float","float","float","float","float","float","float","float","float","float","float","float","float","int","float","float","float","int","int","int","int","int","c","c","int","float","float","float","float","float","float","float","float","float","c","c"],"gradient_booster":{"model":{"gbtree_model_param":{"num_parallel_tree":"1","num_trees":"100"},"iteration_indptr":[0,1,2,3,4,5,6,7,8,9,10,11,12,13,14,15,16,17,18,19,20,21,22,23,24,25,26,27,28,29,30,31,32,33,34,35,36,37,38,39,40,41,42,43,44,45,46,47,48,49,50,51,52,53,54,55,56,57,58,59,60,61,62,63,64,65,66,67,68,69,70,71,72,73,74,75,76,77,78,79,80,81,82,83,84,85,86,87,88,89,90,91,92,93,94,95,96,97,98,99,100],"tree_info":[0,0,0,0,0,0,0,0,0,0,0,0,0,0,0,0,0,0,0,0,0,0,0,0,0,0,0,0,0,0,0,0,0,0,0,0,0,0,0,0,0,0,0,0,0,0,0,0,0,0,0,0,0,0,0,0,0,0,0,0,0,0,0,0,0,0,0,0,0,0,0,0,0,0,0,0,0,0,0,0,0,0,0,0,0,0,0,0,0,0,0,0,0,0,0,0,0,0,0,0],"trees":[{"base_weights":[3.4155196E-8,7.061869E-1,-6.8419755E-1,-7.5838706E-3,9.68933E-1,-1.2524582E0,-3.0937985E-1,4.2629582E-1,-7.330624E-1,1.464496E0,7.440822E-1,-5.571924E-1,-1.5183936E0,1.89147E-1,-5.0295895E-1,7.3254E-1,-2.4001463E-1,-1.4654543E-1,-1.3676003E0,1.6349443E0,7.269341E-1,1.0761062E0,3.7730744E-1,3.9425585E-1,-9.53875E-1,-1.016965E0,-1.6951011E0,7.8994507E-1,-3.5499787E-1,1.0993851E0,-5.768219E-1,1.2396938E0,-3.5107564E-2,5.649003E-1,-7.6841897E-1,5.3141874E-1,-8.325278E-1,-1.5022861E0,5.720292E-1,1.8071498E0,1.1272584E0,1.0526679E0,-1.0762119E0,1.2590388E0,5.0726414E-1,1.120519E0,5.125525E-2,9.4055945E-1,-6.9691205E-1,-1.151173E0,3.4222218E-1,-1.7344785E0,-3.3475238E-1,-1.0940746E0,-1.815038E0,1.3947549E0,2.8997716E-1,4.6809912E-1,-7.4356914E-1,1.5007809E0,-3.151258E-1,-9.189501E-1,-2.4103627E-1,4.0360942E-1,-3.2290235E-1,1.606383E-1,-2.569051E-1,-9.310356E-2,4.704953E-1,2.2455761E-2,-4.2065847E-1,-2.9979828E-1,2.6365462E-1,3.0016822E-1,-3.1339568E-1,-4.7588345E-1,1.2015135E-1,3.334735E-1,-6.6526555E-2,2.1838821E-1,5.5298537E-1,3.6892092E-1,-1.9983189E-1,4.0024242E-1,4.887361E-2,2.0014015E-1,-4.855102E-1,4.445617E-1,2.0612967E-1,2.4766976E-1,-2.9279456E-1,5.2155554E-1,1.6620255E-1,1.9234313E-1,-1.142016E-1,-2.3059466E-1,3.569954E-1,3.2325158E-1,-3.8801286E-1,1.092973E-1,-3.8251084E-1,3.6944425E-1,-2.8401148E-1,-5.5175596E-1,-1.1981506E-1,4.7164488E-1,-2.2535591E-1,9.022701E-2,-4.8094597E-1,-5.4982954E-1,6.68068E-2,4.7923544E-1,-1.056895E-1,2.2524327E-1,-1.8597211E-1,4.287949E-1,2.3894254E-4,1.2376682E-1,-3.6579195E-1,-4.5979243E-2,5.4916704E-1,-3.4267703E-1,3.334735E-1,-1.5102547E-1,-3.8320905E-1,2.529992E-2,-2.5308493E-1],"categories":[4,15,16,19,21,29,32,34,35,36,37,38,46,47,50,51,56,58,0,1,2,3,6,7,9,10,12,13,14,15,16,18,19,20,22,23,27,28,0,1,6,7,17,21,25,26,27,28,30,31,32,33,34,39,41,42,43,46,47,48,54,56,57,60,61,68,70,72,75,80,3,4,5,6,8,9,10,11,12,14,15,16,17,18,20,22,23,26,28,29,32,35,39,41,42,43,57,70,75,0,2,3,4,6,14,15,18,20,21,22,25,26,2,7,14,15,16,19,24,27,29,0,1,3,5,7,8,9,12,13,14,16,18,19,20,21,22,25,26,27,28,32,33,36,37,38,40,41,43,44,46,49,50,51,53,56,57,58,0,1,2,3,4,5,6,7,8,10,11,12,13,14,16,18,19,20,21,22,25,26,27,29,30,31,32,33,34,36,37,42,45,47,48,51,53,54,55,58,0,2,6,10,13,15,17,21,23,28,30,31,34,39,40,42,45,46,47,48,50,52,53,54,55,57,58,0,3,5,7,8,9,10,11,12,15,16,18,19,20,21,23,24,25,26,27,31,32,33,34,36,37,38,41,42,43,44,45,48,49,50,51,53,56,57,58,2,3,5,6,7,10,13,14,16,18,23,25,28,0,1,3,4,5,6,7,8,9,10,11,12,13,14,15,16,18,19,20,21,22,24,25,27,28,29,31,40,42,52,53,0,1,2,3,4,5,6,7,8,9,10,12,13,14,15,16,17,19,20,31,34,56,60,61,62,1,3,4,5,6,7,8,9,10,12,15,16,18,19,20,22,24,25,26,27,31,32,33,35,38,41,43,44,45,49,52,55,56,0,1,3,4,32,37,58,1,2,4,5,6,9,10,12,13,14,15,16,18,19,22,23,24,25,26,31,32,35,38,39,40,41,42,45,46,47,48,49,50,51,52,53,55,56,58,59,64,65,69,70,71,72,73,74,76,77,78,79,81,82,83,0,3,4,5,6,8,9,10,11,12,14,15,16,17,18,19,20,21,22,23,24,25,26,27,29,30,31,33,34,35,37,38,41,42,44,45,46,48,49,50,52,53,54,55,57,58,60,61,62,64,65,67,68,69,71,72,73,74,76,77,78,79,81,82,83,3,5,8,20,24,0,1,2,3,7,8,9,13,21,27,28,30,31,36,38,40,42,44,46,48,51,57,59,60,61,62,63,66,67,70,74,75,80,0,1,4,5,7,8,10,12,14,15,16,17,18,20,21,22,26,28,0,1,2,3,4,5,7,8,10,11,12,13,15,16,17,18,22,24,25,27,29,0,3,5,6,7,8,9,10,11,12,13,14,17,25,1,2,3,4,0,1,2,3,4,5,6,7,8,9,10,11,12,13,14,15,16,17,18,19,20,21,22,23,24,25,26,27,28,29,30,31,32,33,34,35,36,37,38,39,1,5,9,10,15,16,18,19,21,25,0,1,3,6,9,11,29,0,2,4,5,6,7,8,9,10,11,12,13,15,19,22,23,27,28,29,2,4,5,6,7,8,9,10,12,15,17,18,21,23,26,27,28,29,1,6,7,9,12,13,14,15,16,18,22,27,0,12,1,2,3,4,7,8,11,22,24,25,26,0,1,2,3,4,5,6,7,8,9,11,12,13,14,15,17,18,19,20,21,22,23,25,26,27,29,2,4,6,7,10,11,12,13,14,15,16,21,23,28,0,1,6,8,10,11,14,19,20,22,24,29,5,9,14,15,17,20,23,26,28,29],"categories_nodes":[3,5,6,7,8,9,10,11,12,13,15,16,17,19,20,21,22,23,26,27,28,32,34,38,43,44,45,46,53,55,56,57,58,61,62],"categories_segments":[0,18,38,70,99,112,121,158,198,225,265,278,309,334,367,374,429,494,499,532,550,571,585,589,629,639,646,665,683,695,697,708,734,748,760],"categories_sizes":[18,20,32,29,13,9,37,40,27,40,13,31,25,33,7,55,65,5,33,18,21,14,4,40,10,7,19,18,12,2,11,26,14,12,10],"default_left":[0,0,0,1,0,1,0,0,1,1,1,1,1,1,0,1,1,0,0,1,1,1,0,1,0,0,0,1,1,0,0,0,1,0,1,1,0,0,0,0,0,0,0,1,1,1,1,1,0,0,0,0,0,1,1,1,1,1,1,0,0,1,1,0,0,0,0,0,0,0,0,0,0,0,0,0,0,0,0,0,0,0,0,0,0,0,0,0,0,0,0,0,0,0,0,0,0,0,0,0,0,0,0,0,0,0,0,0,0,0,0,0,0,0,0,0,0,0,0,0,0,0,0,0,0,0,0],"id":0,"left_children":[1,3,5,7,9,11,13,15,17,19,21,23,25,27,29,31,33,35,37,39,41,43,45,47,49,51,53,55,57,59,61,63,65,67,69,71,73,75,77,79,81,83,85,87,89,91,93,95,97,99,101,103,105,107,109,111,113,115,117,119,121,123,125,-1,-1,-1,-1,-1,-1,-1,-1,-1,-1,-1,-1,-1,-1,-1,-1,-1,-1,-1,-1,-1,-1,-1,-1,-1,-1,-1,-1,-1,-1,-1,-1,-1,-1,-1,-1,-1,-1,-1,-1,-1,-1,-1,-1,-1,-1,-1,-1,-1,-1,-1,-1,-1,-1,-1,-1,-1,-1,-1,-1,-1,-1,-1,-1],"loss_changes":[8.630646E2,1.6485544E2,1.9285138E2,7.507046E1,7.0502625E1,6.5762634E1,5.2979527E1,3.0630827E1,3.3015503E1,2.3891937E1,5.366339E1,3.859014E1,2.1313782E1,5.0626278E1,4.738389E1,3.994834E1,2.074313E1,2.2533312E1,1.2027374E1,1.2060364E1,2.4186203E1,2.3555237E1,5.1436775E1,1.8836803E1,1.8741676E1,3.380651E1,1.1764404E1,2.182088E1,2.6414352E1,1.0551006E1,4.3232513E1,1.6560616E1,2.0021557E1,1.761233E1,1.5737473E1,1.3908016E1,1.0377468E1,7.0680313E0,1.7454977E0,3.2890015E0,8.813583E0,8.235092E0,7.2232337E0,2.1316925E1,2.8306702E1,2.1706024E1,3.8143906E1,9.760813E0,1.2771159E1,1.2196663E1,1.2914288E1,4.0185013E0,3.0761147E1,2.4802357E1,6.097473E0,1.2248787E1,1.7866598E1,1.2014404E1,3.1166182E1,7.917053E0,6.875045E0,2.7207245E1,3.7763874E1,0E0,0E0,0E0,0E0,0E0,0E0,0E0,0E0,0E0,0E0,0E0,0E0,0E0,0E0,0E0,0E0,0E0,0E0,0E0,0E0,0E0,0E0,0E0,0E0,0E0,0E0,0E0,0E0,0E0,0E0,0E0,0E0,0E0,0E0,0E0,0E0,0E0,0E0,0E0,0E0,0E0,0E0,0E0,0E0,0E0,0E0,0E0,0E0,0E0,0E0,0E0,0E0,0E0,0E0,0E0,0E0,0E0,0E0,0E0,0E0,0E0,0E0,0E0,0E0],"parents":[2147483647,0,0,1,1,2,2,3,3,4,4,5,5,6,6,7,7,8,8,9,9,10,10,11,11,12,12,13,13,14,14,15,15,16,16,17,17,18,18,19,19,20,20,21,21,22,22,23,23,24,24,25,25,26,26,27,27,28,28,29,29,30,30,31,31,32,32,33,33,34,34,35,35,36,36,37,37,38,38,39,39,40,40,41,41,42,42,43,43,44,44,45,45,46,46,47,47,48,48,49,49,50,50,51,51,52,52,53,53,54,54,55,55,56,56,57,57,58,58,59,59,60,60,61,61,62,62],"right_children":[2,4,6,8,10,12,14,16,18,20,22,24,26,28,30,32,34,36,38,40,42,44,46,48,50,52,54,56,58,60,62,64,66,68,70,72,74,76,78,80,82,84,86,88,90,92,94,96,98,100,102,104,106,108,110,112,114,116,118,120,122,124,126,-1,-1,-1,-1,-1,-1,-1,-1,-1,-1,-1,-1,-1,-1,-1,-1,-1,-1,-1,-1,-1,-1,-1,-1,-1,-1,-1,-1,-1,-1,-1,-1,-1,-1,-1,-1,-1,-1,-1,-1,-1,-1,-1,-1,-1,-1,-1,-1,-1,-1,-1,-1,-1,-1,-1,-1,-1,-1,-1,-1,-1,-1,-1,-1],"split_conditions":[-5E-1,1.9849637E2,1.1494546E2,NaN,-3.38E2,NaN,NaN,NaN,NaN,NaN,NaN,NaN,NaN,NaN,-3E0,NaN,NaN,NaN,2.75E2,NaN,NaN,NaN,NaN,NaN,1.4903575E3,2.0179796E1,NaN,NaN,NaN,1.4912733E3,2.4602519E2,1.1416134E2,NaN,1.1699089E2,NaN,9.927065E1,1.03812775E2,1.170276E2,NaN,2.2941019E2,1.8E1,1.0056557E2,9.7302025E1,NaN,NaN,NaN,NaN,9.613534E1,1.73025E0,1.03731926E2,4.0024834E1,1.4954169E3,1.01333336E2,NaN,1.073098E2,NaN,NaN,NaN,NaN,1.53E2,1.1581032E2,NaN,NaN,4.0360942E-1,-3.2290235E-1,1.606383E-1,-2.569051E-1,-9.310356E-2,4.704953E-1,2.2455761E-2,-4.2065847E-1,-2.9979828E-1,2.6365462E-1,3.0016822E-1,-3.1339568E-1,-4.7588345E-1,1.2015135E-1,3.334735E-1,-6.6526555E-2,2.1838821E-1,5.5298537E-1,3.6892092E-1,-1.9983189E-1,4.0024242E-1,4.887361E-2,2.0014015E-1,-4.855102E-1,4.445617E-1,2.0612967E-1,2.4766976E-1,-2.9279456E-1,5.2155554E-1,1.6620255E-1,1.9234313E-1,-1.142016E-1,-2.3059466E-1,3.569954E-1,3.2325158E-1,-3.8801286E-1,1.092973E-1,-3.8251084E-1,3.6944425E-1,-2.8401148E-1,-5.5175596E-1,-1.1981506E-1,4.7164488E-1,-2.2535591E-1,9.022701E-2,-4.8094597E-1,-5.4982954E-1,6.68068E-2,4.7923544E-1,-1.056895E-1,2.2524327E-1,-1.8597211E-1,4.287949E-1,2.3894254E-4,1.2376682E-1,-3.6579195E-1,-4.5979243E-2,5.4916704E-1,-3.4267703E-1,3.334735E-1,-1.5102547E-1,-3.8320905E-1,2.529992E-2,-2.5308493E-1],"split_indices":[25,47,47,48,27,37,0,0,37,37,48,48,48,48,31,37,48,0,32,48,48,0,0,36,46,47,0,37,36,46,47,6,36,2,49,5,16,15,0,47,38,20,20,37,36,37,36,11,40,13,42,46,28,37,19,36,36,37,37,27,2,36,37,0,0,0,0,0,0,0,0,0,0,0,0,0,0,0,0,0,0,0,0,0,0,0,0,0,0,0,0,0,0,0,0,0,0,0,0,0,0,0,0,0,0,0,0,0,0,0,0,0,0,0,0,0,0,0,0,0,0,0,0,0,0,0,0],"split_type":[0,0,0,1,0,1,1,1,1,1,1,1,1,1,0,1,1,1,0,1,1,1,1,1,0,0,1,1,1,0,0,0,1,0,1,0,0,0,1,0,0,0,0,1,1,1,1,0,0,0,0,0,0,1,0,1,1,1,1,0,0,1,1,0,0,0,0,0,0,0,0,0,0,0,0,0,0,0,0,0,0,0,0,0,0,0,0,0,0,0,0,0,0,0,0,0,0,0,0,0,0,0,0,0,0,0,0,0,0,0,0,0,0,0,0,0,0,0,0,0,0,0,0,0,0,0,0],"sum_hessian":[1.7842496E3,8.779998E2,9.0624976E2,2.3649994E2,6.414998E2,3.592499E2,5.469999E2,1.4824997E2,8.824998E1,1.9849995E2,4.429999E2,1.0024998E2,2.5899994E2,1.5299997E2,3.939999E2,1.0149998E2,4.674999E1,4.649999E1,4.174999E1,1.6024995E2,3.8249992E1,2.3149994E2,2.1149995E2,2.9499992E1,7.0749985E1,6.9249985E1,1.8974995E2,7.2499985E1,8.049998E1,1.6749996E1,3.772499E2,6.0749985E1,4.074999E1,1.8499996E1,2.8249992E1,2.3499994E1,2.2999994E1,3.9249992E1,2.4999995E0,1.1774997E2,4.249999E1,3.2749992E1,5.4999986E0,1.7424995E2,5.7249985E1,6.3749985E1,1.4774997E2,1.9749996E1,9.749998E0,6.1499985E1,9.249998E0,3.2999992E1,3.6249992E1,3.3249992E1,1.5649997E2,3.1999992E1,4.049999E1,2.5749994E1,5.474999E1,1.2999997E1,3.749999E0,1.8599995E2,1.9124995E2,5.8499985E1,2.2499995E0,2.4249994E1,1.6499996E1,1.0249997E1,8.249998E0,1.2499997E1,1.5749996E1,3.999999E0,1.9499996E1,1.9999995E0,2.0999994E1,3.7749992E1,1.4999996E0,1.2499998E0,1.2499998E0,4.499999E0,1.1324997E2,4.049999E1,1.9999995E0,2.4499994E1,8.249998E0,1.2499998E0,4.249999E0,1.2424997E2,4.999999E1,4.749999E1,9.749998E0,2.9499992E1,3.4249992E1,6.2249985E1,8.549998E1,2.2499995E0,1.7499996E1,2.2499995E0,7.499998E0,4.499999E0,5.6999985E1,5.4999986E0,3.749999E0,3.0249992E1,2.7499993E0,5.9999986E0,3.0249992E1,8.999998E0,2.4249994E1,1.5524997E2,1.2499998E0,2.8749992E1,3.2499993E0,2.6999994E1,1.3499997E1,7.749998E0,1.7999996E1,1.5999996E1,3.8749992E1,2.2499995E0,1.0749997E1,2.4999995E0,1.2499998E0,8.724998E1,9.874998E1,1.2474997E2,6.6499985E1],"tree_param":{"num_deleted":"0","num_feature":"50","num_nodes":"127","size_leaf_vector":"1"}},{"base_weights":[6.1406527E-4,6.084751E-1,-4.3424165E-1,1.3168547E-1,8.3480674E-1,-8.5170555E-1,-1.26711E-1,6.3198614E-1,-4.0917644E-1,9.327502E-1,-1.9480499E-2,-5.267177E-1,-1.202272E0,3.1905478E-1,-2.7741253E-1,1.0606748E0,4.7822047E-2,5.356143E-1,-7.2682375E-1,1.0828534E0,5.69428E-1,7.2480834E-1,-9.243118E-1,-6.9857943E-1,2.5654098E-1,-5.4571027E-1,-1.3221169E0,8.528431E-1,-1.514797E-1,-7.344625E-2,-7.71793E-1,1.3684605E0,4.4768634E-1,7.351437E-1,-6.1678666E-1,1.3925396E0,-8.4947124E-2,-2.857433E-1,-1.2871116E0,1.2983133E0,7.952983E-1,1.0355041E0,6.1803125E-2,1.099814E0,-1.840225E-1,3.72868E-1,-1.1793387E0,-2.6305366E-1,-9.986844E-1,-7.536819E-1,6.4777845E-1,1.6196339E-1,-1.2659531E0,3.8400957E-1,-1.3630004E0,1.2922368E0,2.550246E-1,9.713826E-1,-4.4047278E-1,3.793713E-1,-3.974977E-1,-2.5465542E-1,-1.1355183E0,-1.3179429E-1,4.311164E-1,3.070891E-1,-1.5297598E-1,-4.8892014E-2,3.5241756E-1,1.1557541E-1,-3.11065E-1,4.7896641E-1,-1.830617E-2,1.105958E-1,-4.041747E-1,1.6209437E-1,-1.8993829E-1,-4.1536683E-1,2.6866886E-1,3.0530435E-1,4.5769975E-1,3.4631288E-1,7.744221E-2,3.4960783E-1,-3.293207E-1,3.6657193E-1,-6.70344E-2,3.8526648E-1,-8.74447E-2,-2.327902E-1,1.9416158E-1,-4.6162602E-1,5.7032574E-2,2.1303058E-1,-2.2106245E-1,-1.7365101E-1,-3.8627023E-1,2.0243059E-1,-3.41506E-1,1.9057384E-2,3.7380219E-1,3.0958894E-1,-1.5072794E-1,-4.6849737E-1,-1.0963142E-1,3.0166328E-1,-2.5398457E-1,-1.3919078E-1,-4.2108297E-1,4.5659345E-1,-4.3948565E-2,2.2214282E-1,-3.366095E-1,4.9728027E-1,-5.62055E-2,-2.4532267E-1,2.029954E-1,1.8753527E-1,-2.3377533E-1,2.6587436E-2,-2.2357136E-1,2.5429174E-1,-1.8195479E-1,-3.7535492E-1,2.2848384E-1],"categories":[3,4,5,6,9,10,12,14,15,17,28,30,31,40,42,43,46,57,60,62,63,70,72,74,75,4,5,6,9,10,11,14,15,16,22,23,26,35,41,42,43,44,46,49,50,51,52,53,55,58,64,65,69,71,72,73,76,77,81,82,83,1,2,7,9,13,14,15,16,22,23,27,28,0,1,6,7,11,17,21,27,28,30,31,32,33,34,36,37,39,40,41,42,43,48,52,54,56,57,61,68,70,71,72,74,80,0,1,2,3,4,5,6,7,8,12,15,16,18,19,20,21,25,27,29,32,33,34,36,37,38,39,41,43,44,45,46,47,48,49,51,52,53,55,57,0,1,3,4,5,6,7,8,9,10,11,12,13,16,17,18,19,20,21,22,24,25,26,27,28,29,30,31,32,33,34,35,36,37,38,39,40,41,42,43,44,45,46,47,49,50,51,53,55,56,58,2,4,6,9,11,13,14,15,19,22,27,0,1,3,4,5,7,8,9,10,12,13,14,15,16,18,19,20,21,22,23,24,25,27,28,29,30,34,53,58,0,2,6,9,10,11,13,15,17,21,22,23,24,28,30,31,32,34,35,39,40,42,45,46,47,48,50,51,53,54,55,56,57,58,0,3,4,5,6,7,8,12,14,15,16,18,19,20,21,22,23,24,25,26,27,28,29,31,32,33,34,36,37,38,39,41,43,44,45,46,47,48,49,50,53,56,57,58,5,6,11,14,18,22,24,27,3,4,5,6,8,9,10,11,12,13,14,15,16,17,18,20,21,22,23,25,26,28,29,30,31,32,35,39,40,41,42,43,45,46,47,48,49,50,52,53,54,55,57,58,59,60,62,63,64,65,69,70,71,72,73,74,75,76,77,78,79,80,81,82,83,0,1,2,4,5,7,8,9,11,12,14,15,19,21,24,25,26,0,1,3,4,5,6,8,9,10,11,13,14,15,16,17,19,20,21,22,23,24,27,28,3,6,7,8,15,17,18,20,21,22,25,1,2,3,4,5,6,7,8,12,13,14,16,18,19,20,21,22,24,25,27,32,33,38,40,41,43,44,48,49,50,54,56,58,0,1,3,5,7,8,9,10,11,12,14,16,18,19,20,21,23,24,25,26,27,28,29,31,32,33,34,36,37,38,40,41,43,44,45,47,49,50,51,57,58,0,1,2,3,5,6,8,10,12,13,27,2,3,7,8,9,13,19,29,31,34,37,38,40,42,44,54,59,61,62,68,70,74,0,1,2,6,7,12,13,16,17,20,21,24,25,26,27,28,29,2,3,4,5,6,7,8,9,10,17,22,23,26,27,31,34,42,45,46,47,48,50,52,54,56,58,2,6,9,11,13,14,15,16,17,21,22,26,28,36,38,42,47,48,53,0,1,2,4,5,6,7,9,10,11,13,14,15,16,17,0,1,2,3,4,5,6,7,10,11,12,13,14,15,16,18,19,20,21,22,23,24,25,27,1,2,3,4,5,6,7,8,9,13,15,18,19,20,22,23,25,26,27,29,0,4,5,6,8,10,12,17,18,21,22,26,28,29,0,1,3,4,5,6,7,8,9,10,11,12,14,15,16,17,18,19,20,21,22,23,24,25,26,27,28,29,30,31,32,33,34,35,36,37,38,39,40,41,42,43,44,45,46,47,48,49,50,51,52,53,54,55,56,57,58,60,62,64,65,66,67,68,69,70,71,72,73,74,76,77,78,80,81,82,83,0,2,3,4,5,6,7,8,9,10,12,13,14,15,17,18,19,20,21,22,26,30,34,40,46,50,52,53,54,55,56,58,1,2,11,13,15,22,26,32,34,35,37,39,42,45,47,48,50,51,53,58,0,1,2,3,4,5,6,8,9,10,11,12,14,15,16,17,18,19,20,21,22,24,25,26,27,28,0,1,2,4,5,6,7,8,9,10,11,12,14,15,16,17,19,21,22,23,24,25,59,62,66,0,1,2,3,4,5,6,7,9,10,11,12,13,14,15,16,17,18,19,20,21,22,23,24,25,26,27,28,29,30,31,32,33,34,35,36,37,38,39,40,41,42,43,45,2,3,4,5,7,8,9,10,11,12,13,14,15,16,17,18,19,20,22,23,24,25,26,27,29,30,32,35,37,38,39,44,45,46,47,48,49,50,51,52,53,54,55,56,57,58,59,60,61,62,63,64,65,66,67,68,69,71,72],"categories_nodes":[3,4,5,6,7,8,9,10,12,13,14,15,16,17,18,19,20,21,23,27,29,30,32,34,37,40,42,47,48,51,56,57,59],"categories_segments":[0,25,61,73,106,145,196,207,236,270,314,322,387,404,427,438,471,512,523,545,562,588,607,622,646,666,680,757,789,809,835,860,904],"categories_sizes":[25,36,12,33,39,51,11,29,34,44,8,65,17,23,11,33,41,11,22,17,26,19,15,24,20,14,77,32,20,26,25,44,59],"default_left":[0,0,0,0,1,1,0,1,1,1,1,0,1,1,1,0,1,1,1,1,1,1,1,0,0,0,0,1,1,1,1,0,1,1,1,1,1,1,1,0,1,0,0,0,0,0,0,1,1,0,1,1,1,0,0,0,1,1,0,1,0,0,1,0,0,0,0,0,0,0,0,0,0,0,0,0,0,0,0,0,0,0,0,0,0,0,0,0,0,0,0,0,0,0,0,0,0,0,0,0,0,0,0,0,0,0,0,0,0,0,0,0,0,0,0,0,0,0,0,0,0,0,0,0,0],"id":1,"left_children":[1,3,5,7,9,11,13,15,17,19,21,23,25,27,29,31,33,35,37,39,41,43,45,47,49,51,53,55,57,59,61,63,65,67,69,71,73,75,77,79,81,83,85,87,89,-1,91,93,95,97,99,101,103,105,107,109,111,113,115,117,119,121,123,-1,-1,-1,-1,-1,-1,-1,-1,-1,-1,-1,-1,-1,-1,-1,-1,-1,-1,-1,-1,-1,-1,-1,-1,-1,-1,-1,-1,-1,-1,-1,-1,-1,-1,-1,-1,-1,-1,-1,-1,-1,-1,-1,-1,-1,-1,-1,-1,-1,-1,-1,-1,-1,-1,-1,-1,-1,-1,-1,-1,-1,-1],"loss_changes":[4.5718604E2,7.7728516E1,1.293382E2,6.340808E1,4.0928345E1,4.807419E1,3.9169743E1,3.0407352E1,3.422616E1,2.3306427E1,3.5198025E1,3.0283089E1,1.5400177E1,3.716377E1,4.3838573E1,1.2613182E1,2.4446924E1,1.5510381E1,2.0589848E1,1.8131256E1,3.0777164E1,9.980783E0,1.4497761E1,2.374263E1,1.6681675E1,1.71927E1,1.2559784E1,1.7856373E1,2.6134022E1,4.553242E1,2.3605743E1,6.3580093E0,1.4265282E1,1.0565731E1,1.1869403E1,3.7196445E0,1.064858E1,1.43269825E1,9.124062E0,9.628113E0,2.5754517E1,2.0087204E1,2.1273348E1,5.6220684E0,5.047317E0,0E0,1.0928722E1,3.5697865E1,1.2399628E1,7.3069816E0,1.0431366E1,1.0748115E1,3.8579788E0,4.5367894E0,5.509308E0,1.3331329E1,2.1270014E1,1.3451998E1,2.7396229E1,3.7364227E1,3.062184E1,2.1359158E1,1.7254677E1,0E0,0E0,0E0,0E0,0E0,0E0,0E0,0E0,0E0,0E0,0E0,0E0,0E0,0E0,0E0,0E0,0E0,0E0,0E0,0E0,0E0,0E0,0E0,0E0,0E0,0E0,0E0,0E0,0E0,0E0,0E0,0E0,0E0,0E0,0E0,0E0,0E0,0E0,0E0,0E0,0E0,0E0,0E0,0E0,0E0,0E0,0E0,0E0,0E0,0E0,0E0,0E0,0E0,0E0,0E0,0E0,0E0,0E0,0E0,0E0,0E0,0E0],"parents":[2147483647,0,0,1,1,2,2,3,3,4,4,5,5,6,6,7,7,8,8,9,9,10,10,11,11,12,12,13,13,14,14,15,15,16,16,17,17,18,18,19,19,20,20,21,21,22,22,23,23,24,24,25,25,26,26,27,27,28,28,29,29,30,30,31,31,32,32,33,33,34,34,35,35,36,36,37,37,38,38,39,39,40,40,41,41,42,42,43,43,44,44,46,46,47,47,48,48,49,49,50,50,51,51,52,52,53,53,54,54,55,55,56,56,57,57,58,58,59,59,60,60,61,61,62,62],"right_children":[2,4,6,8,10,12,14,16,18,20,22,24,26,28,30,32,34,36,38,40,42,44,46,48,50,52,54,56,58,60,62,64,66,68,70,72,74,76,78,80,82,84,86,88,90,-1,92,94,96,98,100,102,104,106,108,110,112,114,116,118,120,122,124,-1,-1,-1,-1,-1,-1,-1,-1,-1,-1,-1,-1,-1,-1,-1,-1,-1,-1,-1,-1,-1,-1,-1,-1,-1,-1,-1,-1,-1,-1,-1,-1,-1,-1,-1,-1,-1,-1,-1,-1,-1,-1,-1,-1,-1,-1,-1,-1,-1,-1,-1,-1,-1,-1,-1,-1,-1,-1,-1,-1,-1,-1],"split_conditions":[-2E0,2.3064203E2,1.3867055E2,NaN,NaN,NaN,NaN,NaN,NaN,NaN,NaN,1.4903575E3,NaN,NaN,NaN,NaN,NaN,NaN,NaN,NaN,NaN,NaN,9.486511E1,NaN,9.84969E1,1.1172863E2,9.311744E1,NaN,1.0562334E2,NaN,NaN,1.4215724E3,NaN,9.896949E1,NaN,1.20847404E2,1.0093308E2,NaN,1.2668623E2,3.9654626E2,NaN,-1.44E2,NaN,1.0142509E2,1.16307045E2,3.72868E-1,1.1319697E2,NaN,NaN,-2E0,1.0052465E2,NaN,1.1202414E2,1.1384407E2,5E-1,1.1667761E2,NaN,NaN,1.1729039E2,NaN,1.26E2,1.0932222E2,1.25333336E2,-1.3179429E-1,4.311164E-1,3.070891E-1,-1.5297598E-1,-4.8892014E-2,3.5241756E-1,1.1557541E-1,-3.11065E-1,4.7896641E-1,-1.830617E-2,1.105958E-1,-4.041747E-1,1.6209437E-1,-1.8993829E-1,-4.1536683E-1,2.6866886E-1,3.0530435E-1,4.5769975E-1,3.4631288E-1,7.744221E-2,3.4960783E-1,-3.293207E-1,3.6657193E-1,-6.70344E-2,3.8526648E-1,-8.74447E-2,-2.327902E-1,1.9416158E-1,-4.6162602E-1,5.7032574E-2,2.1303058E-1,-2.2106245E-1,-1.7365101E-1,-3.8627023E-1,2.0243059E-1,-3.41506E-1,1.9057384E-2,3.7380219E-1,3.0958894E-1,-1.5072794E-1,-4.6849737E-1,-1.0963142E-1,3.0166328E-1,-2.5398457E-1,-1.3919078E-1,-4.2108297E-1,4.5659345E-1,-4.3948565E-2,2.2214282E-1,-3.366095E-1,4.9728027E-1,-5.62055E-2,-2.4532267E-1,2.029954E-1,1.8753527E-1,-2.3377533E-1,2.6587436E-2,-2.2357136E-1,2.5429174E-1,-1.8195479E-1,-3.7535492E-1,2.2848384E-1],"split_indices":[25,47,47,0,0,37,0,48,48,37,48,46,48,48,36,0,36,36,37,48,48,37,23,0,9,16,10,36,16,48,48,46,37,23,37,13,22,36,13,47,36,27,0,24,1,0,3,48,48,31,7,37,1,15,25,6,0,0,13,0,27,30,28,0,0,0,0,0,0,0,0,0,0,0,0,0,0,0,0,0,0,0,0,0,0,0,0,0,0,0,0,0,0,0,0,0,0,0,0,0,0,0,0,0,0,0,0,0,0,0,0,0,0,0,0,0,0,0,0,0,0,0,0,0,0],"split_type":[0,0,0,1,1,1,1,1,1,1,1,0,1,1,1,1,1,1,1,1,1,1,0,1,0,0,0,1,0,1,1,0,1,0,1,0,0,1,0,0,1,0,1,0,0,0,0,1,1,0,0,1,0,0,0,0,1,1,0,1,0,0,0,0,0,0,0,0,0,0,0,0,0,0,0,0,0,0,0,0,0,0,0,0,0,0,0,0,0,0,0,0,0,0,0,0,0,0,0,0,0,0,0,0,0,0,0,0,0,0,0,0,0,0,0,0,0,0,0,0,0,0,0,0,0],"sum_hessian":[1.7275917E3,7.203102E2,1.00728143E3,2.323739E2,4.8793628E2,4.2652148E2,5.8075995E2,1.206258E2,1.1174811E2,4.376663E2,5.0269985E1,2.2263408E2,2.0388739E2,1.4645073E2,4.3430923E2,6.9100624E1,5.1525177E1,2.7944752E1,8.380336E1,3.0831033E2,1.2935597E2,2.7691057E1,2.2578928E1,1.8266258E2,3.9971504E1,3.232895E1,1.7155844E2,6.823286E1,7.821787E1,3.0827356E2,1.2603569E2,4.518199E1,2.3918633E1,2.5277594E1,2.6247583E1,1.12146225E1,1.673013E1,4.7734722E1,3.6068634E1,1.7424026E2,1.3407007E2,6.689571E1,6.246025E1,1.9453804E1,8.237253E0,1.9694095E0,2.060952E1,7.528384E1,1.0737874E2,1.0899991E1,2.9071512E1,1.6697737E1,1.5631215E1,3.8184032E0,1.6774004E2,3.8657898E1,2.9574957E1,1.5527109E1,6.269076E1,1.2851738E2,1.7975616E2,5.274459E1,7.32911E1,1.4541379E0,4.372785E1,1.4892638E1,9.025994E0,8.513255E0,1.6764338E1,7.7780004E0,1.8469582E1,9.748055E0,1.4665673E0,1.2828312E1,3.9018168E0,1.3966913E1,3.3767807E1,3.487722E1,1.1914139E0,8.043354E1,9.3806725E1,7.966604E1,5.4404026E1,6.348496E1,3.4107602E0,1.1678935E1,5.0781315E1,1.7245043E1,2.2087605E0,4.849935E0,3.3873186E0,1.6227058E1,4.3824606E0,2.448885E1,5.0794987E1,4.4992558E1,6.2386185E1,2.1525402E0,8.747451E0,1.5267175E1,1.38043375E1,6.990554E0,9.707182E0,1.1214496E1,4.4167194E0,2.6585736E0,1.1598295E0,7.786398E0,1.5995364E2,3.3284985E1,5.3729143E0,2.2208208E1,7.366748E0,9.481505E0,6.045604E0,4.7064404E1,1.5626357E1,1.064084E2,2.210898E1,7.527325E1,1.04482925E2,1.2421619E1,4.032297E1,6.9400375E1,3.8907292E0],"tree_param":{"num_deleted":"0","num_feature":"50","num_nodes":"125","size_leaf_vector":"1"}},{"base_weights":[1.3401787E-3,4.6575505E-1,-3.2589495E-1,-3.507219E-2,6.05114E-1,-5.923841E-1,-1.1796552E-2,4.8232925E-1,-3.7110212E-1,1.1258115E0,4.6197003E-1,-2.620476E-1,-8.168541E-1,2.7155754E-1,-2.8709143E-1,7.291652E-1,-6.8445367E-1,6.721063E-1,-7.0412534E-1,-2.3640166E-3,1.1932312E0,6.620673E-1,6.24452E-2,4.765375E-1,-5.3022337E-1,4.2267323E-1,-8.808146E-1,5.5648856E-2,1.028056E0,5.531636E-1,-5.291072E-1,8.716773E-1,-5.869783E-1,7.328232E-1,-1.1911688E0,1.0269235E0,-8.346647E-1,1.6780211E-1,-8.933308E-1,-3.4750378E-1,5.341616E-1,1.4371834E0,9.0043956E-1,8.284629E-1,2.8015217E-1,4.7020358E-1,-5.153595E-1,8.1778556E-1,-5.4172015E-1,3.1357393E-1,-7.534847E-1,1.3896066E0,-3.1306106E-1,-5.9651387E-1,-1.0726343E0,5.560225E-1,-3.3451083E-1,1.2557206E0,-4.2809665E-1,1.006221E0,-4.682278E-1,9.287549E-2,-8.219049E-1,2.9619613E-1,-1.17639646E-1,-4.1636103E-1,1.6254333E-1,3.16111E-2,2.954282E-1,-4.6697367E-2,-4.5168537E-1,4.3017238E-1,8.2122624E-2,-3.7431037E-1,2.6981944E-2,3.4903145E-1,-2.01663E-1,2.9235935E-1,-3.0260375E-1,2.8055692E-1,-5.4454505E-2,4.3568024E-1,1.1284461E-1,4.133239E-1,1.3669956E-1,3.3916503E-1,1.9098364E-1,1.7909187E-1,-1.9039585E-1,2.1021964E-1,-8.876434E-2,2.0944849E-2,-2.7415985E-1,3.5401767E-1,-1.3487573E-1,-3.3436215E-1,5.3561576E-2,2.8319013E-1,-1.1842164E-1,-7.994565E-2,-3.219587E-1,4.676787E-1,6.899571E-2,2.0265454E-1,-3.7406653E-1,-3.0762574E-1,-5.5354442E-2,-2.3795713E-1,-4.1781276E-1,2.8613964E-1,-7.337073E-2,2.7574027E-1,-1.7010352E-1,4.0770304E-1,-2.2800997E-1,-3.6744136E-1,4.1852695E-1,4.2305687E-1,5.621403E-2,-3.0310196E-1,1.4693215E-1,2.5969675E-1,-1.7234716E-1,-1.008435E-1,-3.125227E-1],"categories":[1,3,4,5,6,8,9,10,11,12,14,15,16,17,28,30,31,33,38,40,43,46,57,59,60,61,62,70,72,74,75,0,1,2,3,4,5,6,9,10,11,14,15,16,17,18,20,21,22,23,26,28,30,31,33,34,35,37,40,41,42,43,44,46,47,49,50,51,52,53,55,56,58,59,60,62,64,65,67,68,69,70,71,72,73,74,75,76,77,81,82,83,2,4,6,7,9,12,13,14,15,16,18,20,22,23,27,28,2,5,7,11,12,13,14,16,17,22,23,24,27,29,0,1,2,3,4,5,7,8,10,47,51,52,58,0,1,4,5,6,7,8,10,11,12,15,17,18,19,20,23,24,27,28,29,1,3,5,7,8,9,12,13,16,18,19,20,21,22,24,25,27,28,32,33,36,37,38,40,41,43,44,49,56,58,1,2,3,5,6,7,8,10,12,14,15,17,18,19,20,21,22,23,25,26,27,29,30,31,32,33,34,35,40,45,46,47,48,50,51,53,54,55,56,57,58,0,1,2,3,4,5,6,7,8,9,10,11,12,13,14,15,18,19,20,21,22,23,24,25,26,27,28,29,31,32,33,34,35,36,37,38,39,40,41,42,43,44,45,46,48,49,50,51,52,53,54,55,56,57,58,59,60,61,62,63,64,65,66,67,68,69,70,71,72,73,74,75,76,77,79,80,2,3,5,7,8,9,11,12,13,14,16,17,18,19,20,21,22,23,25,26,27,28,29,31,32,33,36,37,41,42,43,44,45,46,47,48,49,50,51,52,53,54,56,2,18,23,0,1,2,3,4,5,6,42,53,0,1,2,3,4,5,6,7,8,9,10,11,12,13,14,15,16,18,19,20,21,22,23,24,25,27,28,29,30,31,32,33,34,35,36,37,38,39,40,41,43,44,45,46,47,48,49,50,51,52,54,55,56,4,5,6,9,10,11,13,15,16,18,23,24,25,26,28,0,2,6,9,12,15,18,19,25,27,1,2,6,7,9,12,13,14,15,20,22,25,29,0,1,8,15,20,24,26,0,1,2,3,4,5,6,7,10,12,13,14,15,16,17,18,19,20,21,22,23,24,25,26,27,28,29,30,31,32,34,35,36,39,40,41,42,43,44,45,48,49,50,51,52,53,54,55,56,57,58,61,62,63,64,65,66,68,69,70,71,72,73,75,76,77,78,80,81,0,1,2,3,4,5,6,7,8,9,12,16,17,18,19,20,21,25,27,29,31,33,34,35,36,37,38,39,41,43,44,45,46,47,49,50,52,54,56,57,58,0,14,23,27,0,1,2,3,5,7,8,10,11,12,14,17,19,0,2,3,7,11,17,28,33,36,39,41,42,43,46,48,54,61,67,70,74,80,0,25,28,0,1,0,1,2,3,4,5,0,3,4,5,6,0,1,2,3,4,5,6,7,8,9,10,11,12,13,14,15,16,18,19,20,23,25,26,27,28,29,30,32,33,34,36,37,38,41,42,43,44,45,46,47,49,50,53,55,56,57,0,1,3,5,7,8,9,12,13,14,15,16,18,19,20,21,22,23,26,34,46,47,50,0,2,17,22,25,28,29,0,1,4,6,10,12,13,15,22,27,28,0,1,2,3,4,5,6,7,8,9,10,11,12,13,15,16,17,18,19,20,23,24,25,26,27,28,29,31,32,33,34,36,37,38,39,40,41,42,43,44,45,46,49,51,52,53,55,56,57,58,2,6,8,9,10,11,14,15,19,20,21,22,23,26,29,0,3,6,10,13,15,18,24,25,27,29,3,8,9,10,13,14,17,19,20,21,23,24,26,29,0,1,2,3,4,5,6,9,10,11,12,13,14,15,16,17,18,19,21,22,23,24,25,26,27,29,30,31,32,33,34,35,36,37,38,39,40,41,43,44,45,46,47,48,49,50,51,52,53,54,55,56,57,58,59,61,62,63,64,65,68,69,70,71,72,73,74,75,76,77,78,79,80,0,1,5,6,8,10,11,12,13,14,15,16,17,23,26,0,1,3,5,6,7,9,12,13,15,18,19,20,22,23,27,29],"categories_nodes":[3,4,5,6,7,8,10,11,12,14,15,17,18,20,21,22,23,24,27,28,29,30,31,33,38,40,42,44,45,46,49,50,54,55,56,61,62],"categories_segments":[0,31,92,108,122,135,155,185,226,302,345,348,357,410,425,435,448,455,524,565,569,582,603,606,608,614,619,665,688,695,706,756,771,782,796,869,884],"categories_sizes":[31,61,16,14,13,20,30,41,76,43,3,9,53,15,10,13,7,69,41,4,13,21,3,2,6,5,46,23,7,11,50,15,11,14,73,15,17],"default_left":[0,0,0,0,0,1,1,1,1,1,1,1,0,0,1,1,0,1,1,0,1,1,1,1,0,0,0,1,1,1,0,1,0,1,0,1,0,0,1,0,1,0,1,0,1,1,1,0,0,1,1,0,0,0,1,1,0,1,0,0,0,1,1,0,0,0,0,0,0,0,0,0,0,0,0,0,0,0,0,0,0,0,0,0,0,0,0,0,0,0,0,0,0,0,0,0,0,0,0,0,0,0,0,0,0,0,0,0,0,0,0,0,0,0,0,0,0,0,0,0,0,0,0,0,0],"id":2,"left_children":[1,3,5,7,9,11,13,15,17,19,21,23,25,27,29,31,33,35,37,39,41,43,45,47,49,51,53,55,57,59,61,63,65,67,69,71,73,75,77,-1,79,81,83,85,87,89,91,93,95,97,99,101,103,105,107,109,111,113,115,117,119,121,123,-1,-1,-1,-1,-1,-1,-1,-1,-1,-1,-1,-1,-1,-1,-1,-1,-1,-1,-1,-1,-1,-1,-1,-1,-1,-1,-1,-1,-1,-1,-1,-1,-1,-1,-1,-1,-1,-1,-1,-1,-1,-1,-1,-1,-1,-1,-1,-1,-1,-1,-1,-1,-1,-1,-1,-1,-1,-1,-1,-1,-1,-1],"loss_changes":[2.490132E2,4.7293365E1,8.045221E1,2.5977335E1,3.8977203E1,3.8344986E1,3.4574295E1,1.745082E1,3.1922535E1,8.641113E0,3.3323036E1,4.2216667E1,2.4881638E1,3.5621212E1,4.6004753E1,9.714788E0,8.624272E0,1.2841831E1,1.1550789E1,5.209727E0,6.3605957E0,1.7432777E1,3.331545E1,2.0236027E1,2.9606213E1,1.1707353E1,1.5409683E1,3.3568405E1,1.6597328E1,2.3958422E1,3.1952576E1,6.9163895E0,5.6259813E0,4.434631E-1,2.4785624E0,5.3067265E0,1.9545865E0,1.1791797E1,1.3251705E1,0E0,1.8172063E0,3.625183E-1,1.0281109E1,1.0471817E1,2.5265663E1,1.4833826E1,1.3718576E1,2.0301983E1,6.3461924E0,1.525301E1,1.895472E1,1.0219364E0,9.902619E0,2.1160873E1,1.4501297E1,2.4210272E1,2.8707417E1,9.808357E0,1.2306052E1,1.1471256E1,8.948906E0,2.985364E1,1.2369514E1,0E0,0E0,0E0,0E0,0E0,0E0,0E0,0E0,0E0,0E0,0E0,0E0,0E0,0E0,0E0,0E0,0E0,0E0,0E0,0E0,0E0,0E0,0E0,0E0,0E0,0E0,0E0,0E0,0E0,0E0,0E0,0E0,0E0,0E0,0E0,0E0,0E0,0E0,0E0,0E0,0E0,0E0,0E0,0E0,0E0,0E0,0E0,0E0,0E0,0E0,0E0,0E0,0E0,0E0,0E0,0E0,0E0,0E0,0E0,0E0,0E0,0E0],"parents":[2147483647,0,0,1,1,2,2,3,3,4,4,5,5,6,6,7,7,8,8,9,9,10,10,11,11,12,12,13,13,14,14,15,15,16,16,17,17,18,18,19,19,20,20,21,21,22,22,23,23,24,24,25,25,26,26,27,27,28,28,29,29,30,30,31,31,32,32,33,33,34,34,35,35,36,36,37,37,38,38,40,40,41,41,42,42,43,43,44,44,45,45,46,46,47,47,48,48,49,49,50,50,51,51,52,52,53,53,54,54,55,55,56,56,57,57,58,58,59,59,60,60,61,61,62,62],"right_children":[2,4,6,8,10,12,14,16,18,20,22,24,26,28,30,32,34,36,38,40,42,44,46,48,50,52,54,56,58,60,62,64,66,68,70,72,74,76,78,-1,80,82,84,86,88,90,92,94,96,98,100,102,104,106,108,110,112,114,116,118,120,122,124,-1,-1,-1,-1,-1,-1,-1,-1,-1,-1,-1,-1,-1,-1,-1,-1,-1,-1,-1,-1,-1,-1,-1,-1,-1,-1,-1,-1,-1,-1,-1,-1,-1,-1,-1,-1,-1,-1,-1,-1,-1,-1,-1,-1,-1,-1,-1,-1,-1,-1,-1,-1,-1,-1,-1,-1,-1,-1,-1,-1,-1,-1],"split_conditions":[-2E0,1.7357579E2,1.9056886E2,NaN,NaN,NaN,NaN,NaN,NaN,9.311744E1,NaN,NaN,NaN,1.1836132E2,NaN,NaN,1.0645494E2,NaN,NaN,9.712871E1,NaN,NaN,NaN,NaN,NaN,-1.29E2,1.09015175E2,NaN,NaN,NaN,NaN,NaN,1.11668236E2,NaN,1.08098885E2,1.1204203E2,1.0012395E2,9.903615E1,NaN,-3.4750378E-1,NaN,1.0619297E2,NaN,1E0,NaN,NaN,NaN,2.8E2,1.1648785E2,NaN,NaN,1.0278777E2,2.24E2,4.132737E1,NaN,NaN,NaN,1.2627456E2,1.49E2,1.169602E2,1.568283E3,NaN,NaN,2.9619613E-1,-1.17639646E-1,-4.1636103E-1,1.6254333E-1,3.16111E-2,2.954282E-1,-4.6697367E-2,-4.5168537E-1,4.3017238E-1,8.2122624E-2,-3.7431037E-1,2.6981944E-2,3.4903145E-1,-2.01663E-1,2.9235935E-1,-3.0260375E-1,2.8055692E-1,-5.4454505E-2,4.3568024E-1,1.1284461E-1,4.133239E-1,1.3669956E-1,3.3916503E-1,1.9098364E-1,1.7909187E-1,-1.9039585E-1,2.1021964E-1,-8.876434E-2,2.0944849E-2,-2.7415985E-1,3.5401767E-1,-1.3487573E-1,-3.3436215E-1,5.3561576E-2,2.8319013E-1,-1.1842164E-1,-7.994565E-2,-3.219587E-1,4.676787E-1,6.899571E-2,2.0265454E-1,-3.7406653E-1,-3.0762574E-1,-5.5354442E-2,-2.3795713E-1,-4.1781276E-1,2.8613964E-1,-7.337073E-2,2.7574027E-1,-1.7010352E-1,4.0770304E-1,-2.2800997E-1,-3.6744136E-1,4.1852695E-1,4.2305687E-1,5.621403E-2,-3.0310196E-1,1.4693215E-1,2.5969675E-1,-1.7234716E-1,-1.008435E-1,-3.125227E-1],"split_indices":[25,47,47,0,0,37,36,48,36,10,48,48,0,13,48,37,6,48,48,24,37,37,37,36,0,34,16,48,37,37,0,36,17,49,16,17,9,9,49,0,49,20,48,31,48,36,36,33,13,48,36,7,26,47,36,37,0,1,33,4,46,37,37,0,0,0,0,0,0,0,0,0,0,0,0,0,0,0,0,0,0,0,0,0,0,0,0,0,0,0,0,0,0,0,0,0,0,0,0,0,0,0,0,0,0,0,0,0,0,0,0,0,0,0,0,0,0,0,0,0,0,0,0,0,0],"split_type":[0,0,0,1,1,1,1,1,1,0,1,1,1,0,1,1,0,1,1,0,1,1,1,1,1,0,0,1,1,1,1,1,0,1,0,0,0,0,1,0,1,0,1,0,1,1,1,0,0,1,1,0,0,0,1,1,1,0,0,0,0,1,1,0,0,0,0,0,0,0,0,0,0,0,0,0,0,0,0,0,0,0,0,0,0,0,0,0,0,0,0,0,0,0,0,0,0,0,0,0,0,0,0,0,0,0,0,0,0,0,0,0,0,0,0,0,0,0,0,0,0,0,0,0,0],"sum_hessian":[1.6365386E3,6.763019E2,9.602367E2,1.473837E2,5.2891815E2,5.190096E2,4.4122708E2,5.785941E1,8.952429E1,1.1257024E2,4.1634793E2,2.1086378E2,3.081458E2,2.174376E2,2.2378949E2,4.806599E1,9.79342E0,2.1416878E1,6.8107414E1,6.402258E0,1.0616798E2,2.7697244E2,1.3937549E2,5.596185E1,1.5490193E2,1.4845131E1,2.9330066E2,1.6999397E2,4.7443623E1,4.975598E1,1.7403351E2,4.3674603E1,4.391386E0,2.4617393E0,7.331681E0,1.7592602E1,3.8242764E0,1.2164073E1,5.594334E1,1.6621227E0,4.740135E0,5.5782112E1,5.0385864E1,1.9210532E2,8.486713E1,8.1820656E1,5.7554836E1,4.2062386E1,1.3899464E1,3.232559E1,1.2257635E2,6.0306535E0,8.814477E0,1.1982089E2,1.7347978E2,7.429136E1,9.5702614E1,4.1147926E1,6.2956953E0,3.4477627E1,1.5278352E1,5.5922195E1,1.1811131E2,4.021368E1,3.4609215E0,2.4345312E0,1.9568546E0,1.1115792E0,1.35016E0,2.0560215E0,5.2756596E0,1.0834395E1,6.758207E0,2.4018755E0,1.4224011E0,5.390218E0,6.773855E0,2.820572E0,5.312277E1,2.841298E0,1.898837E0,5.463665E1,1.1454618E0,2.329228E1,2.7093586E1,7.271533E1,1.19389984E2,6.3294155E1,2.1572975E1,6.2960136E1,1.8860518E1,2.3650597E1,3.390424E1,3.2765408E1,9.296977E0,7.437232E0,6.462232E0,1.692752E1,1.5398067E1,4.930543E1,7.327091E1,4.96181E0,1.0688436E0,4.416093E0,4.398384E0,5.7976486E1,6.1844406E1,9.44754E1,7.900438E1,4.950386E1,2.4787502E1,1.4510222E1,8.119239E1,3.945216E1,1.695767E0,4.609578E0,1.6861168E0,2.260397E1,1.1873659E1,9.722161E0,5.5561895E0,2.5776745E1,3.014545E1,3.7586975E1,8.052434E1],"tree_param":{"num_deleted":"0","num_feature":"50","num_nodes":"125","size_leaf_vector":"1"}},{"base_weights":[1.655069E-3,1.9586042E-1,-4.8499066E-1,5.349677E-1,4.0785886E-2,-9.3394554E-1,-2.891532E-1,7.498215E-1,2.1974054E-1,1.6048685E-1,-3.149391E-1,-4.2947417E-1,-1.1408014E0,-6.1149295E-2,-7.2167945E-1,1.2555443E0,5.735472E-1,5.940876E-1,-2.589487E-1,4.644244E-1,2.1871515E-2,-6.6718325E-2,-8.733434E-1,8.8240784E-1,-7.8984857E-1,-5.448665E-1,-1.2456344E0,9.952157E-2,-1.0033377E0,8.38049E-1,-8.7424E-1,1.2943258E0,6.0128605E-1,6.9934714E-1,-4.5385155E-1,1.323207E0,3.2785544E-1,5.303789E-1,-7.0457673E-1,7.511459E-1,-3.4831956E-1,2.658366E-1,-3.172548E-1,1.942111E-1,-7.995802E-1,-9.7288334E-1,3.647897E-1,-2.916543E-1,1.3999742E0,-1.9047521E-2,-1.0745083E0,-8.5248804E-1,6.075737E-1,1.0454329E-1,-1.2796625E0,2.9855192E-1,-6.5828276E-1,-1.3892076E0,2.1445836E-1,-4.4038484E-1,1.4368914E0,3.9432022E-1,-9.569743E-1,4.0621117E-1,2.3312639E-1,-1.2880118E-1,3.1447935E-1,5.3874098E-2,2.61239E-1,2.3856033E-1,-4.2533454E-1,4.0758643E-1,1.1482244E-1,-9.098716E-2,2.3370343E-1,2.873636E-1,-1.3468933E-1,3.1908512E-1,-2.618484E-1,3.029628E-1,-1.5394858E-3,1.0957791E-1,-2.255038E-1,1.5653044E-1,-1.6235918E-2,1.1870967E-2,-1.9172154E-1,1.7685738E-1,-1.1143648E-1,3.2436254E-3,-3.8680327E-1,-1.5188776E-1,-4.0683645E-1,5.047749E-1,-4.485493E-2,-3.132957E-1,1.8756765E-1,-3.7414652E-1,2.6050603E-2,-3.1354362E-1,2.1405585E-1,-2.5566315E-2,3.2874367E-1,-4.5353495E-2,-3.8781723E-1,1.5847705E-1,-1.4926489E-1,2.396988E-1,-3.045355E-1,-4.3683505E-1,-4.9419466E-2,-1.9763033E-1,3.8061044E-1,1.7456174E-1,-2.9743356E-1,1.1695215E-1,4.9297702E-1,3.15324E-1,-2.3050551E-1,1.1121656E-1,-3.0398628E-1],"categories":[0,1,6,8,12,17,18,19,22,23,26,1,3,9,11,31,33,34,35,39,40,42,46,48,53,60,61,71,72,74,0,1,5,6,7,9,10,12,13,14,15,16,18,19,20,21,22,25,27,28,10,13,17,22,23,26,27,31,34,35,38,46,48,50,52,53,56,0,1,2,3,4,5,6,7,8,9,10,11,12,13,14,15,16,17,18,19,20,24,25,26,27,28,29,31,32,33,34,35,36,37,38,39,40,41,43,44,45,47,48,49,50,51,52,53,55,56,58,1,2,3,4,5,7,8,11,12,13,14,16,18,19,20,21,22,24,25,27,28,29,32,33,34,36,37,41,43,44,45,49,51,54,57,1,2,3,5,6,7,9,12,13,14,15,16,17,18,19,20,21,23,25,27,0,5,8,9,10,11,13,16,26,28,0,1,2,3,4,5,6,7,8,10,11,12,13,14,15,16,17,18,19,20,21,22,23,25,27,28,29,30,31,32,33,34,35,36,37,38,39,40,41,43,44,45,47,49,50,51,52,53,54,55,58,0,1,6,7,32,34,41,43,44,48,61,75,0,1,2,4,5,6,7,9,10,11,12,13,14,15,16,17,18,22,23,24,27,28,3,9,17,37,68,72,74,75,1,2,4,5,6,8,9,10,11,12,13,14,15,16,17,18,19,20,21,22,23,24,25,26,27,28,29,30,32,34,35,37,38,39,41,42,43,44,45,46,47,49,50,51,52,53,54,55,56,57,58,59,60,61,62,64,65,67,68,69,70,71,72,73,76,77,78,80,81,82,83,0,2,3,6,10,11,14,17,20,21,22,24,26,27,29,0,1,2,3,4,5,7,8,13,18,19,20,25,27,28,31,37,42,46,56,58,0,3,9,14,15,21,23,24,26,30,31,32,34,36,38,39,40,47,53,55,56,57,58,1,12,15,20,21,22,23,24,1,2,4,5,6,7,8,9,10,11,12,13,14,15,16,17,18,19,20,21,22,23,24,25,26,27,29,30,31,32,33,34,35,36,37,38,39,40,41,42,43,45,46,47,48,49,50,51,52,53,54,55,56,57,58,59,60,61,62,63,64,65,66,67,68,69,70,71,72,73,74,75,76,77,78,79,80,81,82,83,11,14,21,24,0,1,3,4,1,6,7,9,17,21,28,29,0,2,3,6,7,8,9,10,11,12,13,16,17,18,19,20,21,22,24,25,27,28,4,5,6,7,8,12,15,17,20,22,24,25,27,29,3,4,5,6,7,9,10,11,12,15,16,17,22,24,27,0,2,3,5,6,7,8,11,12,16,18,19,20,21,23,24,25,26,27,28,29,31,33,34,35,36,38,39,40,41,42,43,44,45,48,49,55,0,3,6,11,12,13,14,16,17,18,22,25,27,29,2,3,5,7,19,21,24,29,1,2,3,4,5,6,7,8,9,10,11,12,13,14,15,16,17,18,19,20,22,23,25,26,27,28,29,30,31,32,33,34,35,36,38,39,40,41,42,43,44,45,46,47,48,49,50,51,52,53,54,55,58],"categories_nodes":[3,4,5,6,7,8,9,10,11,13,14,16,17,18,19,20,21,30,37,38,39,40,41,42,43,45,55,56],"categories_segments":[0,11,30,50,67,118,153,173,183,234,246,268,276,347,362,383,406,414,494,498,502,510,532,546,561,598,612,620],"categories_sizes":[11,19,20,17,51,35,20,10,51,12,22,8,71,15,21,23,8,80,4,4,8,22,14,15,37,14,8,53],"default_left":[0,0,0,1,1,1,1,1,1,1,1,1,1,1,1,1,1,0,1,1,1,1,0,1,0,0,0,0,0,1,0,1,0,0,0,0,0,1,1,1,1,1,1,1,0,1,0,0,0,0,0,1,1,0,0,1,1,0,0,0,0,0,1,0,0,0,0,0,0,0,0,0,0,0,0,0,0,0,0,0,0,0,0,0,0,0,0,0,0,0,0,0,0,0,0,0,0,0,0,0,0,0,0,0,0,0,0,0,0,0,0,0,0,0,0,0,0,0,0,0,0],"id":3,"left_children":[1,3,5,7,9,11,13,15,17,19,21,23,25,27,29,31,33,35,37,39,41,43,45,47,49,51,53,55,57,59,61,63,65,67,69,71,73,75,77,79,81,83,85,87,89,91,-1,-1,93,95,97,99,101,-1,103,105,107,109,111,113,115,117,119,-1,-1,-1,-1,-1,-1,-1,-1,-1,-1,-1,-1,-1,-1,-1,-1,-1,-1,-1,-1,-1,-1,-1,-1,-1,-1,-1,-1,-1,-1,-1,-1,-1,-1,-1,-1,-1,-1,-1,-1,-1,-1,-1,-1,-1,-1,-1,-1,-1,-1,-1,-1,-1,-1,-1,-1,-1,-1],"loss_changes":[1.4598073E2,5.8035564E1,3.84673E1,2.3293549E1,3.2354996E1,1.3427338E1,3.035175E1,1.7604652E1,2.5564323E1,2.3933136E1,2.6464497E1,1.9790848E1,5.1925583E0,3.0818317E1,2.6026966E1,5.484848E-1,2.0256233E1,1.5071608E1,2.2507444E1,4.1731052E1,3.2463295E1,2.5693436E1,1.3411907E1,1.0168701E1,7.047247E0,6.132299E0,4.739006E0,2.648055E1,1.4232082E1,8.274496E0,1.0591217E1,4.4558716E-1,2.6583288E0,1.2126541E1,2.2119612E1,1.8061447E-1,1.7275887E1,1.0175341E1,1.3021301E1,2.580751E1,1.3828767E1,1.8711372E1,1.88807E1,2.2421713E1,1.4008776E1,9.449184E0,0E0,0E0,3.572464E0,7.063976E0,4.821291E0,4.642578E0,1.4194967E0,0E0,9.4989014E-1,2.5627773E1,1.9823208E1,1.6159439E0,8.201659E0,2.801745E0,8.788519E-1,5.8981724E0,7.228134E0,0E0,0E0,0E0,0E0,0E0,0E0,0E0,0E0,0E0,0E0,0E0,0E0,0E0,0E0,0E0,0E0,0E0,0E0,0E0,0E0,0E0,0E0,0E0,0E0,0E0,0E0,0E0,0E0,0E0,0E0,0E0,0E0,0E0,0E0,0E0,0E0,0E0,0E0,0E0,0E0,0E0,0E0,0E0,0E0,0E0,0E0,0E0,0E0,0E0,0E0,0E0,0E0,0E0,0E0,0E0,0E0,0E0,0E0],"parents":[2147483647,0,0,1,1,2,2,3,3,4,4,5,5,6,6,7,7,8,8,9,9,10,10,11,11,12,12,13,13,14,14,15,15,16,16,17,17,18,18,19,19,20,20,21,21,22,22,23,23,24,24,25,25,26,26,27,27,28,28,29,29,30,30,31,31,32,32,33,33,34,34,35,35,36,36,37,37,38,38,39,39,40,40,41,41,42,42,43,43,44,44,45,45,48,48,49,49,50,50,51,51,52,52,54,54,55,55,56,56,57,57,58,58,59,59,60,60,61,61,62,62],"right_children":[2,4,6,8,10,12,14,16,18,20,22,24,26,28,30,32,34,36,38,40,42,44,46,48,50,52,54,56,58,60,62,64,66,68,70,72,74,76,78,80,82,84,86,88,90,92,-1,-1,94,96,98,100,102,-1,104,106,108,110,112,114,116,118,120,-1,-1,-1,-1,-1,-1,-1,-1,-1,-1,-1,-1,-1,-1,-1,-1,-1,-1,-1,-1,-1,-1,-1,-1,-1,-1,-1,-1,-1,-1,-1,-1,-1,-1,-1,-1,-1,-1,-1,-1,-1,-1,-1,-1,-1,-1,-1,-1,-1,-1,-1,-1,-1,-1,-1,-1,-1,-1],"split_conditions":[1.61E2,-2.29E2,5.596872E1,NaN,NaN,NaN,NaN,NaN,NaN,NaN,NaN,NaN,1.05219124E2,NaN,NaN,1.2042844E2,NaN,NaN,NaN,NaN,NaN,NaN,1.03035675E2,9.928034E1,1.106922E2,1.49466E3,-1.3E1,2E0,1.1343964E2,1.1497947E2,NaN,1.027405E2,1.13326454E2,2.32597E2,2.235E2,9E0,2.935054E2,NaN,NaN,NaN,NaN,NaN,NaN,NaN,1.092994E2,NaN,3.647897E-1,-2.916543E-1,2.335E2,1.0992779E2,1.1101722E2,1.0355283E2,1.0491727E2,1.0454329E-1,9.7031296E1,NaN,NaN,2.3E2,1E0,9.626696E1,9.806523E1,1.126494E2,9.9457954E1,4.0621117E-1,2.3312639E-1,-1.2880118E-1,3.1447935E-1,5.3874098E-2,2.61239E-1,2.3856033E-1,-4.2533454E-1,4.0758643E-1,1.1482244E-1,-9.098716E-2,2.3370343E-1,2.873636E-1,-1.3468933E-1,3.1908512E-1,-2.618484E-1,3.029628E-1,-1.5394858E-3,1.0957791E-1,-2.255038E-1,1.5653044E-1,-1.6235918E-2,1.1870967E-2,-1.9172154E-1,1.7685738E-1,-1.1143648E-1,3.2436254E-3,-3.8680327E-1,-1.5188776E-1,-4.0683645E-1,5.047749E-1,-4.485493E-2,-3.132957E-1,1.8756765E-1,-3.7414652E-1,2.6050603E-2,-3.1354362E-1,2.1405585E-1,-2.5566315E-2,3.2874367E-1,-4.5353495E-2,-3.8781723E-1,1.5847705E-1,-1.4926489E-1,2.396988E-1,-3.045355E-1,-4.3683505E-1,-4.9419466E-2,-1.9763033E-1,3.8061044E-1,1.7456174E-1,-2.9743356E-1,1.1695215E-1,4.9297702E-1,3.15324E-1,-2.3050551E-1,1.1121656E-1,-3.0398628E-1],"split_indices":[27,27,47,36,0,37,48,48,48,37,36,48,5,0,37,14,0,0,37,48,48,37,9,11,2,46,31,31,15,5,0,19,17,47,26,38,47,48,49,36,36,36,36,48,2,37,0,0,26,3,18,22,13,0,17,37,48,26,35,20,23,1,4,0,0,0,0,0,0,0,0,0,0,0,0,0,0,0,0,0,0,0,0,0,0,0,0,0,0,0,0,0,0,0,0,0,0,0,0,0,0,0,0,0,0,0,0,0,0,0,0,0,0,0,0,0,0,0,0,0,0],"split_type":[0,0,0,1,1,1,1,1,1,1,1,1,0,1,1,0,1,1,1,1,1,1,0,0,0,0,0,0,0,0,1,0,0,0,0,0,0,1,1,1,1,1,1,1,0,1,0,0,0,0,0,0,0,0,0,1,1,0,0,0,0,0,0,0,0,0,0,0,0,0,0,0,0,0,0,0,0,0,0,0,0,0,0,0,0,0,0,0,0,0,0,0,0,0,0,0,0,0,0,0,0,0,0,0,0,0,0,0,0,0,0,0,0,0,0,0,0,0,0,0,0],"sum_hessian":[1.5426141E3,1.1030273E3,4.395868E2,3.4536185E2,7.576655E2,1.3236734E2,3.0721945E2,2.0455904E2,1.4080281E2,5.6731396E2,1.9035152E2,3.9387356E1,9.297999E1,2.0191985E2,1.0529959E2,5.1289417E1,1.5326962E2,7.8877525E1,6.1925285E1,1.7695651E2,3.9035748E2,1.325501E2,5.780143E1,8.175876E0,3.121148E1,1.4836682E1,7.814331E1,1.7326709E2,2.8652763E1,8.98159E0,9.6318E1,4.7495773E1,3.793643E0,1.3683424E2,1.6435383E1,2.0035896E1,5.884163E1,2.2276827E1,3.964846E1,1.3086534E2,4.609116E1,2.2715785E2,1.6319965E2,9.828981E1,3.4260277E1,5.5682907E1,2.118523E0,1.5921993E0,6.583677E0,8.705543E0,2.2505938E1,1.1916167E1,2.920514E0,1.4400563E0,7.6703255E1,1.3770592E2,3.5561165E1,2.1651525E1,7.001238E0,2.9494944E0,6.032096E0,5.6665792E0,9.065142E1,4.112981E1,6.365966E0,1.1595261E0,2.6341171E0,3.4448242E1,1.02385994E2,7.2351623E0,9.20022E0,1.888031E1,1.1555865E0,2.4664669E1,3.417696E1,1.5522788E1,6.754039E0,2.9825459E0,3.6665913E1,9.725732E1,3.360803E1,1.6678993E1,2.9412167E1,1.2585573E2,1.01302124E2,7.780639E1,8.539326E1,5.783198E1,4.0457832E1,1.32740965E1,2.0986181E1,2.6157429E1,2.9525478E1,5.4954734E0,1.0882035E0,3.1198332E0,5.5857096E0,1.9528864E1,2.9770744E0,1.090695E1,1.0092173E0,1.5485805E0,1.3719337E0,1.0215057E0,7.568175E1,1.07131065E2,3.0574856E1,6.751134E0,2.8810032E1,2.0350344E1,1.301182E0,4.0345554E0,2.9666822E0,1.0134871E0,1.9360073E0,1.468802E0,4.563294E0,3.682449E0,1.9841301E0,3.4612935E0,8.7190125E1],"tree_param":{"num_deleted":"0","num_feature":"50","num_nodes":"121","size_leaf_vector":"1"}},{"base_weights":[8.776813E-4,-2.9428023E-1,2.2207184E-1,-8.1543255E-1,-1.8661256E-1,6.314086E-1,1.1503187E-1,-3.5218637E-2,-1.0834199E0,1.929973E-1,-3.7438786E-1,7.1516925E-1,-3.3567187E-1,4.6661583E-1,1.2603964E-2,7.0239425E-1,-6.373212E-1,-5.977322E-1,-1.2484779E0,6.6563016E-1,-8.533926E-2,-1.401616E-1,-6.118217E-1,9.483852E-1,3.3514783E-1,5.7067984E-1,-9.850992E-1,9.689551E-1,2.1036491E-1,2.2341403E-1,-1.8144147E-1,1.2750198E0,-8.624811E-1,2.6511103E-1,-8.278649E-1,3.5422805E-1,-8.264823E-1,-5.0956573E-2,-3.7931982E-1,8.882769E-1,-5.6060547E-1,3.1691745E-1,-6.3079256E-1,3.081038E-1,-4.4247317E-1,-3.2255867E-1,-8.806396E-1,1.1479241E0,3.9609557E-1,6.503186E-1,-4.4378307E-1,3.060024E-1,-1.5986758E-1,2.5572824E-1,-1.483477E0,1.4407462E0,4.8814455E-1,5.6061447E-1,-4.4374356E-1,5.170495E-1,-1.052656E-1,2.1203236E-1,-4.3395972E-1,-1.09470405E-1,4.6320495E-1,-7.021366E-2,-2.9898658E-1,8.640342E-2,-3.1401476E-1,2.5783E-1,-2.0894362E-1,-3.0990794E-1,1.8546684E-1,3.2476702E-1,-4.6338864E-2,-3.0925295E-1,3.127182E-1,1.7338845E-1,-2.0434712E-1,1.17042325E-1,-2.558913E-1,2.1772574E-1,-1.6350523E-1,4.0112683E-3,-2.5063133E-1,1.6417018E-1,-1.6730958E-1,-1.35763E-1,-3.5252202E-1,3.5182285E-1,2.5474632E-2,-4.8471857E-2,2.6199436E-1,2.4341814E-1,-1.2456637E-1,1.20522276E-1,-2.9325253E-1,-5.631947E-1,3.375934E-2,1.06988914E-1,4.4461384E-1,-4.6762478E-1,2.1231286E-1,-3.5383666E-1,2.1195742E-1,1.9747948E-2,-3.4250483E-1,2.6364762E-1,2.0618666E-2,-1.2884578E-1,1.4420941E-1,1.8184394E-1,-1.04685254E-1,-2.1907672E-1,3.628014E-2],"categories":[0,1,2,3,6,7,9,10,11,12,13,14,15,16,18,19,20,22,23,24,25,27,28,0,4,5,6,7,8,10,12,14,15,18,19,20,22,23,26,27,28,29,31,32,34,35,39,40,41,42,43,44,45,46,48,49,50,52,53,55,56,58,59,60,61,62,63,64,65,68,69,70,71,72,73,75,76,77,80,81,83,11,33,44,56,67,74,75,1,4,8,9,10,11,12,13,14,15,16,21,22,23,24,25,28,30,31,32,33,34,35,37,38,39,40,41,42,43,45,46,47,48,49,50,52,53,54,55,57,58,60,61,64,65,67,69,70,71,72,73,74,76,77,78,79,80,81,82,0,6,10,11,13,15,21,28,30,34,35,37,38,39,40,42,45,46,47,48,50,51,53,54,55,57,58,1,3,4,6,7,8,9,11,12,16,18,19,20,21,22,24,25,26,4,5,6,7,9,13,14,15,16,17,18,21,22,27,28,2,4,7,9,10,12,14,15,16,22,23,24,25,29,0,1,2,3,4,5,6,7,8,9,10,11,12,13,14,15,16,17,18,19,20,21,22,23,24,25,26,0,1,2,4,7,9,10,11,12,13,14,16,17,20,21,22,27,28,29,2,3,5,6,7,8,9,11,13,14,16,21,22,23,26,27,28,32,34,36,42,48,50,56,57,58,0,1,2,3,4,5,6,7,8,9,10,11,12,13,14,15,16,18,19,20,21,22,23,24,25,26,27,28,29,30,31,32,33,34,35,36,37,38,39,40,41,42,43,44,45,46,47,48,49,50,51,52,53,54,55,56,58,0,1,2,3,4,5,6,7,8,9,10,11,12,13,14,15,16,17,18,22,25,28,0,1,3,4,5,6,17,37,48,58,1,2,3,7,12,15,16,18,20,21,22,23,25,0,1,2,3,6,8,9,11,14,15,19,22,23,25,26,27,28,29,2,4,9,10,14,22,24,26,35,36,37,40,47,48,51,52,54,55,56,58,0,1,8,10,11,17,19,20,21,22,25,26,27,2,9,24,32,37,51,54,0,1,2,3,4,5,6,7,8,9,10,12,14,16,18,19,20,21,25,26,27,29,31,33,34,35,36,37,38,39,41,42,43,44,45,46,48,49,50,52,55,56,57,0,1,6,11,13,14,18,23,25,27,0,1,2,3,5,6,9,12,14,15,16,18,21,28,0,1,2,3,4,5,6,7,8,9,10,11,12,13,14,15,16,17,18,19,20,21,22,23,24,25,26,27,28,29,30,31,32,33,34,35,36,37,38,39,40,41,42,43,44,45,46,47,48,49,50,51,52,53,54,55,56,57,58,59,60,6,8,10,11,13,14,23,25,27,28,21,35,47,50,54,0,1,3,4,5,6,7,8,12,13,16,17,18,19,20,24,25,27,29,30,31,32,34,35,40,47,53,58,4,6,10,15,21,22,23,26,34,37,42,46,48,51,53,54,58,0,2,3,4,5,6,8,9,10,11,13,14,15,16,18,20,21,22,24,25,27,29,0,1,3,4,5,6,8,10,11,13,14,15,17,18,23,26,28,3,21,27,28,0,1,2,3,4,5,6,12,14,16,22,0,3,7,36,44,63,68,0,5,6,11,12,13,15,16,17,19,21,23,24,2,5,7,9,10,14,21,22,23,24,27,28],"categories_nodes":[3,4,5,6,8,9,10,11,12,13,14,16,17,19,20,21,22,23,24,27,28,29,32,39,41,43,44,45,46,49,50,58,59,61],"categories_segments":[0,23,81,88,148,175,193,208,222,249,268,294,351,373,383,396,414,434,447,454,497,507,521,582,592,597,625,642,664,681,685,696,703,716],"categories_sizes":[23,58,7,60,27,18,15,14,27,19,26,57,22,10,13,18,20,13,7,43,10,14,61,10,5,28,17,22,17,4,11,7,13,12],"default_left":[0,0,0,1,0,1,0,0,1,1,1,1,1,1,1,0,1,1,0,1,1,1,1,1,1,1,0,1,1,1,0,0,1,0,0,0,0,0,0,1,0,1,0,1,1,1,1,0,0,1,1,0,0,0,0,0,0,1,1,1,0,1,0,0,0,0,0,0,0,0,0,0,0,0,0,0,0,0,0,0,0,0,0,0,0,0,0,0,0,0,0,0,0,0,0,0,0,0,0,0,0,0,0,0,0,0,0,0,0,0,0,0,0,0,0],"id":4,"left_children":[1,3,5,7,9,11,13,15,17,19,21,23,25,27,29,31,33,35,37,39,41,43,45,47,49,51,53,55,57,59,61,63,65,-1,67,69,71,-1,-1,73,75,77,79,81,83,85,87,89,91,93,95,-1,-1,-1,97,99,101,103,105,107,109,111,113,-1,-1,-1,-1,-1,-1,-1,-1,-1,-1,-1,-1,-1,-1,-1,-1,-1,-1,-1,-1,-1,-1,-1,-1,-1,-1,-1,-1,-1,-1,-1,-1,-1,-1,-1,-1,-1,-1,-1,-1,-1,-1,-1,-1,-1,-1,-1,-1,-1,-1,-1,-1],"loss_changes":[9.57325E1,3.5093822E1,3.665266E1,2.2387573E1,3.7273254E1,1.4296135E1,2.39658E1,1.3085012E1,5.6510773E0,2.2864916E1,1.9351692E1,1.3863586E1,9.10402E0,1.9124058E1,2.1169239E1,1.2985467E1,5.4240446E0,5.118228E0,7.9228973E-1,1.807319E1,2.4336237E1,2.4155315E1,1.3189262E1,1.0412773E1,1.56075115E1,3.861331E0,9.342696E0,1.0739258E1,2.3320644E1,2.3990238E1,2.68694E1,5.0251293E0,1.1657524E-1,0E0,3.9413443E0,3.2490518E0,6.0593843E0,0E0,0E0,1.1282696E1,8.993338E0,1.706274E1,1.0999643E1,2.604143E1,1.9046282E1,1.7697649E1,1.0715416E1,1.7976913E0,7.5126815E0,8.031218E0,8.772697E0,0E0,0E0,0E0,4.802288E0,5.8846664E-1,1.3010698E1,1.75976E1,1.2763775E1,2.1212074E1,2.2596165E1,2.3651508E1,2.7131079E1,0E0,0E0,0E0,0E0,0E0,0E0,0E0,0E0,0E0,0E0,0E0,0E0,0E0,0E0,0E0,0E0,0E0,0E0,0E0,0E0,0E0,0E0,0E0,0E0,0E0,0E0,0E0,0E0,0E0,0E0,0E0,0E0,0E0,0E0,0E0,0E0,0E0,0E0,0E0,0E0,0E0,0E0,0E0,0E0,0E0,0E0,0E0,0E0,0E0,0E0,0E0,0E0],"parents":[2147483647,0,0,1,1,2,2,3,3,4,4,5,5,6,6,7,7,8,8,9,9,10,10,11,11,12,12,13,13,14,14,15,15,16,16,17,17,18,18,19,19,20,20,21,21,22,22,23,23,24,24,25,25,26,26,27,27,28,28,29,29,30,30,31,31,32,32,34,34,35,35,36,36,39,39,40,40,41,41,42,42,43,43,44,44,45,45,46,46,47,47,48,48,49,49,50,50,54,54,55,55,56,56,57,57,58,58,59,59,60,60,61,61,62,62],"right_children":[2,4,6,8,10,12,14,16,18,20,22,24,26,28,30,32,34,36,38,40,42,44,46,48,50,52,54,56,58,60,62,64,66,-1,68,70,72,-1,-1,74,76,78,80,82,84,86,88,90,92,94,96,-1,-1,-1,98,100,102,104,106,108,110,112,114,-1,-1,-1,-1,-1,-1,-1,-1,-1,-1,-1,-1,-1,-1,-1,-1,-1,-1,-1,-1,-1,-1,-1,-1,-1,-1,-1,-1,-1,-1,-1,-1,-1,-1,-1,-1,-1,-1,-1,-1,-1,-1,-1,-1,-1,-1,-1,-1,-1,-1,-1,-1],"split_conditions":[1.9849637E2,-5.597414E-1,-7E0,NaN,NaN,NaN,NaN,1.93E2,NaN,NaN,NaN,NaN,NaN,NaN,NaN,1.04797775E2,NaN,NaN,9.569665E1,NaN,NaN,NaN,NaN,NaN,NaN,1.194E2,1.1112355E2,NaN,NaN,NaN,1E0,3.2884636E1,NaN,2.6511103E-1,1.0474278E2,1.8063333E0,1.16653114E2,-5.0956573E-2,-3.7931982E-1,NaN,1.0217406E2,NaN,3.930258E1,NaN,NaN,NaN,NaN,4.91645E1,3.400953E2,NaN,NaN,3.060024E-1,-1.5986758E-1,2.5572824E-1,1.1322991E2,-7.05E2,-2.47E2,9.45885E1,NaN,NaN,9.965562E1,NaN,4.041136E2,-1.09470405E-1,4.6320495E-1,-7.021366E-2,-2.9898658E-1,8.640342E-2,-3.1401476E-1,2.5783E-1,-2.0894362E-1,-3.0990794E-1,1.8546684E-1,3.2476702E-1,-4.6338864E-2,-3.0925295E-1,3.127182E-1,1.7338845E-1,-2.0434712E-1,1.17042325E-1,-2.558913E-1,2.1772574E-1,-1.6350523E-1,4.0112683E-3,-2.5063133E-1,1.6417018E-1,-1.6730958E-1,-1.35763E-1,-3.5252202E-1,3.5182285E-1,2.5474632E-2,-4.8471857E-2,2.6199436E-1,2.4341814E-1,-1.2456637E-1,1.20522276E-1,-2.9325253E-1,-5.631947E-1,3.375934E-2,1.06988914E-1,4.4461384E-1,-4.6762478E-1,2.1231286E-1,-3.5383666E-1,2.1195742E-1,1.9747948E-2,-3.4250483E-1,2.6364762E-1,2.0618666E-2,-1.2884578E-1,1.4420941E-1,1.8184394E-1,-1.04685254E-1,-2.1907672E-1,3.628014E-2],"split_indices":[47,47,25,37,0,0,0,33,48,36,37,37,48,36,48,11,48,37,9,48,37,36,48,36,48,29,17,48,37,37,31,44,0,0,1,40,3,0,0,37,8,48,42,48,48,36,36,44,47,0,36,0,0,0,14,33,27,11,0,36,20,36,47,0,0,0,0,0,0,0,0,0,0,0,0,0,0,0,0,0,0,0,0,0,0,0,0,0,0,0,0,0,0,0,0,0,0,0,0,0,0,0,0,0,0,0,0,0,0,0,0,0,0,0,0],"split_type":[0,0,0,1,1,1,1,0,1,1,1,1,1,1,1,0,1,1,0,1,1,1,1,1,1,0,0,1,1,1,0,0,1,0,0,0,0,0,0,1,0,1,0,1,1,1,1,0,0,1,1,0,0,0,0,0,0,0,1,1,0,1,0,0,0,0,0,0,0,0,0,0,0,0,0,0,0,0,0,0,0,0,0,0,0,0,0,0,0,0,0,0,0,0,0,0,0,0,0,0,0,0,0,0,0,0,0,0,0,0,0,0,0,0,0],"sum_hessian":[1.4643275E3,6.2714496E2,8.371825E2,1.0625532E2,5.2088965E2,1.725245E2,6.64658E2,2.7454927E1,7.880039E1,1.7237846E2,3.485112E2,1.590126E2,1.3511902E1,1.4914883E2,5.1550916E2,1.226409E1,1.5190839E1,2.115945E1,5.7640938E1,6.3373997E1,1.0900446E2,1.7624121E2,1.7226999E2,9.761283E1,6.1399773E1,5.6908765E0,7.821026E0,4.9442795E1,9.970603E1,2.470087E2,2.6850046E2,9.114207E0,3.1498818E0,1.2861654E0,1.3904674E1,3.9931457E0,1.7166304E1,1.0081826E0,5.6632755E1,5.3868706E1,9.505293E0,6.2978527E1,4.602594E1,7.097735E1,1.0526386E2,8.403913E1,8.823085E1,7.0913666E1,2.6699167E1,4.3830288E1,1.7569485E1,4.0980453E0,1.5928311E0,1.5170892E0,6.3039365E0,2.3947765E1,2.5495031E1,6.5028656E1,3.4677376E1,1.3015651E2,1.1685218E2,1.05019485E2,1.6348099E2,1.2340956E0,7.8801117E0,1.0368981E0,2.1129837E0,2.2280884E0,1.1676585E1,2.819503E0,1.1736426E0,1.5268394E1,1.8979098E0,4.537618E1,8.492527E0,7.625339E0,1.8799541E0,5.0255295E1,1.2723233E1,8.090991E0,3.7934948E1,4.775031E1,2.3227041E1,4.9180183E1,5.608368E1,1.7601856E1,6.643728E1,3.698824E1,5.124261E1,6.919489E1,1.7187665E0,1.2616826E1,1.408234E1,3.828183E1,5.548459E0,6.8945217E0,1.0674964E1,4.9148645E0,1.3890721E0,1.2324066E0,2.2715359E1,1.8789797E0,2.361605E1,4.4829755E0,6.054568E1,2.0566977E1,1.4110401E1,7.149931E1,5.86572E1,7.539971E1,4.1452473E1,6.1636658E1,4.3382828E1,1.0636783E2,5.711316E1],"tree_param":{"num_deleted":"0","num_feature":"50","num_nodes":"115","size_leaf_vector":"1"}},{"base_weights":[-5.722271E-5,1.612337E-1,-2.8415877E-1,-4.3293275E-2,2.9592797E-1,-8.293856E-1,-2.0467304E-1,4.0805963E-1,-1.6892281E-1,6.141262E-1,1.5282744E-1,-5.636052E-2,-1.0322121E0,4.3890786E-1,-2.7393922E-1,7.569941E-1,-3.693179E-1,1.5155034E-1,-3.3348364E-1,8.057388E-1,-1.3422388E-1,2.6262698E-1,-3.702672E-1,3.3760476E-1,-7.937251E-1,-1.0733799E0,-7.386442E-3,6.765507E-1,-4.3997404E-1,-1.3601407E-1,-6.178193E-1,1.0641387E0,2.0367064E-1,7.5970745E-1,-6.5108377E-1,3.8773102E-1,-3.8299727E-1,-1.6134478E-2,-5.624425E-1,9.844245E-1,4.9130872E-1,8.383907E-1,-7.6848114E-1,4.4319767E-1,-2.4314074E-2,-1.9636432E-2,-1.1357905E0,8.2697815E-1,-3.71793E-1,-3.1582385E-1,3.0689767E-2,-1.3088986E-2,-1.1094291E0,8.0086917E-1,-5.1708204E-1,4.54357E-1,-1.0576332E0,3.1518272E-1,-2.873154E-1,-2.021595E-1,-9.0984976E-1,3.4082216E-1,-9.154576E-2,-9.0744294E-2,2.6604423E-1,3.3457175E-1,-7.449246E-2,2.0650417E-2,-3.172429E-1,2.116761E-1,-1.0609376E-1,2.678214E-1,-2.3467493E-1,1.0243029E-1,-1.8197568E-1,-3.165057E-2,-2.6229575E-1,3.5401404E-1,1.6768897E-1,-1.0962441E-1,2.0651929E-1,3.059357E-1,-6.380056E-2,-2.9729587E-1,2.869795E-1,3.700976E-1,1.0147214E-1,4.6257295E-2,-2.36635E-1,1.2953818E-1,-2.0918258E-1,2.594887E-1,-3.9941534E-1,3.3378473E-1,-9.6479826E-2,2.1718407E-1,-2.7853295E-1,-1.2694412E-1,-3.4388787E-1,4.4611547E-2,3.0450332E-1,1.518516E-1,-3.1693184E-1,3.163867E-1,-1.055672E-1,-3.5154596E-1,-7.4445754E-2,1.8950239E-1,-1.9658343E-1,-2.0512886E-2,-1.9190049E-1,1.6985928E-1,-1.6533439E-1,-3.8660567E-2,-3.331416E-1],"categories":[1,2,4,5,6,9,10,12,13,14,15,16,18,20,22,23,26,27,28,31,32,33,35,37,38,39,40,41,42,43,45,46,48,49,50,52,53,55,56,57,58,59,60,61,62,63,64,65,66,67,68,69,70,71,72,73,74,75,76,77,80,81,83,0,1,3,4,5,9,10,11,12,14,15,16,17,18,21,22,23,24,30,33,34,35,37,38,39,41,42,43,44,45,46,47,49,50,51,52,53,54,55,58,60,64,65,68,69,71,72,73,74,75,76,77,78,81,82,83,0,1,2,3,5,6,7,9,10,12,13,14,15,16,18,22,23,24,25,26,27,28,2,3,4,5,6,7,8,9,10,11,12,13,15,17,18,19,20,21,22,23,24,25,26,27,28,29,30,31,32,33,34,35,36,37,38,41,42,43,44,46,47,48,50,51,52,53,54,55,56,57,58,3,5,6,8,11,12,15,17,22,28,29,1,3,4,5,7,8,9,10,11,12,13,14,18,19,21,24,25,27,29,30,31,32,33,34,35,36,37,39,41,42,43,44,45,46,47,48,49,51,53,56,57,58,6,9,11,12,14,19,23,5,6,13,14,16,24,26,32,36,38,50,56,0,3,4,5,14,16,19,6,7,8,19,27,28,32,34,36,40,41,43,46,48,51,54,56,59,61,63,67,79,80,0,1,3,4,5,6,7,8,9,11,12,13,16,17,18,19,20,21,23,25,26,27,28,29,30,32,33,34,36,38,39,40,41,43,44,45,49,51,55,56,57,0,1,2,3,4,5,6,7,8,10,12,13,14,15,16,18,19,21,22,23,24,25,26,27,28,29,0,2,3,4,5,6,7,8,9,10,11,12,14,15,16,17,18,19,20,21,22,23,24,25,26,27,29,30,32,33,34,35,36,38,39,40,41,43,44,45,46,47,48,49,50,51,52,53,54,55,57,58,63,67,75,1,2,3,4,5,7,8,12,14,16,18,19,20,25,27,28,29,30,31,33,36,37,39,40,41,43,44,45,46,47,48,49,55,57,1,2,3,4,5,6,9,10,11,12,14,15,16,22,1,2,3,4,7,15,20,22,25,27,29,0,10,12,13,15,23,24,25,29,0,1,4,6,7,8,12,13,14,15,16,18,19,20,22,27,29,1,0,3,5,7,9,22,24,29,0,1,2,3,4,5,6,7,8,9,11,12,13,14,15,16,18,20,21,22,23,25,26,27,29,0,6,8,12,15,17,18,20,21,23,27,28,0,2,3,4,6,7,8,9,10,11,12,13,14,16,17,20,24,25,0,1,3,4,5,6,9,10,11,12,14,15,16,17,18,19,21,22,23,24,26,28,29,30,33,34,35,37,38,39,41,42,43,44,45,46,47,48,49,50,51,52,53,54,55,57,58,60,62,64,65,66,68,69,71,72,73,74,75,76,77,78,79,80,81,82,83,1,2,5,6,7,8,9,10,11,12,13,14,15,16,17,18,19,20,22,23,25,26,27,28,0,3,9,18,42,43,51,68,0,2,5,11,13,14,28,2,4,8,9,10,17,18,20,21,28,29,2,4,9,10,11,17,23,29,30,31,34,42,46,50,52,53,56,0,1,2,3,4,5,6,7,8,9,10,12,13,14,15,16,18,19,20,21,22,24,25,26,27,29,30,31,32,33,35,36,38,39,40,41,42,43,44,45,48,49,50,51,52,53,54,55,56,57,58,9,11,13,15,17,21,22,24,26,28,34,36,37,42,46,47,48,50,54,55,56,58],"categories_nodes":[3,4,5,6,7,8,9,10,13,14,15,16,17,19,20,21,22,30,31,35,36,37,38,39,43,44,45,57,58,59,60],"categories_segments":[0,63,119,141,192,203,245,252,264,271,294,335,361,416,450,464,475,484,501,502,510,535,547,565,632,656,664,671,682,699,750],"categories_sizes":[63,56,22,51,11,42,7,12,7,23,41,26,55,34,14,11,9,17,1,8,25,12,18,67,24,8,7,11,17,51,22],"default_left":[0,0,0,0,0,1,1,1,1,1,1,0,1,1,1,1,1,1,1,1,1,1,1,0,0,0,0,0,0,1,1,1,0,0,0,1,1,1,1,0,0,1,0,1,1,1,0,0,0,0,0,0,0,0,0,0,0,1,1,1,1,0,0,0,0,0,0,0,0,0,0,0,0,0,0,0,0,0,0,0,0,0,0,0,0,0,0,0,0,0,0,0,0,0,0,0,0,0,0,0,0,0,0,0,0,0,0,0,0,0,0,0,0,0,0],"id":5,"left_children":[1,3,5,7,9,11,13,15,17,19,21,23,25,27,29,31,33,35,37,39,41,43,45,47,49,51,-1,53,55,57,59,61,63,65,67,69,71,73,75,77,79,81,83,85,87,89,91,93,95,-1,-1,-1,97,99,101,103,105,107,109,111,113,-1,-1,-1,-1,-1,-1,-1,-1,-1,-1,-1,-1,-1,-1,-1,-1,-1,-1,-1,-1,-1,-1,-1,-1,-1,-1,-1,-1,-1,-1,-1,-1,-1,-1,-1,-1,-1,-1,-1,-1,-1,-1,-1,-1,-1,-1,-1,-1,-1,-1,-1,-1,-1,-1],"loss_changes":[6.3648365E1,2.4420925E1,2.1629269E1,2.0066824E1,2.4236298E1,9.925011E0,1.974948E1,2.1188606E1,1.4637335E1,2.3828697E1,2.1342793E1,4.419668E0,2.063366E0,9.3142605E0,1.8800598E1,8.880753E0,8.305324E0,1.2082806E1,1.3292345E1,6.923897E0,2.1975586E1,1.5881859E1,1.7314312E1,3.784798E0,1.3320267E0,1.7475166E0,0E0,5.5152035E0,5.8909006E0,1.957812E1,1.3617344E1,3.713997E0,7.302803E0,2.1997085E0,5.9790087E0,1.5816358E1,1.5708845E1,1.6622663E1,1.5058189E1,6.2545166E0,8.655492E0,2.9102974E0,9.182021E0,1.5184711E1,1.639576E1,1.416361E1,9.084894E0,2.4042358E0,3.5869946E0,0E0,0E0,0E0,6.9646835E-1,4.2518234E0,2.6596956E0,2.6460216E0,2.724743E-1,2.2578316E1,1.648812E1,1.3236464E1,1.02754135E1,0E0,0E0,0E0,0E0,0E0,0E0,0E0,0E0,0E0,0E0,0E0,0E0,0E0,0E0,0E0,0E0,0E0,0E0,0E0,0E0,0E0,0E0,0E0,0E0,0E0,0E0,0E0,0E0,0E0,0E0,0E0,0E0,0E0,0E0,0E0,0E0,0E0,0E0,0E0,0E0,0E0,0E0,0E0,0E0,0E0,0E0,0E0,0E0,0E0,0E0,0E0,0E0,0E0,0E0],"parents":[2147483647,0,0,1,1,2,2,3,3,4,4,5,5,6,6,7,7,8,8,9,9,10,10,11,11,12,12,13,13,14,14,15,15,16,16,17,17,18,18,19,19,20,20,21,21,22,22,23,23,24,24,25,25,27,27,28,28,29,29,30,30,31,31,32,32,33,33,34,34,35,35,36,36,37,37,38,38,39,39,40,40,41,41,42,42,43,43,44,44,45,45,46,46,47,47,48,48,52,52,53,53,54,54,55,55,56,56,57,57,58,58,59,59,60,60],"right_children":[2,4,6,8,10,12,14,16,18,20,22,24,26,28,30,32,34,36,38,40,42,44,46,48,50,52,-1,54,56,58,60,62,64,66,68,70,72,74,76,78,80,82,84,86,88,90,92,94,96,-1,-1,-1,98,100,102,104,106,108,110,112,114,-1,-1,-1,-1,-1,-1,-1,-1,-1,-1,-1,-1,-1,-1,-1,-1,-1,-1,-1,-1,-1,-1,-1,-1,-1,-1,-1,-1,-1,-1,-1,-1,-1,-1,-1,-1,-1,-1,-1,-1,-1,-1,-1,-1,-1,-1,-1,-1,-1,-1,-1,-1,-1,-1],"split_conditions":[3.5E0,2.3064203E2,1.5027897E0,NaN,NaN,NaN,NaN,NaN,NaN,NaN,NaN,2.9E2,1.0781559E2,NaN,NaN,NaN,NaN,NaN,1.0925241E2,NaN,NaN,NaN,NaN,1.1648785E2,1.18698395E2,9.42213E1,-7.386442E-3,1.0243126E2,1.084E2,1.0706445E2,NaN,NaN,1.1098759E2,1.14380226E2,-1.39E2,NaN,NaN,NaN,NaN,NaN,1.0580587E2,1.18698395E2,1.0456667E2,NaN,NaN,NaN,1.0961856E2,3.3E2,9.771803E1,-3.1582385E-1,3.0689767E-2,-1.3088986E-2,9.5704056E1,1.0887417E2,-4.7E1,1.1531524E2,1.18706436E2,NaN,NaN,NaN,NaN,3.4082216E-1,-9.154576E-2,-9.0744294E-2,2.6604423E-1,3.3457175E-1,-7.449246E-2,2.0650417E-2,-3.172429E-1,2.116761E-1,-1.0609376E-1,2.678214E-1,-2.3467493E-1,1.0243029E-1,-1.8197568E-1,-3.165057E-2,-2.6229575E-1,3.5401404E-1,1.6768897E-1,-1.0962441E-1,2.0651929E-1,3.059357E-1,-6.380056E-2,-2.9729587E-1,2.869795E-1,3.700976E-1,1.0147214E-1,4.6257295E-2,-2.36635E-1,1.2953818E-1,-2.0918258E-1,2.594887E-1,-3.9941534E-1,3.3378473E-1,-9.6479826E-2,2.1718407E-1,-2.7853295E-1,-1.2694412E-1,-3.4388787E-1,4.4611547E-2,3.0450332E-1,1.518516E-1,-3.1693184E-1,3.163867E-1,-1.055672E-1,-3.5154596E-1,-7.4445754E-2,1.8950239E-1,-1.9658343E-1,-2.0512886E-2,-1.9190049E-1,1.6985928E-1,-1.6533439E-1,-3.8660567E-2,-3.331416E-1],"split_indices":[25,47,47,0,0,37,48,36,48,37,48,34,10,37,0,48,37,0,16,48,36,37,37,13,2,8,0,11,29,17,36,37,6,2,33,36,37,37,37,0,1,2,10,36,0,36,17,27,9,0,0,0,22,2,38,1,4,37,48,48,48,0,0,0,0,0,0,0,0,0,0,0,0,0,0,0,0,0,0,0,0,0,0,0,0,0,0,0,0,0,0,0,0,0,0,0,0,0,0,0,0,0,0,0,0,0,0,0,0,0,0,0,0,0,0],"split_type":[0,0,0,1,1,1,1,1,1,1,1,0,0,1,1,1,1,1,0,1,1,1,1,0,0,0,0,0,0,0,1,1,0,0,0,1,1,1,1,1,0,0,0,1,1,1,0,0,0,0,0,0,0,0,0,0,0,1,1,1,1,0,0,0,0,0,0,0,0,0,0,0,0,0,0,0,0,0,0,0,0,0,0,0,0,0,0,0,0,0,0,0,0,0,0,0,0,0,0,0,0,0,0,0,0,0,0,0,0,0,0,0,0,0,0],"sum_hessian":[1.3870049E3,8.850017E2,5.0200317E2,3.5167627E2,5.3332544E2,6.2672314E1,4.3933087E2,7.60829E1,2.7559338E2,1.64423E2,3.6890244E2,1.3291772E1,4.9380543E1,4.217052E1,3.9716034E2,5.253031E1,2.3552591E1,9.35293E1,1.8206409E2,1.3084412E2,3.357889E1,3.0531384E2,6.3588596E1,9.016505E0,4.2752666E0,4.737944E1,2.0011046E0,3.33761E1,8.794424E0,2.844623E2,1.1269805E2,3.318594E1,1.9344372E1,4.3651924E0,1.9187399E1,6.505882E1,2.8470469E1,7.675208E1,1.05312004E2,8.207267E1,4.8771442E1,1.3127071E1,2.045182E1,1.8705588E2,1.1825796E2,4.4316204E1,1.9272392E1,5.2376204E0,3.778885E0,3.1808455E0,1.094421E0,1.6773034E0,4.5702133E1,3.0525839E1,2.8502576E0,3.7005916E0,5.0938325E0,7.116311E1,2.1329918E2,4.72035E1,6.549455E1,3.1691364E1,1.4945729E0,1.1431683E1,7.9126897E0,3.1483753E0,1.2168171E0,7.2228484E0,1.1964551E1,4.556968E1,1.948915E1,6.491641E0,2.1978827E1,4.8065834E1,2.8686245E1,4.3263515E1,6.2048492E1,5.5007343E1,2.706533E1,8.961731E0,3.980971E1,1.122038E1,1.9066913E0,1.8492191E1,1.9596277E0,2.0665386E1,1.6639049E2,9.651891E1,2.1739048E1,2.6815207E1,1.7500998E1,1.4115236E0,1.7860868E1,4.2195725E0,1.0180478E0,1.1717695E0,2.6071155E0,2.9658816E0,4.273625E1,7.9645185E0,2.2561321E1,1.0050439E0,1.8452137E0,1.9446808E0,1.7559108E0,4.0718336E0,1.0219988E0,5.392568E1,1.7237432E1,1.3229192E2,8.100727E1,1.4548002E1,3.2655495E1,1.37215805E1,5.1772976E1],"tree_param":{"num_deleted":"0","num_feature":"50","num_nodes":"115","size_leaf_vector":"1"}},{"base_weights":[-5.518242E-4,-2.7165735E-1,1.1233904E-1,-1.288668E-1,-6.1670023E-1,6.339631E-2,6.2850934E-1,1.7318915E-1,-3.2363588E-1,-2.2092766E-1,-8.041864E-1,3.9476106E-1,-6.7760423E-3,7.944487E-1,-2.9449442E-1,6.172625E-1,-2.769192E-1,7.6458514E-2,-5.72763E-1,-4.7095987E-1,4.817924E-1,-5.46738E-1,-3.6070877E-1,7.6085347E-1,-1.1799735E-1,4.4440907E-1,-6.7459576E-2,9.313702E-1,3.5698436E-2,3.808205E-1,-1.4635406E0,8.2627136E-1,-3.6377987E-1,4.373187E-1,-6.9131833E-1,3.7960285E-1,-3.8221657E-1,9.5541865E-1,-6.2937015E-1,-6.5962166E-1,8.3778274E-1,8.705691E-1,-3.6863327E-1,-1.4615943E-1,-8.7853146E-1,1.0768127E0,1.4676951E-1,4.8284236E-1,-6.072184E-1,1.0406898E0,1.8762194E-1,1.958474E-1,-1.5894823E-1,1.0931208E0,3.7777263E-1,8.4146094E-1,-8.468844E-1,-3.2549384E-1,9.0281403E-1,-5.095938E-1,-1.2553468E-1,2.8206548E-1,-9.890205E-2,2.545182E-1,-2.1384585E-1,2.4238907E-1,-1.8893379E-1,-2.3410626E-1,1.963648E-1,1.9449194E-1,-2.4398524E-1,-1.7269659E-1,2.9481453E-1,3.5054243E-1,4.7260467E-2,-2.6949483E-1,-1.2571049E-1,7.41607E-2,-2.4916458E-1,2.7206777E-2,3.242815E-1,3.5458007E-1,-1.328616E-1,-2.4257429E-1,1.2704284E-1,1.6783738E-1,-2.2200419E-1,-3.1450027E-1,1.4542822E-2,3.915076E-1,1.4586931E-1,3.1580448E-1,-6.553625E-2,-1.3495004E-1,2.3672454E-1,2.0958972E-1,-2.256357E-1,3.3148366E-1,7.250408E-2,1.7447071E-1,-5.474796E-2,2.2078383E-1,-1.580708E-2,5.3070415E-2,-7.4018106E-2,7.4015134E-3,3.4030983E-1,-1.2171548E-1,2.504315E-1,3.4899235E-1,-7.20813E-2,-4.1364095E-1,1.4475769E-1,2.0194916E-1,-2.6992688E-1,3.3726066E-1,-8.04744E-3],"categories":[1,2,7,13,15,16,22,27,28,0,2,3,4,5,6,7,8,9,10,12,13,14,15,16,17,20,21,22,23,24,25,26,28,29,30,32,34,35,39,40,41,42,44,45,46,48,49,50,52,53,54,55,56,57,58,61,62,63,64,65,68,69,70,71,72,73,75,76,77,80,82,0,4,8,9,10,11,13,15,18,19,21,24,25,26,27,28,29,0,1,3,4,32,34,37,40,50,0,3,5,6,7,8,9,11,12,17,18,20,24,29,0,1,2,4,13,21,23,26,34,35,36,38,39,40,42,45,46,47,48,50,51,52,53,55,56,58,2,6,11,13,22,24,37,46,47,48,50,55,1,2,11,12,13,14,16,19,22,23,24,28,0,1,3,14,23,30,42,51,0,1,2,3,4,5,6,7,8,9,10,11,12,13,15,16,17,18,19,20,24,25,26,27,28,29,31,32,33,34,35,36,38,40,41,42,43,44,45,47,49,50,51,52,53,55,57,58,1,2,3,4,6,7,9,12,13,15,16,19,20,25,26,2,6,9,12,13,16,18,19,21,25,2,5,6,7,10,12,16,17,18,22,25,26,27,28,0,1,2,3,4,5,6,7,8,9,10,11,12,14,15,16,18,19,20,21,24,25,26,27,28,29,31,32,33,34,35,36,37,38,41,43,44,45,47,49,50,51,52,54,55,56,57,58,0,1,2,4,6,9,10,11,12,14,15,16,18,21,22,23,25,26,27,28,31,32,34,35,37,38,41,42,43,45,46,48,49,50,52,53,55,56,57,58,59,60,62,64,65,67,69,70,71,72,73,74,76,77,78,79,81,82,83,5,10,12,23,0,2,3,4,5,0,1,2,3,4,5,6,7,8,11,12,13,14,15,21,0,1,3,4,5,6,7,8,9,10,11,12,13,14,15,16,17,18,19,20,21,22,23,24,25,26,27,28,29,30,31,32,33,34,35,36,38,39,40,41,43,44,45,46,47,49,50,52,53,54,55,56,57,58,0,1,2,3,4,5,6,7,8,9,10,11,12,13,14,15,16,17,18,19,20,22,23,24,25,26,27,28,29,30,31,32,33,35,36,37,38,39,40,41,42,43,44,45,46,47,48,49,50,51,52,53,54,55,56,57,58,59,60,61,62,63,64,65,66,67,68,69,70,71,72,73,74,75,76,77,78,1,2,3,4,5,8,10,14,16,17,19,20,22,23,25,28,0,1,2,6,7,8,9,11,12,13,14,15,16,18,22,24,26,27,0,1,4,5,6,7,8,9,10,12,14,15,16,17,18,20,21,22,23,24,25,27,28,29],"categories_nodes":[1,3,4,6,7,8,10,11,15,16,17,23,24,25,26,35,39,43,46,48,50,51,52],"categories_segments":[0,9,71,88,97,111,137,149,161,169,217,232,242,256,304,363,367,372,387,441,518,534,552],"categories_sizes":[9,62,17,9,14,26,12,12,8,48,15,10,14,48,59,4,5,15,54,77,16,18,24],"default_left":[0,1,0,0,1,0,1,1,1,0,1,1,0,0,0,1,1,1,0,0,0,0,0,1,1,1,0,1,0,0,0,1,0,0,1,1,1,1,1,1,0,1,0,1,0,0,1,0,0,0,1,1,1,0,0,0,0,0,0,0,0,0,0,0,0,0,0,0,0,0,0,0,0,0,0,0,0,0,0,0,0,0,0,0,0,0,0,0,0,0,0,0,0,0,0,0,0,0,0,0,0,0,0,0,0,0,0,0,0,0,0,0,0,0,0,0,0],"id":6,"left_children":[1,3,5,7,9,11,13,15,17,19,21,23,25,27,29,31,33,35,37,39,41,43,-1,45,47,49,51,53,55,57,59,61,63,65,67,69,71,73,75,77,79,81,83,85,87,89,91,93,95,97,99,101,103,105,107,109,111,113,115,-1,-1,-1,-1,-1,-1,-1,-1,-1,-1,-1,-1,-1,-1,-1,-1,-1,-1,-1,-1,-1,-1,-1,-1,-1,-1,-1,-1,-1,-1,-1,-1,-1,-1,-1,-1,-1,-1,-1,-1,-1,-1,-1,-1,-1,-1,-1,-1,-1,-1,-1,-1,-1,-1,-1,-1,-1,-1],"loss_changes":[4.055503E1,1.9113895E1,2.3594387E1,1.6340588E1,8.263725E0,1.9898197E1,1.2626619E1,2.1990974E1,1.6852499E1,6.8943434E0,7.216938E0,2.8161943E1,1.9389452E1,7.119774E0,1.0867369E1,1.1631586E1,1.655293E1,9.265502E0,9.601631E0,7.588164E0,3.77691E0,6.3157883E0,0E0,1.679692E1,1.8858654E1,1.266017E1,1.5065949E1,4.806347E0,8.937333E0,3.6383255E0,5.148325E-1,6.3505917E0,5.0048504E0,8.724337E0,4.7207603E0,1.3346672E1,7.5887327E0,5.1518416E-1,5.333027E0,4.1522217E0,6.3416743E-1,3.5787606E0,1.7300608E0,1.0121125E1,4.1938343E0,7.1206512E0,1.043528E1,8.610392E0,7.196666E0,1.0191898E0,8.840668E0,2.1702356E1,1.3714777E1,1.9365578E0,5.6048226E0,2.5589952E0,4.9208274E0,3.2379978E0,1.1582465E0,0E0,0E0,0E0,0E0,0E0,0E0,0E0,0E0,0E0,0E0,0E0,0E0,0E0,0E0,0E0,0E0,0E0,0E0,0E0,0E0,0E0,0E0,0E0,0E0,0E0,0E0,0E0,0E0,0E0,0E0,0E0,0E0,0E0,0E0,0E0,0E0,0E0,0E0,0E0,0E0,0E0,0E0,0E0,0E0,0E0,0E0,0E0,0E0,0E0,0E0,0E0,0E0,0E0,0E0,0E0,0E0,0E0,0E0],"parents":[2147483647,0,0,1,1,2,2,3,3,4,4,5,5,6,6,7,7,8,8,9,9,10,10,11,11,12,12,13,13,14,14,15,15,16,16,17,17,18,18,19,19,20,20,21,21,23,23,24,24,25,25,26,26,27,27,28,28,29,29,30,30,31,31,32,32,33,33,34,34,35,35,36,36,37,37,38,38,39,39,40,40,41,41,42,42,43,43,44,44,45,45,46,46,47,47,48,48,49,49,50,50,51,51,52,52,53,53,54,54,55,55,56,56,57,57,58,58],"right_children":[2,4,6,8,10,12,14,16,18,20,22,24,26,28,30,32,34,36,38,40,42,44,-1,46,48,50,52,54,56,58,60,62,64,66,68,70,72,74,76,78,80,82,84,86,88,90,92,94,96,98,100,102,104,106,108,110,112,114,116,-1,-1,-1,-1,-1,-1,-1,-1,-1,-1,-1,-1,-1,-1,-1,-1,-1,-1,-1,-1,-1,-1,-1,-1,-1,-1,-1,-1,-1,-1,-1,-1,-1,-1,-1,-1,-1,-1,-1,-1,-1,-1,-1,-1,-1,-1,-1,-1,-1,-1,-1,-1,-1,-1,-1,-1,-1,-1],"split_conditions":[1.4078328E2,NaN,6.391299E2,NaN,NaN,-1E0,NaN,NaN,NaN,1.0254584E2,NaN,NaN,-3.38E2,1.1599633E2,1.22388245E2,NaN,NaN,NaN,1.08469284E2,1.183359E2,1.1675006E2,1.09139755E2,-3.6070877E-1,NaN,NaN,NaN,NaN,1.18032715E2,3.414142E1,1.07517944E2,1.25397705E2,1.16878624E2,1.0503905E2,1.0252564E2,1.24923645E2,NaN,1.036298E2,1.0751384E2,9.90014E1,NaN,5.8183336E-1,1.0882323E2,7.75E-1,NaN,1.2435876E2,1.1489619E2,NaN,-1.76E2,NaN,1.02638535E2,NaN,NaN,NaN,5.123E-1,1.1760029E2,1.21E2,-1.57E2,-8E0,3.25E-1,-5.095938E-1,-1.2553468E-1,2.8206548E-1,-9.890205E-2,2.545182E-1,-2.1384585E-1,2.4238907E-1,-1.8893379E-1,-2.3410626E-1,1.963648E-1,1.9449194E-1,-2.4398524E-1,-1.7269659E-1,2.9481453E-1,3.5054243E-1,4.7260467E-2,-2.6949483E-1,-1.2571049E-1,7.41607E-2,-2.4916458E-1,2.7206777E-2,3.242815E-1,3.5458007E-1,-1.328616E-1,-2.4257429E-1,1.2704284E-1,1.6783738E-1,-2.2200419E-1,-3.1450027E-1,1.4542822E-2,3.915076E-1,1.4586931E-1,3.1580448E-1,-6.553625E-2,-1.3495004E-1,2.3672454E-1,2.0958972E-1,-2.256357E-1,3.3148366E-1,7.250408E-2,1.7447071E-1,-5.474796E-2,2.2078383E-1,-1.580708E-2,5.3070415E-2,-7.4018106E-2,7.4015134E-3,3.4030983E-1,-1.2171548E-1,2.504315E-1,3.4899235E-1,-7.20813E-2,-4.1364095E-1,1.4475769E-1,2.0194916E-1,-2.6992688E-1,3.3726066E-1,-8.04744E-3],"split_indices":[47,37,47,0,36,31,48,36,48,8,48,36,27,6,17,48,48,36,15,2,4,16,0,37,37,48,0,2,43,14,16,5,13,11,1,37,8,2,10,49,39,17,45,36,47,17,48,34,0,12,36,36,36,39,17,29,34,25,45,0,0,0,0,0,0,0,0,0,0,0,0,0,0,0,0,0,0,0,0,0,0,0,0,0,0,0,0,0,0,0,0,0,0,0,0,0,0,0,0,0,0,0,0,0,0,0,0,0,0,0,0,0,0,0,0,0,0],"split_type":[0,1,0,1,1,0,1,1,1,0,1,1,0,0,0,1,1,1,0,0,0,0,0,1,1,1,1,0,0,0,0,0,0,0,0,1,0,0,0,1,0,0,0,1,0,0,1,0,1,0,1,1,1,0,0,0,0,0,0,0,0,0,0,0,0,0,0,0,0,0,0,0,0,0,0,0,0,0,0,0,0,0,0,0,0,0,0,0,0,0,0,0,0,0,0,0,0,0,0,0,0,0,0,0,0,0,0,0,0,0,0,0,0,0,0,0,0],"sum_hessian":[1.3230996E3,3.8856378E2,9.3453577E2,2.7580127E2,1.1276251E2,8.54624E2,7.991174E1,1.08165115E2,1.6763617E2,3.694728E1,7.581523E1,1.4854517E2,7.0607886E2,6.785239E1,1.205935E1,5.4260635E1,5.390448E1,6.4593346E1,1.03042816E2,2.7494402E1,9.452878E0,4.748561E1,2.8329618E1,8.638518E1,6.215999E1,8.295807E1,6.231208E2,5.7287056E1,1.0565335E1,8.071176E0,3.9881747E0,4.4860886E1,9.399749E0,1.9771679E1,3.41328E1,3.8994057E1,2.5599289E1,3.113439E0,9.9929375E1,2.4463812E1,3.030592E0,6.4709578E0,2.9819198E0,2.2165464E1,2.5320147E1,5.6540405E1,2.9844774E1,2.7903355E1,3.425663E1,2.405279E1,5.890528E1,1.6038562E2,4.6273517E2,4.3579407E1,1.3707648E1,5.5473876E0,5.017948E0,3.5899801E0,4.4811954E0,2.7452443E0,1.2429304E0,4.1005413E1,3.8554714E0,1.7816459E0,7.618103E0,1.485485E1,4.91683E0,3.240897E1,1.7238293E0,3.2197857E1,6.7962008E0,2.2928154E1,2.6711347E0,2.0907E0,1.0227392E0,4.2419125E1,5.7510254E1,3.8090892E0,2.0654722E1,1.0812938E0,1.949298E0,5.311854E0,1.1591039E0,1.9037552E0,1.0781646E0,1.0156017E1,1.2009447E1,2.1289587E1,4.03056E0,3.990904E1,1.6631369E1,8.034202E0,2.1810572E1,6.781346E0,2.112201E1,3.0398564E0,3.1216776E1,2.1908066E1,2.1447225E0,2.825723E1,3.064805E1,4.9927273E1,1.1045835E2,9.567161E1,3.6706357E2,1.679165E0,4.190024E1,5.0912647E0,8.616384E0,4.217227E0,1.3301604E0,3.5574143E0,1.4605337E0,1.2477996E0,2.3421807E0,3.4502494E0,1.030946E0],"tree_param":{"num_deleted":"0","num_feature":"50","num_nodes":"117","size_leaf_vector":"1"}},{"base_weights":[1.3350483E-3,9.771352E-2,-2.619279E-1,1.5657717E-2,3.0026814E-1,-4.566302E-1,-5.2511025E-2,1.8636608E-1,-1.3373259E-1,4.387505E-1,-3.439813E-1,-1.7855449E-1,-7.683783E-1,3.3308652E-1,-3.4442845E-1,3.1154904E-1,-2.9702395E-1,1.8256202E-1,-4.083597E-1,7.440828E-1,1.8182993E-1,-5.229238E-1,7.816134E-1,4.240067E-1,-4.693563E-1,3.640931E-1,-8.7099814E-1,6.636266E-1,-6.7789996E-1,-9.863622E-1,-9.1203935E-2,6.1206406E-1,1.1385866E-1,5.7738274E-1,-6.405093E-1,6.489766E-1,-1.36988E-1,-1.819439E-1,-7.7764696E-1,9.431986E-1,1.5149042E-1,4.082775E-1,-3.4691203E-1,6.766383E-2,-9.171869E-1,3.483221E-1,-1.2093269E-1,6.677257E-1,-5.1424354E-1,-6.3628495E-1,5.2523303E-1,-5.0590724E-1,1.1514E0,1.8786806E-1,-9.603655E-1,-5.136897E-1,8.265155E-1,3.394887E-1,-9.406578E-1,1.6368555E-1,-1.2765257E0,4.985123E-1,-4.2178857E-1,3.0520874E-1,9.322628E-2,8.172054E-2,-1.123938E-1,-2.826022E-3,2.9420695E-1,9.875852E-2,-2.2802633E-1,3.190403E-1,8.356223E-2,1.386153E-1,-1.1340279E-1,6.450129E-3,-2.4673441E-1,-1.14449345E-1,-3.613961E-1,-1.2610593E-1,3.019664E-1,2.179379E-1,-1.7132212E-1,2.3964147E-1,-7.1089626E-3,1.0573032E-1,-2.4227731E-1,2.606129E-1,-1.884017E-1,3.6000494E-2,-3.729787E-1,2.7764928E-1,-1.4668383E-1,2.1884719E-1,-3.2528687E-1,8.9572E-2,-2.4615905E-1,-1.4282115E-1,3.574749E-1,7.7730685E-2,-2.4808802E-1,4.5692304E-1,6.2136885E-2,3.05018E-1,-1.615212E-1,1.3216727E-2,-3.0733758E-1,-3.5752422E-1,1.5602824E-1,2.6635835E-1,-2.1654168E-1,1.7129542E-1,-3.3135152E-1,-2.2162259E-1,3.1414574E-1,-4.083613E-1,3.0552661E-2,-9.150786E-3,3.3179176E-1,3.4480132E-2,-2.7284086E-1],"categories":[2,3,4,6,11,15,16,19,21,24,26,28,29,32,34,36,39,42,45,47,51,52,54,57,58,9,11,26,28,33,34,37,42,43,46,68,70,72,75,0,2,6,10,13,22,23,24,28,30,31,34,35,39,46,47,50,51,53,55,58,1,3,4,5,7,8,9,10,12,14,15,17,18,19,20,21,23,25,26,27,29,31,33,34,35,36,37,38,41,42,43,44,45,46,48,49,50,52,53,54,56,57,3,4,5,6,8,10,11,12,18,20,21,31,32,35,39,41,43,48,59,62,72,75,80,1,8,17,27,30,33,37,38,40,42,44,46,47,48,54,56,57,63,70,74,79,1,3,5,6,7,8,9,15,16,18,19,20,21,22,23,24,25,26,27,28,30,32,33,37,38,40,41,43,44,46,48,49,50,51,53,55,56,1,2,5,6,7,9,12,13,15,16,18,21,22,24,25,28,29,1,11,12,13,16,20,22,23,27,28,0,4,5,6,11,14,15,16,17,18,19,21,22,24,25,26,29,0,1,2,4,5,6,8,9,10,11,13,14,15,16,17,19,20,23,26,27,0,1,2,7,8,9,10,11,12,13,17,18,19,21,22,27,29,1,4,7,8,9,12,14,15,16,20,22,27,1,7,14,15,18,19,20,3,5,7,8,9,10,23,25,27,28,1,6,7,10,12,13,14,15,17,19,20,23,27,29,7,0,1,2,4,6,7,9,19,29,0,1,2,3,4,5,6,7,8,9,10,11,12,13,14,15,16,18,19,20,21,22,23,24,25,26,27,28,29,30,31,32,34,35,36,38,39,40,41,42,43,44,45,46,47,48,49,50,51,52,53,54,55,56,57,58,59,60,61,62,63,64,65,66,67,68,69,70,71,72,73,74,75,76,77,78,79,80,81,82,83,0,2,4,5,7,9,10,12,13,14,16,22,23,24,28,0,1,2,3,4,5,7,8,12,13,14,16,17,20,23,24,25,27,1,3,9,14,15,20,28,29,0,1,2,3,4,5,6,7,8,9,11,12,13,14,15,16,17,18,19,20,21,22,23,24,25,26,27,28,29,30,31,32,33,34,36,37,39,40,41,42,43,44,45,46,47,48,49,50,51,52,53,54,55,56,0,1,2,3,4,5,7,8,9,10,11,12,13,14,16,17,18,19,20,22,23,24,25,27,29,30,31,33,35,36,37,38,39,40,41,42,43,44,45,46,48,49,50,51,52,53,55,56,57,58,2,3,4,5,6,8,9,10,12,13,14,15,16,17,18,22,23,25,26,28,29,12,16,17,18,19,25,26,2,15,21,29,36,39,42,51,54,0,1,4,6,7,9,15,16,19,20,22,23,27,29,0,1,2,3,4,5,6,7,8,10,11,12,13,14,15,16,17,18,19,20,21,22,23,24,25,26,27,28,29,30,31,32,33,34,35,36,46,47,0,1,2,3,4,5,6,7,8,9,10,11,12,13,14,15,16,17,18,19,20,21,22,23,24,25,26,28,29,30,31,32,34,35,37,38,39,40,41,42,43,44,45,46,48,49,50,51,52,53,54,55,56,57,58,59,60,61,62,63,64,65,66,67,68,69,70,71,72,73,75,76,77,78,79,81,82,83,0,1,2,3,4,6,7,8,9,10,11,12,13,14,15,16,17,18,19,20,21,22,23,24,25,26,27,28,29,0,1,2,3,5,6,7,8,10,11,12,13,14,15,16,17,18,19,20,21,22,23,24,25,26,27,28,29,0,1,2,3,4,5,6,7,8,10,11,12,13,14,15,16,17,18,19,20,21,22,23,24,25,26,27,28,3,4,6,7,8,12,14,15,18,20,21,24,25],"categories_nodes":[3,4,5,6,7,8,9,11,13,15,16,17,18,19,20,21,22,23,26,30,31,32,34,35,36,37,38,41,43,49,51,54,58,62],"categories_segments":[0,25,39,60,102,125,146,183,200,210,227,247,264,276,283,293,307,308,317,398,413,431,439,493,543,564,571,580,594,632,710,739,767,795],"categories_sizes":[25,14,21,42,23,21,37,17,10,17,20,17,12,7,10,14,1,9,81,15,18,8,54,50,21,7,9,14,38,78,29,28,28,13],"default_left":[0,0,0,1,1,1,1,1,0,1,0,1,0,1,0,1,1,1,1,1,1,1,1,1,0,0,0,0,0,1,1,1,1,0,1,1,1,1,1,0,0,1,0,1,0,0,0,0,0,0,1,1,0,0,1,1,1,0,1,1,0,1,1,0,0,0,0,0,0,0,0,0,0,0,0,0,0,0,0,0,0,0,0,0,0,0,0,0,0,0,0,0,0,0,0,0,0,0,0,0,0,0,0,0,0,0,0,0,0,0,0,0,0,0,0,0,0,0,0,0,0],"id":7,"left_children":[1,3,5,7,9,11,13,15,17,19,21,23,25,27,29,31,33,35,37,39,41,43,45,47,49,51,53,55,57,59,61,63,65,67,69,71,73,75,77,79,81,83,85,87,89,-1,-1,91,93,95,97,99,101,103,105,107,109,-1,111,113,115,117,119,-1,-1,-1,-1,-1,-1,-1,-1,-1,-1,-1,-1,-1,-1,-1,-1,-1,-1,-1,-1,-1,-1,-1,-1,-1,-1,-1,-1,-1,-1,-1,-1,-1,-1,-1,-1,-1,-1,-1,-1,-1,-1,-1,-1,-1,-1,-1,-1,-1,-1,-1,-1,-1,-1,-1,-1,-1,-1],"loss_changes":[3.2264E1,1.5466188E1,1.3870537E1,1.6945822E1,2.4088587E1,1.5159927E1,1.872253E1,1.885601E1,3.0861485E1,1.7223095E1,1.0082782E1,1.6769945E1,9.950073E0,2.4421652E1,1.5283644E1,1.4591419E1,1.9680447E1,2.474213E1,1.5746567E1,1.174968E1,1.4687751E1,9.851167E0,3.610023E0,7.5027547E0,1.1003012E1,5.782871E0,7.4002953E0,1.0888678E1,9.703502E0,9.102749E0,1.3647041E1,1.1614544E1,1.1726131E1,4.425133E0,5.657873E0,1.0056419E1,1.4466246E1,1.5537549E1,1.1705914E1,6.9238205E0,1.1440943E1,1.4445783E1,1.2195284E1,1.0443356E1,8.698761E0,0E0,0E0,7.992365E0,5.7685795E0,9.800541E0,7.094681E0,1.2707411E0,1.1904602E0,4.625584E0,4.5851364E0,5.700837E0,5.2301292E0,0E0,4.6955004E0,5.761253E0,2.635929E0,8.137259E0,1.1806585E1,0E0,0E0,0E0,0E0,0E0,0E0,0E0,0E0,0E0,0E0,0E0,0E0,0E0,0E0,0E0,0E0,0E0,0E0,0E0,0E0,0E0,0E0,0E0,0E0,0E0,0E0,0E0,0E0,0E0,0E0,0E0,0E0,0E0,0E0,0E0,0E0,0E0,0E0,0E0,0E0,0E0,0E0,0E0,0E0,0E0,0E0,0E0,0E0,0E0,0E0,0E0,0E0,0E0,0E0,0E0,0E0,0E0,0E0],"parents":[2147483647,0,0,1,1,2,2,3,3,4,4,5,5,6,6,7,7,8,8,9,9,10,10,11,11,12,12,13,13,14,14,15,15,16,16,17,17,18,18,19,19,20,20,21,21,22,22,23,23,24,24,25,25,26,26,27,27,28,28,29,29,30,30,31,31,32,32,33,33,34,34,35,35,36,36,37,37,38,38,39,39,40,40,41,41,42,42,43,43,44,44,47,47,48,48,49,49,50,50,51,51,52,52,53,53,54,54,55,55,56,56,58,58,59,59,60,60,61,61,62,62],"right_children":[2,4,6,8,10,12,14,16,18,20,22,24,26,28,30,32,34,36,38,40,42,44,46,48,50,52,54,56,58,60,62,64,66,68,70,72,74,76,78,80,82,84,86,88,90,-1,-1,92,94,96,98,100,102,104,106,108,110,-1,112,114,116,118,120,-1,-1,-1,-1,-1,-1,-1,-1,-1,-1,-1,-1,-1,-1,-1,-1,-1,-1,-1,-1,-1,-1,-1,-1,-1,-1,-1,-1,-1,-1,-1,-1,-1,-1,-1,-1,-1,-1,-1,-1,-1,-1,-1,-1,-1,-1,-1,-1,-1,-1,-1,-1,-1,-1,-1,-1,-1,-1],"split_conditions":[1.61E2,3.7113635E2,1.6826155E2,NaN,NaN,NaN,NaN,NaN,NaN,NaN,1.15788246E2,NaN,9.516812E1,NaN,-1.7E2,NaN,NaN,NaN,NaN,NaN,NaN,NaN,NaN,NaN,1.201184E2,1.048E2,NaN,-7.1E1,1.0787073E2,1.064949E2,NaN,NaN,NaN,1E0,NaN,NaN,NaN,NaN,NaN,9.3510056E1,-2E0,NaN,-2.1E2,NaN,9.6755226E1,3.483221E-1,-1.2093269E-1,1.1954029E2,-1.39E2,NaN,1.1025076E2,NaN,1.0117564E2,3.3567417E1,NaN,9.70903E1,1.2386045E2,3.394887E-1,NaN,1.1470004E2,1.2258997E2,1.1560855E2,NaN,3.0520874E-1,9.322628E-2,8.172054E-2,-1.123938E-1,-2.826022E-3,2.9420695E-1,9.875852E-2,-2.2802633E-1,3.190403E-1,8.356223E-2,1.386153E-1,-1.1340279E-1,6.450129E-3,-2.4673441E-1,-1.14449345E-1,-3.613961E-1,-1.2610593E-1,3.019664E-1,2.179379E-1,-1.7132212E-1,2.3964147E-1,-7.1089626E-3,1.0573032E-1,-2.4227731E-1,2.606129E-1,-1.884017E-1,3.6000494E-2,-3.729787E-1,2.7764928E-1,-1.4668383E-1,2.1884719E-1,-3.2528687E-1,8.9572E-2,-2.4615905E-1,-1.4282115E-1,3.574749E-1,7.7730685E-2,-2.4808802E-1,4.5692304E-1,6.2136885E-2,3.05018E-1,-1.615212E-1,1.3216727E-2,-3.0733758E-1,-3.5752422E-1,1.5602824E-1,2.6635835E-1,-2.1654168E-1,1.7129542E-1,-3.3135152E-1,-2.2162259E-1,3.1414574E-1,-4.083613E-1,3.0552661E-2,-9.150786E-3,3.3179176E-1,3.4480132E-2,-2.7284086E-1],"split_indices":[27,47,47,48,0,48,48,0,0,48,14,37,19,36,33,36,37,36,36,37,36,37,36,36,2,29,0,38,5,2,37,37,37,35,48,48,37,37,48,10,25,37,27,48,7,0,0,5,32,0,13,36,10,44,36,19,17,0,37,16,17,5,36,0,0,0,0,0,0,0,0,0,0,0,0,0,0,0,0,0,0,0,0,0,0,0,0,0,0,0,0,0,0,0,0,0,0,0,0,0,0,0,0,0,0,0,0,0,0,0,0,0,0,0,0,0,0,0,0,0,0],"split_type":[0,0,0,1,1,1,1,1,1,1,0,1,0,1,0,1,1,1,1,1,1,1,1,1,0,0,1,0,0,0,1,1,1,0,1,1,1,1,1,0,0,1,0,1,0,0,0,0,0,1,0,1,0,0,1,0,0,0,1,0,0,0,1,0,0,0,0,0,0,0,0,0,0,0,0,0,0,0,0,0,0,0,0,0,0,0,0,0,0,0,0,0,0,0,0,0,0,0,0,0,0,0,0,0,0,0,0,0,0,0,0,0,0,0,0,0,0,0,0,0,0],"sum_hessian":[1.2695852E3,9.2981586E2,3.3976938E2,6.625081E2,2.6730777E2,1.754587E2,1.6431068E2,3.0907755E2,3.5343054E2,2.2027773E2,4.7030045E1,9.356899E1,8.188971E1,7.073494E1,9.357574E1,2.4578291E2,6.3294624E1,1.6441042E2,1.8902014E2,9.978911E1,1.2048861E2,4.1040943E1,5.989101E0,3.0308876E1,6.3260117E1,6.592254E0,7.5297455E1,5.3565414E1,1.7169525E1,2.5651926E1,6.792381E1,9.669615E1,1.4908678E2,1.7659101E1,4.5635525E1,6.6425285E1,9.798512E1,1.18102394E2,7.091775E1,7.424915E1,2.5539955E1,8.4518974E1,3.596963E1,1.6761452E1,2.4279491E1,4.5513043E0,1.4377965E0,2.428814E1,6.0207353E0,5.4477108E1,8.783008E0,3.3014557E0,3.2907984E0,5.774637E0,6.952282E1,6.2486024E0,4.731681E1,1.7577473E0,1.5411778E1,5.2559867E0,2.0395939E1,2.4216692E1,4.3707123E1,4.0219524E1,5.6476624E1,1.1289072E2,3.619606E1,7.591004E0,1.0068098E1,4.8173046E0,4.081822E1,3.0465609E1,3.5959675E1,2.7849752E1,7.013537E1,9.03658E1,2.7736597E1,3.777032E1,3.314743E1,3.0465415E0,7.1202614E1,1.4219565E1,1.132039E1,4.394299E1,4.0575985E1,1.4377873E1,2.1591759E1,7.6750674E0,9.086385E0,5.9585075E0,1.8320984E1,2.0025246E1,4.262895E0,1.8043265E0,4.2164087E0,8.8667555E0,4.561035E1,3.623556E0,5.1594515E0,1.0329905E0,2.2684653E0,1.9215152E0,1.3692832E0,2.5100803E0,3.264557E0,4.188961E0,6.5333855E1,3.681264E0,2.5673385E0,4.592384E1,1.3929715E0,1.2641319E0,1.4147647E1,2.68113E0,2.5748568E0,1.9227188E1,1.16875E0,1.3451798E1,1.0764893E1,2.1171228E1,2.2535892E1],"tree_param":{"num_deleted":"0","num_feature":"50","num_nodes":"121","size_leaf_vector":"1"}},{"base_weights":[9.7538636E-4,-5.635876E-1,3.4626335E-2,2.7541593E-1,-7.769543E-1,1.6913028E-1,-6.3305646E-2,6.987046E-1,-2.8277665E-1,-4.245133E-1,-1.0435386E0,5.36997E-1,8.092235E-2,-3.961292E-3,-3.7253708E-1,9.568744E-1,-2.2141844E-1,4.3557408E-1,-7.817776E-1,-1.09793E0,-1.1849391E-2,6.984735E-1,-3.4969366E-1,3.784627E-1,-2.2445314E-2,1.5953848E-1,-1.23294435E-1,4.935236E-1,-5.135602E-1,3.0295333E-1,1.2583977E0,-2.3227577E-1,9.182022E-1,1.20850585E-1,-9.295987E-1,-1.147493E0,-5.2104473E-2,1.0386199E0,3.9248535E-1,2.3592986E-1,-1.3357353E0,7.719952E-1,5.2868895E-2,-8.716642E-2,7.1060866E-1,3.8899532E-1,-9.253679E-2,8.731603E-2,-3.2056424E-1,4.676543E-1,1.4001857E-1,-9.176342E-1,-1.8701102E-1,-1.3261794E-1,2.4357866E-1,4.1088447E-1,1.1817577E-1,3.6413878E-1,-3.006422E-2,1.6151102E-2,-3.1246287E-1,-1.07603274E-1,-3.5299182E-1,3.2668936E-1,-1.0213127E-2,-1.6105466E-1,1.5886098E-1,2.4123688E-1,-1.5144515E-1,-5.0458837E-1,-5.0014798E-2,2.632419E-1,-2.1031207E-1,1.3698539E-1,-1.5785244E-1,2.4906611E-2,-1.2581638E-1,2.5252625E-1,-2.5950605E-1,1.4513707E-1,-1.15951344E-1,1.4368512E-1,-9.2131935E-2,1.404527E-1,-8.068954E-2,2.6829273E-2,-1.77465E-1,-2.2213812E-1,1.5127699E-1,2.7828414E-2,-3.230495E-1,-1.1760194E-1,1.9657864E-1],"categories":[0,1,2,3,6,7,8,9,10,11,12,13,14,15,16,18,19,20,22,23,24,25,27,28,29,0,5,9,11,17,18,19,20,21,25,26,29,0,1,2,4,5,6,8,9,10,11,12,13,14,15,16,17,18,22,23,25,26,28,30,31,33,34,35,37,40,41,42,43,44,45,46,47,49,50,52,53,55,56,57,58,59,60,62,64,65,67,68,69,70,71,72,73,74,75,76,77,78,81,82,83,5,6,19,20,27,29,32,34,39,48,52,53,54,56,61,63,71,72,74,75,78,80,0,1,2,3,4,5,6,7,9,10,11,12,14,15,16,17,18,19,20,21,22,23,24,0,1,3,4,5,7,8,10,12,14,15,36,58,0,1,2,3,4,7,8,9,11,12,13,16,17,18,19,20,21,22,24,25,26,27,28,29,32,33,34,36,37,38,40,41,43,44,46,47,48,49,50,51,52,53,56,58,2,3,6,7,8,9,10,11,13,23,26,27,28,30,31,32,34,36,37,42,45,47,48,50,52,53,55,56,57,58,0,1,2,3,6,7,8,9,10,11,13,14,16,17,18,20,21,22,23,24,25,26,27,28,29,1,3,4,5,9,10,11,12,15,18,20,23,24,25,27,28,2,3,5,6,8,9,10,11,14,16,21,25,26,29,1,3,4,5,6,7,8,10,12,13,16,18,24,25,26,1,2,5,7,9,12,14,16,21,22,23,27,28,0,4,6,7,9,11,12,16,18,23,8,9,11,17,18,28,30,31,33,34,42,43,46,60,62,70,72,74,75,0,21,23,24,1,4,5,6,8,9,10,12,13,14,15,16,17,18,19,20,21,22,23,24,25,27,28,29,30,31,32,33,34,35,37,39,40,42,45,57,66,70,4,5,6,8,9,11,14,16,22,23,24,25,26,27,28,29,2,3,11,12,13,14,15,17,18,19,20,21,22,23,24,26,29,0,1,2,3,4,5,6,7,8,9,10,11,12,13,14,15,16,17,18,19,20,22,23,24,25,26,27,29,30,31,34,35,37,40,42,46,47,48,50,51,54,58],"categories_nodes":[1,4,5,6,9,11,12,13,14,21,23,25,26,42,43,45,46,47,48,51],"categories_segments":[0,25,37,101,123,146,159,203,233,258,274,288,303,316,326,345,349,387,403,420],"categories_sizes":[25,12,64,22,23,13,44,30,25,16,14,15,13,10,19,4,38,16,17,42],"default_left":[0,1,0,0,1,0,1,0,0,1,0,1,1,1,1,0,0,0,0,0,0,1,0,1,1,1,1,1,0,0,0,0,1,0,0,0,0,0,1,1,1,0,1,1,0,1,0,1,1,0,0,1,0,0,0,0,0,0,0,0,0,0,0,0,0,0,0,0,0,0,0,0,0,0,0,0,0,0,0,0,0,0,0,0,0,0,0,0,0,0,0,0,0],"id":8,"left_children":[1,3,5,7,9,11,13,15,-1,17,19,21,23,25,27,29,-1,31,33,35,-1,37,39,41,43,45,47,49,51,53,55,-1,57,-1,59,61,-1,63,65,67,69,71,73,75,77,79,81,83,85,-1,87,89,91,-1,-1,-1,-1,-1,-1,-1,-1,-1,-1,-1,-1,-1,-1,-1,-1,-1,-1,-1,-1,-1,-1,-1,-1,-1,-1,-1,-1,-1,-1,-1,-1,-1,-1,-1,-1,-1,-1,-1,-1],"loss_changes":[2.3029533E1,1.24209385E1,1.507957E1,8.167112E0,4.6893845E0,1.5605515E1,1.2160184E1,4.928137E0,0E0,8.087158E0,1.6176453E0,1.3573751E1,1.2008606E1,1.0887771E1,1.3284437E1,1.6069965E0,0E0,5.4059606E0,3.5561657E0,1.1206741E0,0E0,7.823883E0,8.981739E0,1.2856312E1,1.3845181E1,1.3654915E1,1.3429796E1,5.6003075E0,1.1999901E1,2.065044E0,9.353733E-2,0E0,1.9896908E0,0E0,1.8677359E0,2.0263672E-1,0E0,2.0268593E0,5.7918425E0,4.72675E0,2.0438175E0,7.6845036E0,1.3368825E1,1.5178427E1,5.6208563E0,9.26226E0,1.4004355E1,2.140196E1,1.8581945E1,0E0,4.4461823E0,6.6903E0,9.282173E0,0E0,0E0,0E0,0E0,0E0,0E0,0E0,0E0,0E0,0E0,0E0,0E0,0E0,0E0,0E0,0E0,0E0,0E0,0E0,0E0,0E0,0E0,0E0,0E0,0E0,0E0,0E0,0E0,0E0,0E0,0E0,0E0,0E0,0E0,0E0,0E0,0E0,0E0,0E0,0E0],"parents":[2147483647,0,0,1,1,2,2,3,3,4,4,5,5,6,6,7,7,9,9,10,10,11,11,12,12,13,13,14,14,15,15,17,17,18,18,19,19,21,21,22,22,23,23,24,24,25,25,26,26,27,27,28,28,29,29,30,30,32,32,34,34,35,35,37,37,38,38,39,39,40,40,41,41,42,42,43,43,44,44,45,45,46,46,47,47,48,48,50,50,51,51,52,52],"right_children":[2,4,6,8,10,12,14,16,-1,18,20,22,24,26,28,30,-1,32,34,36,-1,38,40,42,44,46,48,50,52,54,56,-1,58,-1,60,62,-1,64,66,68,70,72,74,76,78,80,82,84,86,-1,88,90,92,-1,-1,-1,-1,-1,-1,-1,-1,-1,-1,-1,-1,-1,-1,-1,-1,-1,-1,-1,-1,-1,-1,-1,-1,-1,-1,-1,-1,-1,-1,-1,-1,-1,-1,-1,-1,-1,-1,-1,-1],"split_conditions":[-5.597414E-1,NaN,-2E0,1.1289608E2,NaN,NaN,NaN,1.0182535E2,-2.8277665E-1,NaN,7.019167E-1,NaN,NaN,NaN,NaN,9.9238754E1,-2.2141844E-1,3.317E1,5.141818E-1,1.5857143E0,-1.1849391E-2,NaN,1.12114685E2,NaN,1.2224178E2,NaN,NaN,9.585934E1,1.1093653E2,1.1006263E2,1.0644664E2,-2.3227577E-1,1.1436372E2,1.20850585E-1,9.499797E1,5.581818E-1,-5.2104473E-2,1.1620809E2,9.4054375E1,1.112E2,1.16686806E2,1.92E2,NaN,NaN,2.9E1,NaN,NaN,NaN,NaN,4.676543E-1,1.06095184E2,NaN,1.542886E3,-1.3261794E-1,2.4357866E-1,4.1088447E-1,1.1817577E-1,3.6413878E-1,-3.006422E-2,1.6151102E-2,-3.1246287E-1,-1.07603274E-1,-3.5299182E-1,3.2668936E-1,-1.0213127E-2,-1.6105466E-1,1.5886098E-1,2.4123688E-1,-1.5144515E-1,-5.0458837E-1,-5.0014798E-2,2.632419E-1,-2.1031207E-1,1.3698539E-1,-1.5785244E-1,2.4906611E-2,-1.2581638E-1,2.5252625E-1,-2.5950605E-1,1.4513707E-1,-1.15951344E-1,1.4368512E-1,-9.2131935E-2,1.404527E-1,-8.068954E-2,2.6829273E-2,-1.77465E-1,-2.2213812E-1,1.5127699E-1,2.7828414E-2,-3.230495E-1,-1.1760194E-1,1.9657864E-1],"split_indices":[47,37,25,4,36,0,0,8,0,37,39,48,48,48,36,11,0,44,39,45,0,37,6,37,4,36,37,11,3,3,10,0,5,0,20,40,0,6,20,29,17,32,36,0,38,37,0,36,36,0,13,48,46,0,0,0,0,0,0,0,0,0,0,0,0,0,0,0,0,0,0,0,0,0,0,0,0,0,0,0,0,0,0,0,0,0,0,0,0,0,0,0,0],"split_type":[0,1,0,0,1,1,1,0,0,1,0,1,1,1,1,0,0,0,0,0,0,1,0,1,0,1,1,0,0,0,0,0,0,0,0,0,0,0,0,0,0,0,1,1,0,1,1,1,1,0,0,1,0,0,0,0,0,0,0,0,0,0,0,0,0,0,0,0,0,0,0,0,0,0,0,0,0,0,0,0,0,0,0,0,0,0,0,0,0,0,0,0,0],"sum_hessian":[1.210176E3,6.718941E1,1.1429867E3,1.3563604E1,5.36258E1,4.8126703E2,6.617196E2,1.0381955E1,3.1816492E0,2.4210468E1,2.941533E1,9.2096275E1,3.8917075E2,5.5602594E2,1.0569367E2,9.083725E0,1.2982295E0,7.0408792E0,1.7169588E1,2.781501E1,1.6003208E0,7.808785E1,1.4008419E1,9.965522E1,2.8951553E2,2.3445686E2,3.2156906E2,1.4450383E1,9.1243286E1,3.4993472E0,5.5843782E0,1.8355008E0,5.2053785E0,1.7134156E0,1.5456174E1,2.6170092E1,1.6449195E0,3.5845985E1,4.2241867E1,9.265966E0,4.742453E0,4.4499447E1,5.5155773E1,2.6683762E2,2.267792E1,1.22450516E2,1.1200635E2,1.5579529E2,1.6577379E2,2.7508183E0,1.1699565E1,3.9971813E1,5.1271473E1,1.4736956E0,2.0256515E0,4.430109E0,1.1542691E0,3.8857107E0,1.3196679E0,1.6326171E0,1.3823556E1,1.40665E0,2.4763441E1,3.422449E1,1.621494E0,5.053992E0,3.7187878E1,5.1953187E0,4.0706477E0,3.3203058E0,1.4221472E0,4.1903244E1,2.5962014E0,3.2621353E1,2.2534422E1,1.7694392E2,8.989369E1,2.1365368E1,1.3125528E0,1.0944805E2,1.3002463E1,3.0237995E1,8.176836E1,7.514851E1,8.064678E1,6.62337E1,9.954008E1,3.1213553E0,8.57821E0,5.4975057E0,3.4474308E1,4.1665386E1,9.606086E0],"tree_param":{"num_deleted":"0","num_feature":"50","num_nodes":"93","size_leaf_vector":"1"}},{"base_weights":[-8.885287E-6,-4.7030017E-2,2.8763393E-1,-4.9529195E-1,-1.9528376E-2,9.3131703E-1,1.4569956E-1,-4.358536E-2,-8.0869484E-1,1.2511475E-1,-1.381693E-1,-8.441417E-2,1.0048891E0,3.7547588E-1,-1.6582517E-1,3.5603574E-1,-3.9113218E-1,-4.000841E-1,-1.0375512E0,3.5310695E-1,-3.5437312E-2,-2.7593566E-2,-4.304376E-1,-1.0285987E-1,1.0748882E0,8.747112E-1,-2.6701456E-2,-3.0345878E-1,8.182968E-1,6.17493E-1,-5.1038337E-1,1.387205E-1,-4.9545595E-1,-6.5037876E-1,4.6502137E-1,-3.2221392E-1,-5.3201966E-2,6.774578E-1,1.5929002E-1,2.9033247E-1,-2.3708358E-1,1.7547299E-1,-2.4217214E-1,-1.4748392E-1,-8.620349E-1,1.1347195E0,5.025928E-1,1.1218499E0,1.5110074E-1,6.6842234E-1,-4.4072378E-1,1.6150633E-1,-5.960459E-1,3.666406E-1,-5.6061126E-2,2.6324782E-1,-6.0266566E-2,-2.0856069E-1,-1.8774075E-2,-2.2533718E-1,-3.1952893E-3,6.506813E-2,-2.59669E-1,3.2314315E-1,-1.6413517E-1,3.0178353E-1,7.014181E-2,9.4469264E-2,-1.0615169E-1,2.1667361E-1,-4.2574257E-2,7.8513645E-2,-1.5961824E-1,1.5039203E-1,-5.937932E-2,9.484145E-2,-1.16627224E-1,7.071681E-2,-1.5687962E-1,1.4334656E-1,-2.8361616E-1,8.0950715E-2,3.496194E-1,-1.2264862E-1,2.7724075E-1,3.653881E-2,3.5569662E-1,1.5504919E-1,-2.9958385E-1,3.0556473E-1,-5.2011818E-2,3.2012162E-1,-1.998949E-1,1.9280857E-1,-1.4504696E-1,-2.3907487E-1,2.1025802E-1,-2.4588233E-1,2.063872E-1],"categories":[0,2,3,4,5,6,9,10,11,12,14,15,16,17,19,20,21,22,23,24,25,26,27,28,29,32,33,34,35,38,39,41,42,43,45,46,47,48,49,50,51,52,53,54,55,56,58,59,60,61,63,64,65,67,68,69,71,72,73,74,75,76,77,78,79,80,81,82,83,0,1,3,6,7,9,10,11,12,13,14,16,18,20,22,23,24,25,27,28,0,1,3,4,5,7,8,9,11,16,18,19,20,21,23,25,27,28,30,32,34,37,38,40,48,50,56,4,9,10,11,17,18,19,20,21,26,29,0,4,5,6,7,9,10,11,12,14,15,16,17,19,21,22,23,25,26,28,30,32,35,39,40,41,42,43,45,48,49,50,52,53,54,55,56,57,58,61,62,63,64,65,66,68,69,71,72,73,76,77,78,81,82,83,1,6,8,9,13,20,27,31,34,35,36,37,44,46,47,48,52,56,60,67,70,74,75,79,83,1,4,6,7,10,12,13,14,15,17,18,19,20,24,26,31,0,2,3,5,7,8,10,11,13,16,17,18,21,22,24,26,27,28,29,1,2,3,4,6,7,11,13,14,15,16,18,19,20,22,23,26,27,1,2,3,5,9,11,14,16,17,19,20,21,25,26,27,0,2,4,6,10,13,14,15,16,24,26,34,47,48,52,56,0,1,2,4,6,7,12,13,15,16,22,23,27,29,0,1,2,3,4,5,6,7,8,9,10,11,12,13,14,15,16,17,18,19,20,21,0,2,4,7,9,11,13,15,18,19,21,22,25,28,1,2,5,6,9,10,12,14,15,16,18,21,23,24,28,29,2,3,4,5,7,8,11,12,13,17,18,19,20,21,22,24,25,26,27,28,29,31,32,33,35,36,38,41,43,44,46,47,48,49,50,52,53,54,56,57,58,2,3,5,6,7,8,10,11,12,13,15,18,19,20,23,25,26,27,29,30,32,33,35,36,37,41,42,43,44,45,49,51,52,53,54,56,57,0,1,3,4,5,6,7,8,9,10,12,13,14,15,17,18,21,30,33,38,40,42,43,57,59,62,72,80,1,3,4,5,9,14,18,19,22,23,25,26,28,29,0,1,2,3,4,5,6,7,8,9,10,11,12,13,14,16,17,18,19,20,21,22,23,24,25,26,27,28,29],"categories_nodes":[2,3,6,8,9,10,13,18,19,20,21,22,27,29,37,39,40,41,42,43,44],"categories_segments":[0,69,89,116,127,183,208,223,224,243,261,276,292,306,328,342,358,399,436,464,478],"categories_sizes":[69,20,27,11,56,25,15,1,19,18,15,16,14,22,14,16,41,37,28,14,29],"default_left":[0,0,0,1,1,0,1,0,1,0,1,0,0,1,0,0,0,0,1,1,1,1,1,0,0,1,0,1,0,1,1,0,0,0,0,0,0,1,1,1,1,1,0,1,1,0,0,0,1,0,0,0,1,0,0,0,0,0,0,0,0,0,0,0,0,0,0,0,0,0,0,0,0,0,0,0,0,0,0,0,0,0,0,0,0,0,0,0,0,0,0,0,0,0,0,0,0,0,0],"id":9,"left_children":[1,3,5,7,9,11,13,15,17,19,21,-1,23,25,27,29,31,33,35,37,39,41,43,-1,45,47,49,51,53,55,57,-1,59,61,63,-1,-1,65,67,69,71,73,75,77,79,81,83,85,87,89,91,93,95,-1,97,-1,-1,-1,-1,-1,-1,-1,-1,-1,-1,-1,-1,-1,-1,-1,-1,-1,-1,-1,-1,-1,-1,-1,-1,-1,-1,-1,-1,-1,-1,-1,-1,-1,-1,-1,-1,-1,-1,-1,-1,-1,-1,-1,-1],"loss_changes":[1.5843225E1,1.240205E1,1.4900603E1,8.197825E0,1.6313658E1,2.9191265E0,9.7996235E0,3.5946517E0,2.790329E0,1.5695784E1,1.686409E1,0E0,3.017416E0,1.5803687E1,8.163651E0,3.0553036E0,1.4563992E0,3.3195186E0,4.796009E-1,1.1027512E1,1.6643639E1,1.6597137E1,1.7368782E1,0E0,3.5191536E-1,6.106722E0,1.3101256E1,7.170147E0,2.695774E0,2.249717E0,2.3387456E-1,0E0,1.5741687E0,2.2823792E0,2.8877373E0,0E0,0E0,9.37566E0,9.069043E0,1.819635E1,2.315087E1,2.3918976E1,1.5275206E1,1.2746884E1,6.76445E0,3.1142235E-1,2.0469117E0,1.5149498E0,4.759017E0,5.189426E0,1.0402163E1,6.7879405E0,8.928145E0,0E0,2.442506E0,0E0,0E0,0E0,0E0,0E0,0E0,0E0,0E0,0E0,0E0,0E0,0E0,0E0,0E0,0E0,0E0,0E0,0E0,0E0,0E0,0E0,0E0,0E0,0E0,0E0,0E0,0E0,0E0,0E0,0E0,0E0,0E0,0E0,0E0,0E0,0E0,0E0,0E0,0E0,0E0,0E0,0E0,0E0,0E0],"parents":[2147483647,0,0,1,1,2,2,3,3,4,4,5,5,6,6,7,7,8,8,9,9,10,10,12,12,13,13,14,14,15,15,16,16,17,17,18,18,19,19,20,20,21,21,22,22,24,24,25,25,26,26,27,27,28,28,29,29,30,30,32,32,33,33,34,34,37,37,38,38,39,39,40,40,41,41,42,42,43,43,44,44,45,45,46,46,47,47,48,48,49,49,50,50,51,51,52,52,54,54],"right_children":[2,4,6,8,10,12,14,16,18,20,22,-1,24,26,28,30,32,34,36,38,40,42,44,-1,46,48,50,52,54,56,58,-1,60,62,64,-1,-1,66,68,70,72,74,76,78,80,82,84,86,88,90,92,94,96,-1,98,-1,-1,-1,-1,-1,-1,-1,-1,-1,-1,-1,-1,-1,-1,-1,-1,-1,-1,-1,-1,-1,-1,-1,-1,-1,-1,-1,-1,-1,-1,-1,-1,-1,-1,-1,-1,-1,-1,-1,-1,-1,-1,-1,-1],"split_conditions":[4.7332504E2,-5.597414E-1,NaN,NaN,1.1172863E2,-1.063E3,NaN,1.93E2,NaN,NaN,NaN,-8.441417E-2,1.0815749E2,NaN,1.16E2,1.1368149E2,9.8254135E1,1.13E2,NaN,NaN,NaN,NaN,NaN,-1.0285987E-1,1.1805482E2,1.1993499E2,9.741171E1,NaN,1.1645324E2,NaN,1.0958005E2,1.387205E-1,1.1036593E2,9.5704056E1,3.5E0,-3.2221392E-1,-5.3201966E-2,NaN,1.0941609E2,NaN,NaN,NaN,NaN,NaN,NaN,3.80795E1,1.18111015E2,9.573547E1,1.20725494E2,2.2561755E2,1.0538157E2,1.1554432E2,1.0409888E2,3.666406E-1,1.1658632E2,2.6324782E-1,-6.0266566E-2,-2.0856069E-1,-1.8774075E-2,-2.2533718E-1,-3.1952893E-3,6.506813E-2,-2.59669E-1,3.2314315E-1,-1.6413517E-1,3.0178353E-1,7.014181E-2,9.4469264E-2,-1.0615169E-1,2.1667361E-1,-4.2574257E-2,7.8513645E-2,-1.5961824E-1,1.5039203E-1,-5.937932E-2,9.484145E-2,-1.16627224E-1,7.071681E-2,-1.5687962E-1,1.4334656E-1,-2.8361616E-1,8.0950715E-2,3.496194E-1,-1.2264862E-1,2.7724075E-1,3.653881E-2,3.5569662E-1,1.5504919E-1,-2.9958385E-1,3.0556473E-1,-5.2011818E-2,3.2012162E-1,-1.998949E-1,1.9280857E-1,-1.4504696E-1,-2.3907487E-1,2.1025802E-1,-2.4588233E-1,2.063872E-1],"split_indices":[47,47,0,37,16,34,48,33,36,0,0,0,3,37,33,4,17,28,0,36,36,37,48,0,18,1,8,37,2,48,13,0,17,22,25,0,0,37,16,37,48,48,0,36,37,42,17,9,17,41,1,18,22,0,1,0,0,0,0,0,0,0,0,0,0,0,0,0,0,0,0,0,0,0,0,0,0,0,0,0,0,0,0,0,0,0,0,0,0,0,0,0,0,0,0,0,0,0,0],"split_type":[0,0,1,1,0,0,1,0,1,1,1,0,0,1,0,0,0,0,1,1,1,1,1,0,0,0,0,1,0,1,0,0,0,0,0,0,0,1,0,1,1,1,1,1,1,0,0,0,0,0,0,0,0,0,0,0,0,0,0,0,0,0,0,0,0,0,0,0,0,0,0,0,0,0,0,0,0,0,0,0,0,0,0,0,0,0,0,0,0,0,0,0,0,0,0,0,0,0,0],"sum_hessian":[1.1693777E3,1.0057961E3,1.6358156E2,5.7157074E1,9.48639E2,2.8548832E1,1.3503273E2,2.3879173E1,3.32779E1,4.2745065E2,5.2118835E2,1.4713794E0,2.7077452E1,7.759468E1,5.743805E1,1.1096089E1,1.2783084E1,1.2933684E1,2.0344217E1,1.7613316E2,2.5131749E2,3.7892255E2,1.4226581E2,1.144436E0,2.5933016E1,3.409569E1,4.349899E1,5.0997482E1,6.4405684E0,8.744567E0,2.3515224E0,1.0184205E0,1.1764663E1,1.0223889E1,2.7097945E0,1.9277758E1,1.066461E0,6.494797E1,1.1118519E2,9.5917725E1,1.5539977E2,1.9477724E2,1.8414532E2,8.6740654E1,5.5525143E1,2.2588705E1,3.3443105E0,2.5005184E1,9.090508E0,1.6007948E1,2.7491041E1,1.9869635E1,3.1127846E1,4.133625E0,2.3069437E0,6.581421E0,2.1631458E0,1.2734616E0,1.0780607E0,7.3429403E0,4.421723E0,2.030856E0,8.193034E0,1.6485543E0,1.0612402E0,3.6589252E1,2.8358719E1,8.561006E1,2.5575127E1,4.7641804E1,4.8275925E1,5.779065E1,9.7609116E1,1.03831215E2,9.094602E1,3.8053066E1,1.4609225E2,4.311097E1,4.3629684E1,2.9747362E0,5.2550407E1,1.1093603E0,2.1479345E1,1.0671589E0,2.2771516E0,1.6741575E0,2.3331028E1,7.3142705E0,1.7762377E0,1.1157323E1,4.8506246E0,3.092379E0,2.4398663E1,1.1381912E1,8.487722E0,2.7287039E1,3.8408065E0,1.0883905E0,1.2185531E0],"tree_param":{"num_deleted":"0","num_feature":"50","num_nodes":"99","size_leaf_vector":"1"}},{"base_weights":[2.0953747E-3,6.430316E-2,-1.7750269E-1,-9.25549E-1,7.460563E-2,-6.278857E-1,-9.097293E-2,1.0658372E-1,-1.1680565E0,6.007984E-1,5.4881576E-2,-7.884215E-2,-8.635035E-1,2.2938259E-1,-2.1125452E-1,3.7192352E-2,-4.1573235E-1,8.228432E-1,-2.3441815E-1,3.3688463E-2,5.009425E-1,1.9981825E-1,-2.9563376E-1,-9.3109536E-1,1.7532174E-1,5.7152873E-1,-3.609284E-1,2.1327136E-1,-4.3747053E-1,9.46616E-1,-1.3754058E-1,3.361389E-1,-3.4624276E-1,-1.6765371E-1,9.408103E-2,9.8440135E-1,-1.8046685E-1,8.5438937E-1,-3.1409264E-1,1.4653637E-1,-1.0019475E0,-2.061144E-1,6.92771E-1,-6.1068654E-1,4.748743E-1,4.7299713E-1,-4.0174928E-1,-2.5557768E-1,-1.0057257E0,3.180842E-1,9.014356E-2,-2.1468963E-1,1.7703262E-1,2.6117566E-1,-1.2760961E-1,8.553827E-2,-1.0084464E-1,1.1302938E-1,1.0286884E-2,-1.2223018E-1,3.262561E-1,2.8611913E-1,-2.0181258E-1,3.867187E-1,7.340121E-2,1.087187E-1,-2.4680129E-1,8.085016E-2,-3.1766516E-1,-8.63384E-2,2.6538596E-1,3.1462077E-2,-2.597869E-1,-8.591299E-2,2.9070416E-1,2.3299773E-1,-4.1185405E-2,-2.15651E-1,1.504479E-1,1.1716232E-1,-1.352358E-1,-3.4354264E-1,3.4218963E-2],"categories":[1,2,6,7,10,12,13,14,15,16,18,22,28,0,1,2,3,8,10,12,14,16,18,19,20,21,22,23,24,25,26,27,28,29,0,1,2,21,24,0,1,2,3,4,5,6,7,8,10,12,13,16,17,18,19,20,21,23,25,26,27,28,29,48,51,1,2,4,5,6,7,8,10,12,13,14,15,16,19,20,21,22,23,24,25,26,29,30,32,34,35,36,38,39,41,42,43,44,45,46,47,48,49,50,51,52,53,54,55,56,57,58,61,62,63,64,65,67,69,71,72,73,76,77,78,79,81,82,83,0,1,2,3,5,6,7,8,11,12,13,14,15,16,22,24,27,28,0,1,2,3,4,5,6,7,8,9,10,11,12,13,14,15,16,17,18,19,20,21,22,23,24,25,26,27,28,29,30,31,32,33,34,35,36,37,38,39,40,41,42,43,44,45,46,47,48,49,50,51,52,53,54,55,56,57,58,59,6,13,30,34,42,46,53,54,0,3,7,10,13,14,18,19,24,29,1,2,3,4,5,6,7,8,10,11,12,13,14,15,16,17,18,19,22,23,24,25,26,27,28,29,32,33,35,39,40,41,42,44,45,46,48,49,50,51,52,53,54,55,56,57,58,60,61,62,64,65,66,67,68,69,70,71,75,80,2,3,5,6,7,8,9,10,11,12,13,14,15,16,18,19,20,21,22,23,24,25,26,27,28,31,32,33,34,36,37,39,40,41,43,44,46,47,48,49,51,52,54,55,56,57,58,0,1,0,1,2,3,4,5,6,7,8,9,10,11,12,13,14,15,16,17,18,19,20,21,22,23,24,25,26,27,28,29,30,31,32,33,34,35,37,38,39,40,41,42,43,44,45,46,47,48,49,50,51,52,53,54,55,56,57,58,59,60,61,62,63,64,65,66,67,68,69,70,71,72,73,74,75,76,77,78,79,80,81,82,83,1,2,3,4,5,7,8,9,10,11,12,13,14,15,16,17,18,19,20,21,22,23,24,25,26,27,28,29,30,31,32,33,34,35,36,38,39,40,41,43,44,45,46,47,49,50,53,54,55,56,57,58],"categories_nodes":[5,6,9,13,14,20,21,27,28,33,34,38,40,47],"categories_segments":[0,13,34,39,65,129,147,207,215,225,285,332,334,417],"categories_sizes":[13,21,5,26,64,18,60,8,10,60,47,2,83,52],"default_left":[0,0,0,0,0,1,1,0,0,1,0,0,0,1,0,0,0,1,0,0,1,1,0,0,0,0,0,1,1,0,0,0,0,0,1,0,1,0,1,0,0,0,0,1,0,0,0,1,0,0,0,0,0,0,0,0,0,0,0,0,0,0,0,0,0,0,0,0,0,0,0,0,0,0,0,0,0,0,0,0,0,0,0],"id":10,"left_children":[1,3,5,7,9,11,13,-1,15,17,19,21,23,25,27,-1,-1,29,31,33,35,37,-1,39,-1,41,43,45,47,49,51,53,-1,55,57,59,61,63,65,-1,67,-1,69,71,73,75,77,79,81,-1,-1,-1,-1,-1,-1,-1,-1,-1,-1,-1,-1,-1,-1,-1,-1,-1,-1,-1,-1,-1,-1,-1,-1,-1,-1,-1,-1,-1,-1,-1,-1,-1,-1],"loss_changes":[1.2723246E1,8.694569E0,1.1360655E1,3.1443796E0,8.664593E0,6.0181637E0,9.563382E0,0E0,2.3157282E0,5.7894526E0,7.629495E0,4.043982E0,3.756075E0,1.3917075E1,1.7383904E1,0E0,0E0,2.9903526E0,4.1221623E0,9.417947E0,1.2239705E1,4.46622E0,0E0,3.6818905E0,0E0,7.0927954E0,5.617624E0,1.0295155E1,1.1917349E1,1.256115E0,1.9450867E0,2.4728475E0,0E0,1.3734823E1,1.0051537E1,3.539383E0,9.597443E0,1.2104373E0,2.9548173E0,0E0,2.4976597E0,0E0,7.788883E0,3.7599835E0,2.6978989E0,8.43436E0,5.8949976E0,1.1598846E1,4.5361137E0,0E0,0E0,0E0,0E0,0E0,0E0,0E0,0E0,0E0,0E0,0E0,0E0,0E0,0E0,0E0,0E0,0E0,0E0,0E0,0E0,0E0,0E0,0E0,0E0,0E0,0E0,0E0,0E0,0E0,0E0,0E0,0E0,0E0,0E0],"parents":[2147483647,0,0,1,1,2,2,3,3,4,4,5,5,6,6,8,8,9,9,10,10,11,11,12,12,13,13,14,14,17,17,18,18,19,19,20,20,21,21,23,23,25,25,26,26,27,27,28,28,29,29,30,30,31,31,33,33,34,34,35,35,36,36,37,37,38,38,40,40,42,42,43,43,44,44,45,45,46,46,47,47,48,48],"right_children":[2,4,6,8,10,12,14,-1,16,18,20,22,24,26,28,-1,-1,30,32,34,36,38,-1,40,-1,42,44,46,48,50,52,54,-1,56,58,60,62,64,66,-1,68,-1,70,72,74,76,78,80,82,-1,-1,-1,-1,-1,-1,-1,-1,-1,-1,-1,-1,-1,-1,-1,-1,-1,-1,-1,-1,-1,-1,-1,-1,-1,-1,-1,-1,-1,-1,-1,-1,-1,-1],"split_conditions":[1.61E2,-9.2E1,1.08362E2,9.702099E1,-7.09E2,NaN,NaN,1.0658372E-1,1.4936608E3,NaN,3.7E2,1.1645324E2,1.25622696E2,NaN,NaN,3.7192352E-2,-4.1573235E-1,1.22E2,1.092006E2,